{"learner":{"attributes":{"scikit_learn":"{\"_estimator_type\": \"classifier\"}"},"feature_names":["SMA20","EMA20","RSI","MACD","ATR","OBV","rolling_std","rolling_mean","Close/Open","High/Low","Momentum","Volatility","VolumeChange","BB_Width","ExpVolatility","ROC","%K","%D","Body","UpperWick","LowerWick","RVOL","Trend","return_lag_1","return_lag_2","return_lag_3","return_lag_4","return_lag_5"],"feature_types":["float","float","float","float","float","float","float","float","float","float","float","float","float","float","float","float","float","float","float","float","float","float","float","float","float","float","float","float"],"gradient_booster":{"model":{"gbtree_model_param":{"num_parallel_tree":"1","num_trees":"200"},"iteration_indptr":[0,1,2,3,4,5,6,7,8,9,10,11,12,13,14,15,16,17,18,19,20,21,22,23,24,25,26,27,28,29,30,31,32,33,34,35,36,37,38,39,40,41,42,43,44,45,46,47,48,49,50,51,52,53,54,55,56,57,58,59,60,61,62,63,64,65,66,67,68,69,70,71,72,73,74,75,76,77,78,79,80,81,82,83,84,85,86,87,88,89,90,91,92,93,94,95,96,97,98,99,100,101,102,103,104,105,106,107,108,109,110,111,112,113,114,115,116,117,118,119,120,121,122,123,124,125,126,127,128,129,130,131,132,133,134,135,136,137,138,139,140,141,142,143,144,145,146,147,148,149,150,151,152,153,154,155,156,157,158,159,160,161,162,163,164,165,166,167,168,169,170,171,172,173,174,175,176,177,178,179,180,181,182,183,184,185,186,187,188,189,190,191,192,193,194,195,196,197,198,199,200],"tree_info":[0,0,0,0,0,0,0,0,0,0,0,0,0,0,0,0,0,0,0,0,0,0,0,0,0,0,0,0,0,0,0,0,0,0,0,0,0,0,0,0,0,0,0,0,0,0,0,0,0,0,0,0,0,0,0,0,0,0,0,0,0,0,0,0,0,0,0,0,0,0,0,0,0,0,0,0,0,0,0,0,0,0,0,0,0,0,0,0,0,0,0,0,0,0,0,0,0,0,0,0,0,0,0,0,0,0,0,0,0,0,0,0,0,0,0,0,0,0,0,0,0,0,0,0,0,0,0,0,0,0,0,0,0,0,0,0,0,0,0,0,0,0,0,0,0,0,0,0,0,0,0,0,0,0,0,0,0,0,0,0,0,0,0,0,0,0,0,0,0,0,0,0,0,0,0,0,0,0,0,0,0,0,0,0,0,0,0,0,0,0,0,0,0,0,0,0,0,0,0,0],"trees":[{"base_weights":[-0E0,6.386504E-2,-1.0215061E0,-1.6435337E-1,3.2706633E-1,-1.7039931E0,-0E0,5.568085E-1,-4.5310348E-1,1.3638555E0,1.1557538E-1,-2.0626917E-2,-1.7923664E-1,8.3040726E-1,-1.3191585E-1,8.128284E-1,-1.1883796E0,1.6988346E-1,-6.489579E-1,1.514186E0,-4.0529616E-2,1.4218898E0,8.930818E-3,1.4006363E-1,-4.0529616E-2,1.1183542E-1,-2.7414149E-2,-1.5107293E-1,-0E0,7.939675E-2,-5.206542E-2,3.0550702E-2,-7.371504E-2,1.3449535E-2,1.6231525E-1,-0E0,1.6155864E-1,-4.0873453E-2,5.1792562E-2],"categories":[],"categories_nodes":[],"categories_segments":[],"categories_sizes":[],"default_left":[0,0,0,0,0,0,0,0,0,0,0,0,0,0,0,0,0,0,0,0,0,0,0,0,0,0,0,0,0,0,0,0,0,0,0,0,0,0,0],"id":0,"left_children":[1,3,5,7,9,11,13,15,17,19,21,-1,-1,23,-1,25,27,29,31,33,-1,35,37,-1,-1,-1,-1,-1,-1,-1,-1,-1,-1,-1,-1,-1,-1,-1,-1],"loss_changes":[2.0284523E1,1.7715034E1,1.3012894E1,3.2768547E1,2.9201996E1,9.440613E-2,1.0046616E1,2.0737286E1,1.4104427E1,7.222378E0,1.5363159E1,0E0,0E0,5.1100793E0,0E0,1.3946079E1,2.544815E0,1.2248301E1,7.7294083E0,2.128067E0,0E0,1.985609E0,2.3257439E1,0E0,0E0,0E0,0E0,0E0,0E0,0E0,0E0,0E0,0E0,0E0,0E0,0E0,0E0,0E0,0E0],"parents":[2147483647,0,0,1,1,2,2,3,3,4,4,5,5,6,6,7,7,8,8,9,9,10,10,13,13,15,15,16,16,17,17,18,18,19,19,21,21,22,22],"right_children":[2,4,6,8,10,12,14,16,18,20,22,-1,-1,24,-1,26,28,30,32,34,-1,36,38,-1,-1,-1,-1,-1,-1,-1,-1,-1,-1,-1,-1,-1,-1,-1,-1],"split_conditions":[7.002855E6,1.5967982E1,2.3208919E2,1.1081545E0,1.985428E1,4.9824E2,1.5469606E-1,8.5185394E1,4.3600002E1,1.0799988E1,2.498E2,-2.0626917E-2,-1.7923664E-1,7.9077E2,-1.3191585E-1,2.4E0,1.4415058E0,-1.2397265E0,2.6143641E0,6.9999695E-1,-4.0529616E-2,1.00067795E2,-3.5166213E-1,1.4006363E-1,-4.0529616E-2,1.1183542E-1,-2.7414149E-2,-1.5107293E-1,-0E0,7.939675E-2,-5.206542E-2,3.0550702E-2,-7.371504E-2,1.3449535E-2,1.6231525E-1,-0E0,1.6155864E-1,-4.0873453E-2,5.1792562E-2],"split_indices":[5,14,13,6,4,0,15,17,7,19,7,0,0,0,0,4,14,3,16,18,0,13,3,0,0,0,0,0,0,0,0,0,0,0,0,0,0,0,0],"split_type":[0,0,0,0,0,0,0,0,0,0,0,0,0,0,0,0,0,0,0,0,0,0,0,0,0,0,0,0,0,0,0,0,0,0,0,0,0,0,0],"sum_hessian":[3.0896545E2,2.9167004E2,1.729541E1,1.5540033E2,1.3626973E2,1.0056542E1,7.238867E0,4.367094E1,1.11729385E2,2.1763906E1,1.1450582E2,1.0613285E0,8.9952135E0,4.740196E0,2.4986706E0,3.8799744E1,4.8711944E0,2.614507E1,8.558432E1,2.045271E1,1.3111956E0,7.3577356E0,1.0714809E2,3.4290009E0,1.3111956E0,3.062327E1,8.176475E0,3.7480059E0,1.1231887E0,1.4035008E1,1.2110062E1,6.551126E0,7.903319E1,1.9965105E0,1.84562E1,1.1231887E0,6.2345467E0,5.84228E1,4.872529E1],"tree_param":{"num_deleted":"0","num_feature":"28","num_nodes":"39","size_leaf_vector":"1"}},{"base_weights":[-0E0,6.921104E-2,-8.185148E-1,-1.3410686E-1,3.5570076E-1,-1.4051664E0,1.520366E-1,5.0001335E-1,-3.653614E-1,1.2853743E0,1.6058742E-1,-1.7269866E-1,-4.8146838E-1,1.087649E0,-7.7881867E-1,8.07745E-1,-7.6494455E-1,-1.3576908E-1,-7.6963675E-1,1.451782E0,-4.201025E-2,1.5170892E-1,4.59519E-2,3.1031922E-1,-1.23581104E-1,-0E0,1.3232516E-1,3.9581817E-2,-1.351287E-1,1.13856904E-1,-2.4960978E-2,-1.3612822E-1,2.380688E-2,8.140194E-2,-4.0312916E-2,1.0698154E-1,-9.31025E-2,-0E0,1.5415424E-1,-7.242073E-2,2.8013272E-2,-1.8258374E-2,8.470242E-2],"categories":[],"categories_nodes":[],"categories_segments":[],"categories_sizes":[],"default_left":[0,0,0,0,0,0,0,0,0,0,0,0,0,0,0,0,0,0,0,0,0,0,0,0,0,0,0,0,0,0,0,0,0,0,0,0,0,0,0,0,0,0,0],"id":1,"left_children":[1,3,5,7,9,11,13,15,17,19,21,-1,23,25,27,29,31,33,35,37,-1,-1,39,41,-1,-1,-1,-1,-1,-1,-1,-1,-1,-1,-1,-1,-1,-1,-1,-1,-1,-1,-1],"loss_changes":[1.7608864E1,1.6826374E1,1.4640303E1,2.4615908E1,2.0851261E1,2.679306E0,9.460113E0,1.7958656E1,1.0913664E1,6.870449E0,1.48287E1,0E0,4.310092E0,1.1795793E0,4.498111E0,1.3528025E1,6.2100215E0,2.064671E1,1.3917515E1,2.4454727E0,0E0,0E0,1.6996988E1,1.361287E0,0E0,0E0,0E0,0E0,0E0,0E0,0E0,0E0,0E0,0E0,0E0,0E0,0E0,0E0,0E0,0E0,0E0,0E0,0E0],"parents":[2147483647,0,0,1,1,2,2,3,3,4,4,5,5,6,6,7,7,8,8,9,9,10,10,12,12,13,13,14,14,15,15,16,16,17,17,18,18,19,19,22,22,23,23],"right_children":[2,4,6,8,10,12,14,16,18,20,22,-1,24,26,28,30,32,34,36,38,-1,-1,40,42,-1,-1,-1,-1,-1,-1,-1,-1,-1,-1,-1,-1,-1,-1,-1,-1,-1,-1,-1],"split_conditions":[5.7702E2,1.7890078E1,6.8589584E1,1.1081545E0,2.0619999E1,1.7200012E1,8.505737E-1,8.421038E1,-1.4208202E0,4.1281E2,2.5108E2,-1.7269866E-1,3.831616E1,6.4944E2,1.5512976E1,2.4E0,1E0,5.488E1,-5.195976E7,1.9581E2,-4.201025E-2,1.5170892E-1,2.2688574E1,8.886998E0,-1.23581104E-1,-0E0,1.3232516E-1,3.9581817E-2,-1.351287E-1,1.13856904E-1,-2.4960978E-2,-1.3612822E-1,2.380688E-2,8.140194E-2,-4.0312916E-2,1.0698154E-1,-9.31025E-2,-0E0,1.5415424E-1,-7.242073E-2,2.8013272E-2,-1.8258374E-2,8.470242E-2],"split_indices":[0,14,14,6,4,20,21,16,3,0,7,0,16,0,2,4,4,7,5,0,0,0,4,3,0,0,0,0,0,0,0,0,0,0,0,0,0,0,0,0,0,0,0],"split_type":[0,0,0,0,0,0,0,0,0,0,0,0,0,0,0,0,0,0,0,0,0,0,0,0,0,0,0,0,0,0,0,0,0,0,0,0,0,0,0,0,0,0,0],"sum_hessian":[3.0838846E2,2.851512E2,2.3237257E1,1.6607597E2,1.1907525E2,1.4524978E1,8.712279E0,4.3492214E1,1.22583755E2,1.9241787E1,9.983346E1,9.725595E0,4.7993827E0,4.5289173E0,4.1833625E0,3.559064E1,7.901571E0,7.982366E1,4.2760094E1,1.793386E1,1.3079258E0,6.486143E0,9.334731E1,2.30537E0,2.4940126E0,1.1198912E0,3.4090261E0,1.1856714E0,2.997691E0,2.7410532E1,8.180109E0,5.043991E0,2.8575792E0,1.6674217E1,6.3149445E1,2.7451215E0,4.0014973E1,1.1116674E0,1.6822193E1,2.0779938E1,7.2567375E1,1.0600392E0,1.2453309E0],"tree_param":{"num_deleted":"0","num_feature":"28","num_nodes":"43","size_leaf_vector":"1"}},{"base_weights":[-0E0,5.6086335E-2,-8.984749E-1,-1.3791038E-1,2.8058457E-1,-1.4979938E0,-0E0,4.524388E-1,-3.7275624E-1,1.175629E0,1.00389965E-1,-1.5890001E-1,-8.086281E-3,7.302003E-1,-1.1540917E-1,7.597816E-1,-6.268701E-1,1.1289113E-1,-4.3375805E-1,1.3138767E0,-3.7422474E-2,5.2113396E-1,-1.5210477E-1,1.2409935E-1,-3.356413E-2,1.08608685E-1,-2.273506E-2,-1.1536284E-1,1.8669156E-2,1.311546E-2,-5.9800416E-2,1.3904224E-1,-0E0,7.332109E-2,-1.2650093E-1,-9.333991E-2,2.7326299E-2],"categories":[],"categories_nodes":[],"categories_segments":[],"categories_sizes":[],"default_left":[0,0,0,0,0,0,0,0,0,0,0,0,0,0,0,0,0,0,0,0,0,0,0,0,0,0,0,0,0,0,0,0,0,0,0,0,0],"id":2,"left_children":[1,3,5,7,9,11,13,15,17,19,21,-1,-1,23,-1,25,27,-1,29,31,-1,33,35,-1,-1,-1,-1,-1,-1,-1,-1,-1,-1,-1,-1,-1,-1],"loss_changes":[1.5501106E1,1.2784337E1,9.929879E0,2.1699814E1,2.124723E1,4.4555092E-1,7.64926E0,1.5179959E1,1.0444241E1,5.740635E0,1.2493868E1,0E0,0E0,3.9560661E0,0E0,1.2000919E1,4.9704137E0,0E0,1.0436108E1,2.2228508E0,0E0,1.7383593E1,2.4505993E1,0E0,0E0,0E0,0E0,0E0,0E0,0E0,0E0,0E0,0E0,0E0,0E0,0E0,0E0],"parents":[2147483647,0,0,1,1,2,2,3,3,4,4,5,5,6,6,7,7,8,8,9,9,10,10,13,13,15,15,16,16,18,18,19,19,21,21,22,22],"right_children":[2,4,6,8,10,12,14,16,18,20,22,-1,-1,24,-1,26,28,-1,30,32,-1,34,36,-1,-1,-1,-1,-1,-1,-1,-1,-1,-1,-1,-1,-1,-1],"split_conditions":[7.002855E6,1.5967982E1,2.3208919E2,1.1081545E0,1.985428E1,7.2E1,1.5469606E-1,8.274194E1,3.2329227E1,1.0799988E1,3.1149457E2,-1.5890001E-1,-8.086281E-3,7.9077E2,-1.1540917E-1,2.4E0,1E0,1.1289113E-1,9.6941495E-1,9.5106026E1,-3.7422474E-2,7.027027E1,1.3568146E2,1.2409935E-1,-3.356413E-2,1.08608685E-1,-2.273506E-2,-1.1536284E-1,1.8669156E-2,1.311546E-2,-5.9800416E-2,1.3904224E-1,-0E0,7.332109E-2,-1.2650093E-1,-9.333991E-2,2.7326299E-2],"split_indices":[5,14,13,6,4,2,15,16,1,19,1,0,0,0,0,4,4,0,8,17,0,2,13,0,0,0,0,0,0,0,0,0,0,0,0,0,0],"split_type":[0,0,0,0,0,0,0,0,0,0,0,0,0,0,0,0,0,0,0,0,0,0,0,0,0,0,0,0,0,0,0,0,0,0,0,0,0],"sum_hessian":[3.0708414E2,2.9001596E2,1.7068176E1,1.5458887E2,1.3542711E2,9.925E0,7.143176E0,4.3125515E1,1.11463356E2,2.1304842E1,1.1412226E2,8.880595E0,1.0444052E0,4.6699514E0,2.4732244E0,3.4158024E1,8.967493E0,3.3478334E0,1.0811552E2,1.9996052E1,1.3087901E0,4.3144623E1,7.097764E1,3.3630345E0,1.3069173E0,2.5977278E1,8.180745E0,5.562509E0,3.404984E0,2.3713146E1,8.4402374E1,1.889772E1,1.0983319E0,3.9342716E1,3.8019066E0,2.5014101E1,4.596354E1],"tree_param":{"num_deleted":"0","num_feature":"28","num_nodes":"37","size_leaf_vector":"1"}},{"base_weights":[-0E0,6.111966E-2,-7.3439604E-1,-1.23899624E-1,2.971208E-1,-1.2208427E0,1.8112439E-1,1.7961352E-1,-5.039951E-1,1.3804557E0,1.2923865E-1,-1.5442568E-1,-4.7712922E-1,9.288351E-1,-5.745828E-1,3.0112466E-1,-8.7727684E-1,7.9243916E-1,-5.72875E-1,1.4874909E0,-0E0,-6.605453E-2,6.6634053E-1,2.514016E-1,-1.1938631E-1,-0E0,1.1648698E-1,3.7983283E-2,-1.1550184E-1,5.1539272E-2,-3.0280784E-2,3.057499E-2,-1.2753431E-1,-0E0,1.10366896E-1,4.4130124E-2,-6.746559E-2,1.5817158E-1,-0E0,7.87747E-3,-1.2757663E-1,-4.7594357E-2,9.31676E-2,9.309629E-2,-3.962087E-2],"categories":[],"categories_nodes":[],"categories_segments":[],"categories_sizes":[],"default_left":[0,0,0,0,0,0,0,0,0,0,0,0,0,0,0,0,0,0,0,0,0,0,0,0,0,0,0,0,0,0,0,0,0,0,0,0,0,0,0,0,0,0,0,0,0],"id":3,"left_children":[1,3,5,7,9,11,13,15,17,19,21,-1,23,25,27,29,31,33,35,37,-1,39,41,43,-1,-1,-1,-1,-1,-1,-1,-1,-1,-1,-1,-1,-1,-1,-1,-1,-1,-1,-1,-1,-1],"loss_changes":[1.3889744E1,1.25043545E1,1.1335649E1,1.8533072E1,2.199852E1,2.1059723E0,5.665456E0,1.1291613E1,6.7153873E0,2.63727E0,1.1952822E1,0E0,4.3069983E0,1.0370064E0,3.4001746E0,1.0639722E1,5.073852E0,8.160851E-1,7.505316E0,1.6506271E0,0E0,1.4958401E1,9.84991E0,2.325311E0,0E0,0E0,0E0,0E0,0E0,0E0,0E0,0E0,0E0,0E0,0E0,0E0,0E0,0E0,0E0,0E0,0E0,0E0,0E0,0E0,0E0],"parents":[2147483647,0,0,1,1,2,2,3,3,4,4,5,5,6,6,7,7,8,8,9,9,10,10,12,12,13,13,14,14,15,15,16,16,17,17,18,18,19,19,21,21,22,22,23,23],"right_children":[2,4,6,8,10,12,14,16,18,20,22,-1,24,26,28,30,32,34,36,38,-1,40,42,44,-1,-1,-1,-1,-1,-1,-1,-1,-1,-1,-1,-1,-1,-1,-1,-1,-1,-1,-1,-1,-1],"split_conditions":[5.7702E2,7.306515E1,7.1363945E1,1E0,2.4536E2,1.4400024E1,8.3028877E-1,8.5185394E1,1.2901363E1,2.176871E-1,6.410835E1,-1.5442568E-1,3.831616E1,-3.6926523E-1,-1.6465865E-1,2.5999985E0,-7.931E4,1.2594E2,-2.8199997E1,6.6711144E0,-0E0,4.8852002E2,2.705841E2,3.5670258E1,-1.1938631E-1,-0E0,1.1648698E-1,3.7983283E-2,-1.1550184E-1,5.1539272E-2,-3.0280784E-2,3.057499E-2,-1.2753431E-1,-0E0,1.10366896E-1,4.4130124E-2,-6.746559E-2,1.5817158E-1,-0E0,7.87747E-3,-1.2757663E-1,-4.7594357E-2,9.31676E-2,9.309629E-2,-3.962087E-2],"split_indices":[0,13,14,19,7,20,21,17,2,27,2,0,16,12,27,18,5,0,22,3,0,7,1,6,0,0,0,0,0,0,0,0,0,0,0,0,0,0,0,0,0,0,0,0,0],"split_type":[0,0,0,0,0,0,0,0,0,0,0,0,0,0,0,0,0,0,0,0,0,0,0,0,0,0,0,0,0,0,0,0,0,0,0,0,0,0,0,0,0,0,0,0,0],"sum_hessian":[3.0533453E2,2.825451E2,2.2789423E1,1.574581E2,1.2508702E2,1.5020937E1,7.768487E0,8.711066E1,7.034744E1,1.5414838E1,1.0967219E2,9.249813E0,5.771124E0,4.1223226E0,3.6461644E0,7.919387E1,7.916784E0,2.6528428E0,6.7694595E1,1.4329426E1,1.0854112E0,8.038856E1,2.9283625E1,2.8380213E0,2.9331024E0,1.1013002E0,3.0210223E0,1.1838064E0,2.462358E0,5.9174114E1,2.0019758E1,1.7353314E0,6.1814523E0,1.0997174E0,1.5531255E0,5.421797E0,6.22728E1,1.3217208E1,1.1122181E0,7.225911E1,8.129452E0,5.015117E0,2.4268507E1,1.5480886E0,1.2899327E0],"tree_param":{"num_deleted":"0","num_feature":"28","num_nodes":"45","size_leaf_vector":"1"}},{"base_weights":[-0E0,5.5980034E-2,-6.8117166E-1,-1.041938E-1,2.8324217E-1,-1.1745334E0,1.1596586E-1,3.0851008E-2,-7.8516316E-1,1.0625007E0,1.252312E-1,-1.4497782E-1,-3.8063225E-1,9.170149E-1,-6.493569E-1,-7.00497E-2,1.1812032E0,-1.4679773E0,-2.2362708E-1,1.2215102E0,-4.2650487E-2,9.3768966E-1,-0E0,2.527329E-1,-1.02857985E-1,-0E0,1.1371439E-1,3.5699986E-2,-1.17173076E-1,9.9632375E-2,-1.649963E-2,3.3761524E-2,1.5029944E-1,-3.3877206E-3,-1.6388528E-1,9.354096E-2,-7.8640595E-2,1.3205775E-3,1.3555418E-1,1.222072E-1,-5.6176256E-2,-7.363378E-2,3.2359272E-2,7.622199E-2,-1.8110836E-2],"categories":[],"categories_nodes":[],"categories_segments":[],"categories_sizes":[],"default_left":[0,0,0,0,0,0,0,0,0,0,0,0,0,0,0,0,0,0,0,0,0,0,0,0,0,0,0,0,0,0,0,0,0,0,0,0,0,0,0,0,0,0,0,0,0],"id":4,"left_children":[1,3,5,7,9,11,13,15,17,19,21,-1,23,25,27,29,31,33,35,37,-1,39,41,43,-1,-1,-1,-1,-1,-1,-1,-1,-1,-1,-1,-1,-1,-1,-1,-1,-1,-1,-1,-1,-1],"loss_changes":[1.1725995E1,1.0390879E1,9.854802E0,1.5571598E1,1.3829582E1,1.7911453E0,6.526149E0,1.6657578E1,9.542942E0,5.4793262E0,1.031343E1,0E0,2.9716034E0,9.967623E-1,3.50769E0,1.2650555E1,1.7170734E0,2.0565357E0,1.1697063E1,2.207447E0,0E0,6.77864E0,2.1136904E1,1.1526902E0,0E0,0E0,0E0,0E0,0E0,0E0,0E0,0E0,0E0,0E0,0E0,0E0,0E0,0E0,0E0,0E0,0E0,0E0,0E0,0E0,0E0],"parents":[2147483647,0,0,1,1,2,2,3,3,4,4,5,5,6,6,7,7,8,8,9,9,10,10,12,12,13,13,14,14,15,15,16,16,17,17,18,18,19,19,21,21,22,22,23,23],"right_children":[2,4,6,8,10,12,14,16,18,20,22,-1,24,26,28,30,32,34,36,38,-1,40,42,44,-1,-1,-1,-1,-1,-1,-1,-1,-1,-1,-1,-1,-1,-1,-1,-1,-1,-1,-1,-1,-1],"split_conditions":[5.7702E2,1.7890078E1,6.8589584E1,2.2236368E2,2.0619999E1,1.7200012E1,8.505737E-1,2.0493E2,2.474E2,4.1281E2,1.155E5,-1.4497782E-1,3.831616E1,-3.6926523E-1,1.5512976E1,-5.168203E7,2.0714276E0,-2.1600006E1,-5.65045E5,8.340745E0,-4.2650487E-2,5.374149E1,2.3955715E1,1.0670104E0,-1.02857985E-1,-0E0,1.1371439E-1,3.5699986E-2,-1.17173076E-1,9.9632375E-2,-1.649963E-2,3.3761524E-2,1.5029944E-1,-3.3877206E-3,-1.6388528E-1,9.354096E-2,-7.8640595E-2,1.3205775E-3,1.3555418E-1,1.222072E-1,-5.6176256E-2,-7.363378E-2,3.2359272E-2,7.622199E-2,-1.8110836E-2],"split_indices":[0,14,14,1,4,20,21,0,7,0,5,0,16,12,2,5,4,10,5,6,0,16,4,9,0,0,0,0,0,0,0,0,0,0,0,0,0,0,0,0,0,0,0,0,0],"split_type":[0,0,0,0,0,0,0,0,0,0,0,0,0,0,0,0,0,0,0,0,0,0,0,0,0,0,0,0,0,0,0,0,0,0,0,0,0,0,0,0,0,0,0,0,0],"sum_hessian":[3.0354825E2,2.8118225E2,2.2366E1,1.6396295E2,1.1721929E2,1.3910416E1,8.455585E0,1.3701216E2,2.695079E1,1.8263096E1,9.89562E1,9.248146E0,4.662269E0,4.3537292E0,4.101855E0,1.26427315E2,1.0584848E1,1.1031782E1,1.5919009E1,1.6966682E1,1.2964134E0,1.2512502E1,8.6443695E1,2.2758853E0,2.3863838E0,1.1013002E0,3.252429E0,1.18273E0,2.9191248E0,9.129667E0,1.17297646E2,3.9176238E0,6.6672244E0,1.6136155E0,9.418166E0,4.6963515E0,1.1222657E1,2.176288E0,1.4790394E1,1.09535265E1,1.5589752E0,2.6145773E1,6.0297924E1,1.2286227E0,1.0472627E0],"tree_param":{"num_deleted":"0","num_feature":"28","num_nodes":"45","size_leaf_vector":"1"}},{"base_weights":[-0E0,4.591352E-2,-7.7332765E-1,1.1224455E-2,9.997528E-1,-1.2946532E0,-0E0,5.6087878E-2,-7.435859E-1,1.2413076E0,-5.664071E-3,-1.373813E-1,-3.8019137E-3,6.279924E-1,-9.869202E-2,-2.6794177E-1,1.6965652E-1,-1.4169624E0,4.0583837E-1,-0E0,1.4184879E-1,1.07303575E-1,-2.4460847E-2,9.177502E-2,-4.7383554E-2,5.931552E-2,6.7624003E-3,-4.687118E-3,-1.5128163E-1,-7.983496E-2,1.06573634E-1],"categories":[],"categories_nodes":[],"categories_segments":[],"categories_sizes":[],"default_left":[0,0,0,0,0,0,0,0,0,0,0,0,0,0,0,0,0,0,0,0,0,0,0,0,0,0,0,0,0,0,0],"id":5,"left_children":[1,3,5,7,9,11,13,15,17,19,-1,-1,-1,21,-1,23,25,27,29,-1,-1,-1,-1,-1,-1,-1,-1,-1,-1,-1,-1],"loss_changes":[1.0788667E1,8.970484E0,7.025218E0,9.118183E0,3.0982018E0,2.6319695E-1,5.386275E0,9.716259E0,1.2730461E1,1.6148558E0,0E0,0E0,0E0,2.7858462E0,0E0,1.6763336E1,8.156569E0,4.6098328E-1,5.8027344E0,0E0,0E0,0E0,0E0,0E0,0E0,0E0,0E0,0E0,0E0,0E0,0E0],"parents":[2147483647,0,0,1,1,2,2,3,3,4,4,5,5,6,6,7,7,8,8,9,9,13,13,15,15,16,16,17,17,18,18],"right_children":[2,4,6,8,10,12,14,16,18,20,-1,-1,-1,22,-1,24,26,28,30,-1,-1,-1,-1,-1,-1,-1,-1,-1,-1,-1,-1],"split_conditions":[7.002855E6,2.5400892E1,2.3208919E2,5.708445E6,1.336E2,7.2710074E-2,1.5469606E-1,1.7103E2,-4.8415866E-1,1.7861838E2,-5.664071E-3,-1.373813E-1,-3.8019137E-3,7.9077E2,-9.869202E-2,-5.168203E7,1.9616E2,6.116408E-1,-7.464216E-2,-0E0,1.4184879E-1,1.07303575E-1,-2.4460847E-2,9.177502E-2,-4.7383554E-2,5.931552E-2,6.7624003E-3,-4.687118E-3,-1.5128163E-1,-7.983496E-2,1.06573634E-1],"split_indices":[5,3,13,5,10,15,15,0,3,13,0,0,0,0,0,5,7,21,15,0,0,0,0,0,0,0,0,0,0,0,0],"split_type":[0,0,0,0,0,0,0,0,0,0,0,0,0,0,0,0,0,0,0,0,0,0,0,0,0,0,0,0,0,0,0],"sum_hessian":[3.0175735E2,2.857279E2,1.6029469E1,2.771833E2,8.54459E0,9.267388E0,6.7620807E0,2.6313174E2,1.4051566E1,7.1971555E0,1.3474349E0,8.256167E0,1.0112205E0,4.4311438E0,2.330937E0,6.679446E1,1.9633728E2,8.988186E0,5.0633802E0,1.1173152E0,6.07984E0,3.1618438E0,1.2693001E0,9.01181E0,5.778265E1,3.6233177E1,1.601041E2,1.0261477E0,7.9620385E0,1.4499665E0,3.6134138E0],"tree_param":{"num_deleted":"0","num_feature":"28","num_nodes":"31","size_leaf_vector":"1"}},{"base_weights":[-0E0,7.4859805E-2,-4.1300607E-1,3.81313E-3,1.3866861E0,-1.2785419E0,-4.1613493E-2,1.0164415E-1,-4.8548928E-1,-0E0,1.5841977E-1,4.917607E-4,-1.4279623E0,1.0161395E0,-3.6049277E-1,-1.0239795E-1,5.465999E-1,7.395051E-1,-7.7770585E-1,-5.18268E-3,-1.4994471E-1,1.5145586E-1,-4.248777E-2,-1.2782613E0,3.3239135E-1,1.1911334E-2,-5.7939973E-2,7.23223E-2,-8.383357E-2,1.2948535E-1,-8.1198655E-2,-1.3091134E-1,7.582713E-3,2.0984288E-2,-1.53772E-1,1.2217393E-1,-3.801571E-2],"categories":[],"categories_nodes":[],"categories_segments":[],"categories_sizes":[],"default_left":[0,0,0,0,0,0,0,0,0,0,0,0,0,0,0,0,0,0,0,0,0,0,0,0,0,0,0,0,0,0,0,0,0,0,0,0,0],"id":6,"left_children":[1,3,5,7,9,11,13,15,17,-1,-1,-1,19,21,23,25,27,29,31,-1,-1,-1,-1,33,35,-1,-1,-1,-1,-1,-1,-1,-1,-1,-1,-1,-1],"loss_changes":[9.416861E0,2.3132423E1,1.4332568E1,1.1534703E1,4.0811825E0,3.3296986E0,1.1570606E1,1.8887619E1,1.4901462E1,0E0,0E0,0E0,3.8105965E-1,6.8037043E0,1.8303635E1,1.5155449E1,1.6539299E1,8.083254E0,1.5723497E1,0E0,0E0,0E0,0E0,5.7324867E0,1.1075112E1,0E0,0E0,0E0,0E0,0E0,0E0,0E0,0E0,0E0,0E0,0E0,0E0],"parents":[2147483647,0,0,1,1,2,2,3,3,4,4,5,5,6,6,7,7,8,8,12,12,13,13,14,14,15,15,16,16,17,17,18,18,23,23,24,24],"right_children":[2,4,6,8,10,12,14,16,18,-1,-1,-1,20,22,24,26,28,30,32,-1,-1,-1,-1,34,36,-1,-1,-1,-1,-1,-1,-1,-1,-1,-1,-1,-1],"split_conditions":[4.7759E2,4.532809E2,1.8326338E2,1.72017E6,-1.1098779E-1,1.0319492E1,4.902885E6,1.4390644E1,1.8867138E1,-0E0,1.5841977E-1,4.917607E-4,5.0167215E-1,4.8852002E2,5.6257167E0,6.435714E0,3.163571E2,5.10182E6,2.5074291E1,-5.18268E-3,-1.4994471E-1,1.5145586E-1,-4.248777E-2,-1.6465865E-1,7.08153E6,1.1911334E-2,-5.7939973E-2,7.23223E-2,-8.383357E-2,1.2948535E-1,-8.1198655E-2,-1.3091134E-1,7.582713E-3,2.0984288E-2,-1.53772E-1,1.2217393E-1,-3.801571E-2],"split_indices":[0,1,13,5,27,6,5,14,4,0,0,0,21,7,3,4,1,5,4,0,0,0,0,27,5,0,0,0,0,0,0,0,0,0,0,0,0],"split_type":[0,0,0,0,0,0,0,0,0,0,0,0,0,0,0,0,0,0,0,0,0,0,0,0,0,0,0,0,0,0,0,0,0,0,0,0,0],"sum_hessian":[3.0052167E2,2.5471599E2,4.580567E1,2.4294261E2,1.17733755E1,1.2615714E1,3.3189957E1,2.0397418E2,3.8968426E1,1.3603418E0,1.0413034E1,1.0674635E0,1.154825E1,6.818327E0,2.637163E1,1.39603E2,6.4371185E1,6.881002E0,3.2087425E1,1.0008403E0,1.054741E1,5.285961E0,1.5323658E0,1.1291761E1,1.5079867E1,9.512888E1,4.4474117E1,5.78343E1,6.536882E0,5.4263515E0,1.4546504E0,1.9807417E1,1.2280007E1,1.4187531E0,9.873008E0,6.702022E0,8.377846E0],"tree_param":{"num_deleted":"0","num_feature":"28","num_nodes":"37","size_leaf_vector":"1"}},{"base_weights":[-0E0,9.606574E-1,-3.0024214E-2,1.17051855E-1,1.3413946E-1,1.6913777E-2,-6.725382E-1,9.037794E-2,-7.7322096E-2,-3.563364E-1,1.19500555E-1,-1.0009075E0,3.5494256E-1,-0E0,-1.5275341E0,4.8438278E-1,2.9188154E-2,-1.3306485E-1,-4.026192E-1,9.910299E-2,-6.678471E-2,-3.3798013E-2,1.4055695E-1,-1.6119175E-1,-1.9261191E-3,8.184293E-2,-9.927493E-2,-1.1441731E-2,4.539682E-2,3.8548496E-2,-1.0612094E-1],"categories":[],"categories_nodes":[],"categories_segments":[],"categories_sizes":[],"default_left":[0,0,0,0,0,0,0,0,0,0,0,0,0,0,0,0,0,0,0,0,0,0,0,0,0,0,0,0,0,0,0],"id":7,"left_children":[1,3,5,7,-1,9,11,-1,-1,13,15,17,19,21,23,25,27,-1,29,-1,-1,-1,-1,-1,-1,-1,-1,-1,-1,-1,-1],"loss_changes":[8.40824E0,1.9487429E0,9.126494E0,3.7399435E0,0E0,1.0331002E1,7.623971E0,0E0,0E0,2.386465E1,6.813752E0,1.7997208E0,4.307459E0,2.187461E1,8.553448E-1,2.1198997E1,1.0866244E1,0E0,4.7641826E0,0E0,0E0,0E0,0E0,0E0,0E0,0E0,0E0,0E0,0E0,0E0,0E0],"parents":[2147483647,0,0,1,1,2,2,3,3,5,5,6,6,9,9,10,10,11,11,12,12,13,13,14,14,15,15,16,16,18,18],"right_children":[2,4,6,8,-1,10,12,-1,-1,14,16,18,20,22,24,26,28,-1,30,-1,-1,-1,-1,-1,-1,-1,-1,-1,-1,-1,-1],"split_conditions":[1.5512976E1,1.2594E2,5.7702E2,7.088E1,1.3413946E-1,1.6934E2,6.519113E1,9.037794E-2,-7.7322096E-2,-3.305925E7,1.9616E2,7.636E2,7.462485E6,3.0346653E1,1.6875E2,8.070308E1,6.410835E1,-1.3306485E-1,3.831616E1,9.910299E-2,-6.678471E-2,-3.3798013E-2,1.4055695E-1,-1.6119175E-1,-1.9261191E-3,8.184293E-2,-9.927493E-2,-1.1441731E-2,4.539682E-2,3.8548496E-2,-1.0612094E-1],"split_indices":[2,0,0,0,0,0,3,0,0,5,7,7,5,13,0,16,2,0,16,0,0,0,0,0,0,0,0,0,0,0,0],"split_type":[0,0,0,0,0,0,0,0,0,0,0,0,0,0,0,0,0,0,0,0,0,0,0,0,0,0,0,0,0,0,0],"sum_hessian":[2.9819904E2,7.8264284E0,2.9037262E2,3.2487643E0,4.577664E0,2.707862E2,1.9586437E1,2.014776E0,1.2339884E0,5.679536E1,2.1399083E2,1.5231227E1,4.3552103E0,4.442269E1,1.2372667E1,4.049247E1,1.7349835E2,8.49144E0,6.739786E0,3.0057828E0,1.3494275E0,3.651984E1,7.902851E0,1.1338112E1,1.0345559E0,3.366395E1,6.8285174E0,1.2932948E2,4.4168877E1,2.9113693E0,3.8284168E0],"tree_param":{"num_deleted":"0","num_feature":"28","num_nodes":"31","size_leaf_vector":"1"}},{"base_weights":[-0E0,1.1381698E-1,-2.5516227E-2,-3.776708E-1,5.801245E-2,3.052261E-1,-7.505317E-1,2.2923596E-1,-1.9225383E-1,8.855465E-1,-6.1268085E-1,-3.1822187E-1,-1.2999326E0,-5.82676E-3,5.115825E-1,-7.672505E-1,-0E0,-4.786023E-2,1.3132438E-1,-1.3254791E-1,5.327182E-2,8.129891E-2,-9.307384E-2,-1.4844514E-1,-0E0,2.5355926E-2,-6.2879376E-2,6.748398E-2,-7.7014074E-2,-1.3383375E-1,-0E0,5.661509E-2,-3.651103E-2],"categories":[],"categories_nodes":[],"categories_segments":[],"categories_sizes":[],"default_left":[0,0,0,0,0,0,0,0,0,0,0,0,0,0,0,0,0,0,0,0,0,0,0,0,0,0,0,0,0,0,0,0,0],"id":8,"left_children":[1,-1,3,5,7,9,11,13,15,17,19,21,23,25,27,29,31,-1,-1,-1,-1,-1,-1,-1,-1,-1,-1,-1,-1,-1,-1,-1,-1],"loss_changes":[8.188515E0,0E0,8.78683E0,1.5058676E1,1.0182987E1,1.1597505E1,7.7715855E0,9.671964E0,1.0300364E1,8.805976E0,7.794611E0,1.6770178E1,3.3808022E0,1.2860893E1,1.416383E1,1.0860063E1,1.5197369E1,0E0,0E0,0E0,0E0,0E0,0E0,0E0,0E0,0E0,0E0,0E0,0E0,0E0,0E0,0E0,0E0],"parents":[2147483647,0,0,2,2,3,3,4,4,5,5,6,6,7,7,8,8,9,9,10,10,11,11,12,12,13,13,14,14,15,15,16,16],"right_children":[2,-1,4,6,8,10,12,14,16,18,20,22,24,26,28,30,32,-1,-1,-1,-1,-1,-1,-1,-1,-1,-1,-1,-1,-1,-1,-1,-1],"split_conditions":[3.2329227E1,1.1381698E-1,1.6934E2,1.3922001E1,1.72017E6,8.0340004E1,4.623939E1,5.9648987E1,3.8992E2,2.4E0,1.3305E2,-1.2397265E0,1.1798157E-1,7.5569944E0,3.163571E2,2.5074291E1,4.7759E2,-4.786023E-2,1.3132438E-1,-1.3254791E-1,5.327182E-2,8.129891E-2,-9.307384E-2,-1.4844514E-1,-0E0,2.5355926E-2,-6.2879376E-2,6.748398E-2,-7.7014074E-2,-1.3383375E-1,-0E0,5.661509E-2,-3.651103E-2],"split_indices":[1,0,0,17,5,0,1,13,0,4,0,3,25,14,1,4,0,0,0,0,0,0,0,0,0,0,0,0,0,0,0,0,0],"split_type":[0,0,0,0,0,0,0,0,0,0,0,0,0,0,0,0,0,0,0,0,0,0,0,0,0,0,0,0,0,0,0,0,0],"sum_hessian":[2.967149E2,5.1740475E0,2.9154083E2,5.636636E1,2.3517448E2,1.9497318E1,3.686904E1,1.4087476E2,9.429972E1,1.2300592E1,7.1967263E0,2.2026352E1,1.4842689E1,7.644243E1,6.4432335E1,2.2481253E1,7.1818474E1,2.6285872E0,9.672005E0,4.6082525E0,2.5884738E0,7.3354535E0,1.4690899E1,1.26831665E1,2.1595223E0,5.3822582E1,2.2619846E1,5.7918636E1,6.5136952E0,1.278047E1,9.700783E0,2.7612972E1,4.4205498E1],"tree_param":{"num_deleted":"0","num_feature":"28","num_nodes":"33","size_leaf_vector":"1"}},{"base_weights":[-5.038896E-4,1.0279359E0,-2.6820468E-2,-0E0,1.2461052E-1,-8.5032916E-1,4.765017E-3,7.0423976E-2,-1.153004E0,3.432612E-2,-9.194836E-1,-0E0,-1.3627261E0,-1.03164814E-1,2.4027205E-1,-1.2033285E-1,2.299469E-2,-4.193315E-3,-1.4790688E-1,-2.2266048E-3,-1.219336E-1,-4.7520373E-2,3.453904E-2],"categories":[],"categories_nodes":[],"categories_segments":[],"categories_sizes":[],"default_left":[0,0,0,0,0,0,0,0,0,0,0,0,0,0,0,0,0,0,0,0,0,0,0],"id":9,"left_children":[1,3,5,-1,-1,7,9,-1,11,13,15,-1,17,19,21,-1,-1,-1,-1,-1,-1,-1,-1],"loss_changes":[7.525527E0,1.7626243E0,7.9597187E0,0E0,0E0,6.347577E0,7.220429E0,0E0,1.7819538E0,7.799414E0,3.428464E0,0E0,4.356203E-1,1.4019937E1,8.4255085E0,0E0,0E0,0E0,0E0,0E0,0E0,0E0,0E0],"parents":[2147483647,0,0,1,1,2,2,5,5,6,6,8,8,9,9,10,10,12,12,13,13,14,14],"right_children":[2,4,6,-1,-1,8,10,-1,12,14,16,-1,18,20,22,-1,-1,-1,-1,-1,-1,-1,-1],"split_conditions":[-5.272683E7,6.612192E0,3.701E1,-0E0,1.2461052E-1,2.958E1,7.462485E6,7.0423976E-2,-5.168203E7,-3.8210902E-2,8.7992485E1,-0E0,-7.7669926E-2,5.708445E6,6.599993E-1,-1.2033285E-1,2.299469E-2,-4.193315E-3,-1.4790688E-1,-2.2266048E-3,-1.219336E-1,-4.7520373E-2,3.453904E-2],"split_indices":[5,17,0,0,0,0,5,0,5,3,17,0,24,5,4,0,0,0,0,0,0,0,0],"split_type":[0,0,0,0,0,0,0,0,0,0,0,0,0,0,0,0,0,0,0,0,0,0,0],"sum_hessian":[2.9452966E2,5.924964E0,2.886047E2,1.077443E0,4.847521E0,1.0287727E1,2.7831696E2,1.1911588E0,9.096568E0,2.711484E2,7.1685524E0,1.9089884E0,7.18758E0,1.614407E2,1.097077E2,6.0601435E0,1.1084088E0,1.0399148E0,6.147665E0,1.5189915E2,9.541562E0,1.2993275E1,9.6714424E1],"tree_param":{"num_deleted":"0","num_feature":"28","num_nodes":"23","size_leaf_vector":"1"}},{"base_weights":[-1.5812685E-3,8.8290256E-1,-2.9629633E-2,3.945366E-2,1.24383524E-1,9.205422E-3,-5.895247E-1,7.5636655E-2,-6.702264E-2,-1.2391829E-1,1.9894885E-1,-9.044354E-1,3.6293417E-1,1.3328739E-1,-4.331221E-1,1.115706E0,8.886773E-2,-1.2120276E-1,-3.0184042E-1,9.442652E-2,-5.821677E-2,2.5135567E-2,-8.688192E-2,-5.658673E-2,1.4823109E-2,-0E0,1.2679936E-1,5.8178734E-2,-1.1285367E-2,2.463786E-2,-9.343313E-2],"categories":[],"categories_nodes":[],"categories_segments":[],"categories_sizes":[],"default_left":[0,0,0,0,0,0,0,0,0,0,0,0,0,0,0,0,0,0,0,0,0,0,0,0,0,0,0,0,0,0,0],"id":10,"left_children":[1,3,5,7,-1,9,11,-1,-1,13,15,17,19,21,23,25,27,-1,29,-1,-1,-1,-1,-1,-1,-1,-1,-1,-1,-1,-1],"loss_changes":[6.904065E0,1.9074774E0,6.5339093E0,2.587974E0,0E0,6.842906E0,6.435757E0,0E0,0E0,1.2680005E1,1.0663587E1,1.7141314E0,3.5626836E0,1.0025104E1,5.874797E0,2.1967201E0,1.0453898E1,0E0,3.0198689E0,0E0,0E0,0E0,0E0,0E0,0E0,0E0,0E0,0E0,0E0,0E0,0E0],"parents":[2147483647,0,0,1,1,2,2,3,3,5,5,6,6,9,9,10,10,11,11,12,12,13,13,14,14,15,15,16,16,18,18],"right_children":[2,4,6,8,-1,10,12,-1,-1,14,16,18,20,22,24,26,28,-1,30,-1,-1,-1,-1,-1,-1,-1,-1,-1,-1,-1,-1],"split_conditions":[1.5512976E1,1.2594E2,5.7702E2,7.088E1,1.24383524E-1,1.7890078E1,6.519113E1,7.5636655E-2,-6.702264E-2,1E0,2.5108E2,1.4400024E1,7.462485E6,8.5185394E1,1.0937624E0,1.96572E2,7.483014E-1,-1.2120276E-1,3.831616E1,9.442652E-2,-5.821677E-2,2.5135567E-2,-8.688192E-2,-5.658673E-2,1.4823109E-2,-0E0,1.2679936E-1,5.8178734E-2,-1.1285367E-2,2.463786E-2,-9.343313E-2],"split_indices":[2,0,0,0,0,14,3,0,0,19,7,20,5,17,9,0,21,0,16,0,0,0,0,0,0,0,0,0,0,0,0],"split_type":[0,0,0,0,0,0,0,0,0,0,0,0,0,0,0,0,0,0,0,0,0,0,0,0,0,0,0,0,0,0,0],"sum_hessian":[2.9343912E2,7.5346746E0,2.8590445E2,3.0056062E0,4.5290685E0,2.6744467E2,1.8459778E1,1.8129433E0,1.1926628E0,1.5582785E2,1.1161681E2,1.430538E1,4.1543984E0,8.449449E1,7.133336E1,1.049949E1,1.01117325E2,8.252059E0,6.0533214E0,2.9003348E0,1.2540637E0,7.67052E1,7.7892923E0,5.879492E1,1.2538434E1,1.2300495E0,9.269441E0,2.9536785E1,7.158054E1,3.146228E0,2.9070933E0],"tree_param":{"num_deleted":"0","num_feature":"28","num_nodes":"31","size_leaf_vector":"1"}},{"base_weights":[-9.829865E-4,2.3237348E-2,-8.248829E-1,1.14409424E-1,-0E0,-1.0241305E0,-0E0,-3.246333E-1,8.017352E-2,-0E0,-1.2987421E-1,2.6903433E-1,-6.6423345E-1,2.199635E-1,-1.3988678E-1,8.010365E-2,-5.7564933E-2,-2.2917638E-2,-1.2460758E-1,4.0217686E-2,-2.3924073E-2,-8.4973775E-2,5.0896117E-3],"categories":[],"categories_nodes":[],"categories_segments":[],"categories_sizes":[],"default_left":[0,0,0,0,0,0,0,0,0,0,0,0,0,0,0,0,0,0,0,0,0,0,0],"id":11,"left_children":[1,3,5,-1,7,9,-1,11,13,-1,-1,15,17,19,21,-1,-1,-1,-1,-1,-1,-1,-1],"loss_changes":[6.254826E0,7.121208E0,1.9209509E0,0E0,7.2489533E0,2.2835112E0,0E0,1.1466494E1,7.0189066E0,0E0,0E0,9.6478E0,8.0429945E0,1.1883713E1,1.22198105E1,0E0,0E0,0E0,0E0,0E0,0E0,0E0,0E0],"parents":[2147483647,0,0,1,1,2,2,4,4,5,5,7,7,8,8,11,11,12,12,13,13,14,14],"right_children":[2,4,6,-1,8,10,-1,12,14,-1,-1,16,18,20,22,-1,-1,-1,-1,-1,-1,-1,-1],"split_conditions":[1.04417674E-1,3.2329227E1,8.712298E1,1.14409424E-1,1.6934E2,-3.8646114E-1,-0E0,1.3922001E1,3.1931E2,-0E0,-1.2987421E-1,8.0340004E1,4.623939E1,7.500032E1,3.8992E2,8.010365E-2,-5.7564933E-2,-2.2917638E-2,-1.2460758E-1,4.0217686E-2,-2.3924073E-2,-8.4973775E-2,5.0896117E-3],"split_indices":[23,1,17,0,0,12,0,17,0,0,0,0,1,16,0,0,0,0,0,0,0,0,0],"split_type":[0,0,0,0,0,0,0,0,0,0,0,0,0,0,0,0,0,0,0,0,0,0,0],"sum_hessian":[2.913977E2,2.8343057E2,7.967134E0,4.5577254E0,2.7887286E2,6.648879E0,1.3182547E0,5.4008247E1,2.2486461E2,1.5388452E0,5.110034E0,1.9192535E1,3.4815712E1,1.3890184E2,8.596276E1,1.2170728E1,7.0218077E0,2.1209839E1,1.3605874E1,1.0031116E2,3.8590683E1,1.8033155E1,6.79296E1],"tree_param":{"num_deleted":"0","num_feature":"28","num_nodes":"23","size_leaf_vector":"1"}},{"base_weights":[-1.613862E-3,8.4093875E-1,-2.806756E-2,-0E0,1.186824E-1,7.821446E-3,-5.6174225E-1,6.7567185E-2,-6.1330106E-2,-1.4594926E-1,1.613885E-1,-8.615186E-1,3.3619758E-1,3.0375788E-1,-3.4609428E-1,1.0789298E0,6.727723E-2,-1.1627505E-1,-2.8068265E-1,8.983739E-2,-5.5046212E-2,-6.190705E-2,5.6872945E-2,-6.470307E-2,-1.7073961E-3,-4.651311E-3,1.3178879E-1,-1.03502564E-1,1.3541552E-2,2.2413792E-2,-8.903778E-2],"categories":[],"categories_nodes":[],"categories_segments":[],"categories_sizes":[],"default_left":[0,0,0,0,0,0,0,0,0,0,0,0,0,0,0,0,0,0,0,0,0,0,0,0,0,0,0,0,0,0,0],"id":12,"left_children":[1,3,5,7,-1,9,11,-1,-1,13,15,17,19,21,23,25,27,-1,29,-1,-1,-1,-1,-1,-1,-1,-1,-1,-1,-1,-1],"loss_changes":[6.1038575E0,1.8452764E0,5.7153635E0,2.032053E0,0E0,6.311356E0,5.6045294E0,0E0,0E0,1.1987659E1,1.1025761E1,1.5360641E0,3.1605244E0,1.0193543E1,8.809051E0,3.9277124E0,9.015128E0,0E0,2.6653094E0,0E0,0E0,0E0,0E0,0E0,0E0,0E0,0E0,0E0,0E0,0E0,0E0],"parents":[2147483647,0,0,1,1,2,2,3,3,5,5,6,6,9,9,10,10,11,11,12,12,13,13,14,14,15,15,16,16,18,18],"right_children":[2,4,6,8,-1,10,12,-1,-1,14,16,18,20,22,24,26,28,-1,30,-1,-1,-1,-1,-1,-1,-1,-1,-1,-1,-1,-1],"split_conditions":[1.5512976E1,1.2594E2,5.7702E2,7.088E1,1.186824E-1,5.9648987E1,6.519113E1,6.7567185E-2,-6.1330106E-2,1.1081545E0,2.0648E2,1.4400024E1,7.462485E6,2.5100055E-1,9.435519E-1,1.3305E2,1.4390644E1,-1.1627505E-1,3.831616E1,8.983739E-2,-5.5046212E-2,-6.190705E-2,5.6872945E-2,-6.470307E-2,-1.7073961E-3,-4.651311E-3,1.3178879E-1,-1.03502564E-1,1.3541552E-2,2.2413792E-2,-8.903778E-2],"split_indices":[2,0,0,0,0,13,3,0,0,6,7,20,5,6,21,0,14,0,16,0,0,0,0,0,0,0,0,0,0,0,0],"split_type":[0,0,0,0,0,0,0,0,0,0,0,0,0,0,0,0,0,0,0,0,0,0,0,0,0,0,0,0,0,0,0],"sum_hessian":[2.9003134E2,7.3163066E0,2.8271503E2,2.830965E0,4.4853415E0,2.6494614E2,1.7768879E1,1.6736057E0,1.1573594E0,1.307832E2,1.3416295E2,1.3769377E1,3.999503E0,3.9350475E1,9.1432724E1,1.1013096E1,1.2314985E2,7.8404794E0,5.9288974E0,2.7846382E0,1.2148647E0,8.059151E0,3.1291327E1,4.645591E1,4.497681E1,1.703395E0,9.3097E0,5.916003E0,1.1723384E2,3.140716E0,2.7881813E0],"tree_param":{"num_deleted":"0","num_feature":"28","num_nodes":"31","size_leaf_vector":"1"}},{"base_weights":[-1.8457919E-3,8.983168E-1,-2.4137149E-2,-0E0,1.1178448E-1,-7.9768914E-1,5.416582E-3,6.450674E-2,-1.0815114E0,4.0926684E-2,-5.9195054E-1,-1.6683147E-3,-1.268657E0,-8.4706396E-2,2.393469E-1,-1.073313E0,2.4244826E-2,-1.376584E-1,-2.7699124E-3,-1.2212849E-3,-1.0081849E-1,9.890581E-3,9.918799E-2,-1.1579328E-1,-2.6732592E-3,5.910438E-2,-7.700823E-2],"categories":[],"categories_nodes":[],"categories_segments":[],"categories_sizes":[],"default_left":[0,0,0,0,0,0,0,0,0,0,0,0,0,0,0,0,0,0,0,0,0,0,0,0,0,0,0],"id":13,"left_children":[1,3,5,-1,-1,7,9,-1,11,13,15,-1,17,19,21,23,25,-1,-1,-1,-1,-1,-1,-1,-1,-1,-1],"loss_changes":[5.3843637E0,1.5406394E0,6.8832073E0,0E0,0E0,5.446607E0,5.5504313E0,0E0,1.3107729E0,6.5759974E0,4.8872333E0,0E0,3.3319378E-1,1.0076682E1,1.0195623E1,1.4595985E-1,3.4877617E0,0E0,0E0,0E0,0E0,0E0,0E0,0E0,0E0,0E0,0E0],"parents":[2147483647,0,0,1,1,2,2,5,5,6,6,8,8,9,9,10,10,12,12,13,13,14,14,15,15,16,16],"right_children":[2,4,6,-1,-1,8,10,-1,12,14,16,-1,18,20,22,24,26,-1,-1,-1,-1,-1,-1,-1,-1,-1,-1],"split_conditions":[-5.272683E7,6.612192E0,3.701E1,-0E0,1.1178448E-1,2.958E1,7.002855E6,6.450674E-2,-5.168203E7,-3.8210902E-2,2.3208919E2,-1.6683147E-3,1.0288683E0,4.8852002E2,3.8992E2,6.676328E1,1.5469606E-1,-1.376584E-1,-2.7699124E-3,-1.2212849E-3,-1.0081849E-1,9.890581E-3,9.918799E-2,-1.1579328E-1,-2.6732592E-3,5.910438E-2,-7.700823E-2],"split_indices":[5,17,0,0,0,0,5,0,5,3,13,0,8,7,0,2,15,0,0,0,0,0,0,0,0,0,0],"split_type":[0,0,0,0,0,0,0,0,0,0,0,0,0,0,0,0,0,0,0,0,0,0,0,0,0,0,0],"sum_hessian":[2.8803696E2,5.4687924E0,2.8256818E2,1.0583377E0,4.4104548E0,1.0064438E1,2.7250372E2,1.1556185E0,8.908819E0,2.588831E2,1.3620643E1,1.8938689E0,7.0149508E0,1.5732397E2,1.0155911E2,7.6860275E0,5.934615E0,5.9824467E0,1.0325042E0,1.4731438E2,1.00096E1,8.7099976E1,1.4459138E1,6.570626E0,1.1154019E0,3.98002E0,1.9545951E0],"tree_param":{"num_deleted":"0","num_feature":"28","num_nodes":"27","size_leaf_vector":"1"}},{"base_weights":[-2.4876378E-3,7.878638E-1,-2.7060809E-2,-0E0,1.1222303E-1,2.5686112E-1,-9.210903E-2,6.1068393E-2,-5.8558013E-2,4.9081588E-1,-1.0693781E0,-1.6686337E-1,3.3184573E-1,-5.7407E-1,6.11621E-1,-1.3032334E-1,-0E0,-1.2870888E-2,-5.174066E-1,7.741335E-1,-2.5535826E-2,2.766708E-2,-1.0871772E-1,7.024105E-2,-3.6973104E-2,-2.5109563E-2,3.6779147E-2,-1.3356264E-1,-3.1283688E-2,9.7089835E-2,-0E0,-9.612685E-2,3.058407E-2],"categories":[],"categories_nodes":[],"categories_segments":[],"categories_sizes":[],"default_left":[0,0,0,0,0,0,0,0,0,0,0,0,0,0,0,0,0,0,0,0,0,0,0,0,0,0,0,0,0,0,0,0,0],"id":14,"left_children":[1,3,5,7,-1,9,11,-1,-1,13,15,17,19,21,23,-1,-1,25,27,29,31,-1,-1,-1,-1,-1,-1,-1,-1,-1,-1,-1,-1],"loss_changes":[5.2246103E0,1.7940416E0,5.1201143E0,1.6802561E0,0E0,1.6090952E1,7.272044E0,0E0,0E0,6.087261E0,2.377656E0,1.0387157E1,5.745345E0,2.7237759E0,4.0630655E0,0E0,0E0,1.2657714E1,8.675493E0,2.740775E0,6.5341606E0,0E0,0E0,0E0,0E0,0E0,0E0,0E0,0E0,0E0,0E0,0E0,0E0],"parents":[2147483647,0,0,1,1,2,2,3,3,5,5,6,6,9,9,10,10,11,11,12,12,13,13,14,14,17,17,18,18,19,19,20,20],"right_children":[2,4,6,8,-1,10,12,-1,-1,14,16,18,20,22,24,-1,-1,26,28,30,32,-1,-1,-1,-1,-1,-1,-1,-1,-1,-1,-1,-1],"split_conditions":[1.5512976E1,1.2594E2,5.8064044E-1,7.088E1,1.1222303E-1,8.421449E1,8.140852E1,6.1068393E-2,-5.8558013E-2,3.0695185E1,1.0010309E0,3.221E2,1.0776942E-1,1.3012033E1,8.731345E1,-1.3032334E-1,-0E0,5.9648987E1,3.8992E2,9.0370834E1,8.571444E1,2.766708E-2,-1.0871772E-1,7.024105E-2,-3.6973104E-2,-2.5109563E-2,3.6779147E-2,-1.3356264E-1,-3.1283688E-2,9.7089835E-2,-0E0,-9.612685E-2,3.058407E-2],"split_indices":[2,0,21,0,0,17,17,0,0,2,8,0,27,16,16,0,0,13,0,17,17,0,0,0,0,0,0,0,0,0,0,0,0],"split_type":[0,0,0,0,0,0,0,0,0,0,0,0,0,0,0,0,0,0,0,0,0,0,0,0,0,0,0,0,0,0,0,0,0],"sum_hessian":[2.8650143E2,7.0889473E0,2.7941248E2,2.6775732E0,4.411374E0,5.010019E1,2.2931229E2,1.5406389E0,1.1369344E0,4.3443485E1,6.6567073E0,1.9645747E2,3.285482E1,3.6223016E0,3.9821182E1,5.5552998E0,1.1014075E0,1.3820677E2,5.82507E1,1.4787305E1,1.8067514E1,1.1695333E0,2.4527683E0,3.7175632E1,2.6455483E0,8.6024864E1,5.21819E1,1.00561E1,4.81946E1,1.1944271E1,2.8430338E0,4.622536E0,1.3444979E1],"tree_param":{"num_deleted":"0","num_feature":"28","num_nodes":"33","size_leaf_vector":"1"}},{"base_weights":[-2.880947E-3,1.8772852E-2,-7.448803E-1,1.0404845E-1,-0E0,-9.2849344E-1,-0E0,5.4843193E-1,-3.41826E-2,-0E0,-1.1789078E0,9.7050434E-1,-5.04884E-1,-3.203924E-1,3.7617926E-2,-3.962745E-3,-1.3052753E-1,-0E0,1.3227949E-1,-0E0,-8.793423E-2,-0E0,-7.8780286E-2,-6.438079E-2,8.083536E-3],"categories":[],"categories_nodes":[],"categories_segments":[],"categories_sizes":[],"default_left":[0,0,0,0,0,0,0,0,0,0,0,0,0,0,0,0,0,0,0,0,0,0,0,0,0],"id":15,"left_children":[1,3,5,-1,7,9,-1,11,13,-1,15,17,19,21,23,-1,-1,-1,-1,-1,-1,-1,-1,-1,-1],"loss_changes":[4.9673543E0,5.4578977E0,1.5772271E0,0E0,5.0883965E0,1.8518062E0,0E0,7.796806E0,5.4732723E0,0E0,1.3568401E-1,4.1980124E0,1.2660747E0,7.7295175E0,5.850482E0,0E0,0E0,0E0,0E0,0E0,0E0,0E0,0E0,0E0,0E0],"parents":[2147483647,0,0,1,1,2,2,4,4,5,5,7,7,8,8,10,10,11,11,12,12,13,13,14,14],"right_children":[2,4,6,-1,8,10,-1,12,14,-1,16,18,20,22,24,-1,-1,-1,-1,-1,-1,-1,-1,-1,-1],"split_conditions":[1.04417674E-1,3.2329227E1,8.712298E1,1.0404845E-1,-2.9926443E1,-3.8646114E-1,-0E0,4.660275E6,-1.0932043E1,-0E0,5.5558953E0,1.689023E2,2.2746792E1,-1.4559477E1,3.701E1,-3.962745E-3,-1.3052753E-1,-0E0,1.3227949E-1,-0E0,-8.793423E-2,-0E0,-7.8780286E-2,-6.438079E-2,8.083536E-3],"split_indices":[23,1,17,0,3,12,0,5,3,0,6,13,16,3,0,0,0,0,0,0,0,0,0,0,0],"split_type":[0,0,0,0,0,0,0,0,0,0,0,0,0,0,0,0,0,0,0,0,0,0,0,0,0],"sum_hessian":[2.846966E2,2.769162E2,7.780412E0,4.131904E0,2.7278427E2,6.4805813E0,1.2998312E0,1.4911813E1,2.5787247E2,1.5080124E0,4.972569E0,1.1040932E1,3.8708813E0,5.241968E1,2.0545279E2,1.0226905E0,3.9498782E0,3.1603549E0,7.8805766E0,1.6277863E0,2.2430952E0,3.212995E1,2.0289732E1,1.073432E1,1.9471846E2],"tree_param":{"num_deleted":"0","num_feature":"28","num_nodes":"25","size_leaf_vector":"1"}},{"base_weights":[-3.0259548E-3,4.7662374E-1,-3.9835963E-2,8.263181E-1,-3.2335088E-1,2.97618E-1,-1.0230281E-1,1.2307707E0,1.7808603E-1,3.6981847E-2,-7.4925303E-1,-2.8312334E-1,6.603657E-1,-3.236218E-1,4.5297652E-2,1.3671169E-1,-0E0,-3.7749395E-1,6.7512196E-1,-1.1345553E-1,-0E0,5.0301254E-1,-8.927957E-1,8.8956463E-1,-8.700227E-2,-1.0441884E-1,-8.378366E-1,7.7858615E-1,-9.9223815E-2,-6.2739305E-2,-0E0,-4.2732153E-3,1.10575035E-1,9.8290116E-2,-4.6410214E-2,8.310355E-3,-1.08479075E-1,1.0482823E-1,-1.7977167E-2,9.411274E-2,-2.6506526E-2,-1.3887818E-1,-3.66248E-2,9.1606975E-2,-2.7207613E-2,1.0042725E-1,-1.655236E-2],"categories":[],"categories_nodes":[],"categories_segments":[],"categories_sizes":[],"default_left":[0,0,0,0,0,0,0,0,0,0,0,0,0,0,0,0,0,0,0,0,0,0,0,0,0,0,0,0,0,0,0,0,0,0,0,0,0,0,0,0,0,0,0,0,0,0,0],"id":16,"left_children":[1,3,5,7,9,11,13,15,17,-1,19,21,23,25,27,-1,-1,29,31,-1,-1,33,35,37,-1,39,41,43,45,-1,-1,-1,-1,-1,-1,-1,-1,-1,-1,-1,-1,-1,-1,-1,-1,-1,-1],"loss_changes":[4.829613E0,5.948625E0,5.5489388E0,2.8052073E0,2.2935946E0,8.932822E0,7.562783E0,9.609966E-1,2.366646E0,0E0,1.7398202E0,8.210723E0,9.844992E0,9.836169E0,1.4785606E1,0E0,0E0,4.0885878E-1,1.9962955E0,0E0,0E0,4.04657E0,2.3916612E0,4.5681953E0,0E0,1.1077863E1,5.5610104E0,3.894291E0,8.056492E0,0E0,0E0,0E0,0E0,0E0,0E0,0E0,0E0,0E0,0E0,0E0,0E0,0E0,0E0,0E0,0E0,0E0,0E0],"parents":[2147483647,0,0,1,1,2,2,3,3,4,4,5,5,6,6,7,7,8,8,10,10,11,11,12,12,13,13,14,14,17,17,18,18,21,21,22,22,23,23,25,25,26,26,27,27,28,28],"right_children":[2,4,6,8,10,12,14,16,18,-1,20,22,24,26,28,-1,-1,30,32,-1,-1,34,36,38,-1,40,42,44,46,-1,-1,-1,-1,-1,-1,-1,-1,-1,-1,-1,-1,-1,-1,-1,-1,-1,-1],"split_conditions":[-1.6465865E-1,-1.0185189E-1,1.1081545E0,9.9255353E-1,2.4000092E0,8.285729E-1,1.459669E1,5.0006E2,-1.9935693E-1,3.6981847E-2,1.3008989E2,1.825571E-1,1.3224775E-2,1.93972E2,1.985428E1,1.3671169E-1,-0E0,-2.2600006E1,1.4000015E0,-1.1345553E-1,-0E0,8.070308E1,-5.999985E-1,1.0119048E0,-8.700227E-2,1.9999695E-1,3.8626053E1,8.599976E0,-1.088335E6,-6.2739305E-2,-0E0,-4.2732153E-3,1.10575035E-1,9.8290116E-2,-4.6410214E-2,8.310355E-3,-1.08479075E-1,1.0482823E-1,-1.7977167E-2,9.411274E-2,-2.6506526E-2,-1.3887818E-1,-3.66248E-2,9.1606975E-2,-2.7207613E-2,1.0042725E-1,-1.655236E-2],"split_indices":[27,25,6,8,18,4,14,0,27,0,13,3,15,7,4,0,0,10,19,0,0,16,10,8,0,19,17,19,5,0,0,0,0,0,0,0,0,0,0,0,0,0,0,0,0,0,0],"split_type":[0,0,0,0,0,0,0,0,0,0,0,0,0,0,0,0,0,0,0,0,0,0,0,0,0,0,0,0,0,0,0,0,0,0,0,0,0,0,0,0,0,0,0,0,0,0,0],"sum_hessian":[2.8383496E2,1.8410252E1,2.654247E2,1.3222407E1,5.1878448E0,3.962058E1,2.2580412E2,7.1138577E0,6.1085496E0,1.5777345E0,3.61011E0,1.4787558E1,2.4833021E1,9.121984E1,1.3458429E2,6.0903053E0,1.0235525E0,2.5229628E0,3.585587E0,2.3621757E0,1.2479345E0,6.1772275E0,8.610331E0,2.2246689E1,2.5863323E0,6.548141E1,2.5738432E1,2.2005053E1,1.1257924E2,1.3141158E0,1.208847E0,1.2468207E0,2.3387663E0,4.463225E0,1.7140028E0,1.0806049E0,7.529725E0,1.9795746E1,2.4509418E0,7.659533E0,5.7821873E1,1.0484504E1,1.5253929E1,1.9992891E1,2.0121613E0,5.1513314E0,1.074279E2],"tree_param":{"num_deleted":"0","num_feature":"28","num_nodes":"47","size_leaf_vector":"1"}},{"base_weights":[-2.3032005E-3,1.691848E-2,-7.908513E-1,3.3096135E-2,-1.1860192E-1,-1.06856756E-1,1.9685961E-2,3.0724463E-1,-2.2978023E-2,5.371785E-1,-5.513218E-1,-8.888882E-2,3.8589185E-1,-2.5603885E-2,6.879856E-2,-8.465411E-2,4.03171E-2,-1.5309105E-2,6.2107164E-2,1.3032856E-2,1.0228612E-1],"categories":[],"categories_nodes":[],"categories_segments":[],"categories_sizes":[],"default_left":[0,0,0,0,0,0,0,0,0,0,0,0,0,0,0,0,0,0,0,0,0],"id":17,"left_children":[1,3,5,7,-1,-1,-1,9,11,13,15,17,19,-1,-1,-1,-1,-1,-1,-1,-1],"loss_changes":[4.683548E0,4.8382397E0,2.6662688E0,4.3603473E0,0E0,0E0,0E0,9.784748E0,5.998837E0,5.046109E0,3.4357336E0,8.850274E0,4.275345E0,0E0,0E0,0E0,0E0,0E0,0E0,0E0,0E0],"parents":[2147483647,0,0,1,1,2,2,3,3,7,7,8,8,9,9,10,10,11,11,12,12],"right_children":[2,4,6,8,-1,-1,-1,10,12,14,16,18,20,-1,-1,-1,-1,-1,-1,-1,-1],"split_conditions":[7.462485E6,9.7871635E1,8.7992485E1,5.8064044E-1,-1.1860192E-1,-1.06856756E-1,1.9685961E-2,8.3924324E1,8.140852E1,3.5714287E1,1.000061E-1,1.1239669E0,3.8992E2,-2.5603885E-2,6.879856E-2,-8.465411E-2,4.03171E-2,-1.5309105E-2,6.2107164E-2,1.3032856E-2,1.0228612E-1],"split_indices":[5,17,17,21,0,0,0,16,17,2,19,9,0,0,0,0,0,0,0,0,0],"split_type":[0,0,0,0,0,0,0,0,0,0,0,0,0,0,0,0,0,0,0,0,0],"sum_hessian":[2.8158493E2,2.752206E2,6.3643208E0,2.7293814E2,2.28246E0,5.2988057E0,1.065515E0,4.710036E1,2.2583778E2,3.7905525E1,9.194835E0,1.9621323E2,2.9624556E1,5.414253E0,3.2491272E1,7.5092144E0,1.6856205E0,1.8130621E2,1.4907018E1,2.25619E1,7.062656E0],"tree_param":{"num_deleted":"0","num_feature":"28","num_nodes":"21","size_leaf_vector":"1"}},{"base_weights":[-1.8491063E-3,8.271049E-1,-2.186737E-2,-0E0,1.04649104E-1,-7.0161605E-1,3.4040082E-3,5.5871017E-2,-9.577224E-1,1.0605707E-1,-1.7757364E-1,-1.10353135E-1,-0E0,1.0231191E0,4.4419337E-2,-7.597543E-1,-0E0,1.4165805E-1,-2.165437E-2,-4.527943E-2,1.3930428E-2,-9.789377E-2,1.6714787E-2,1.15014434E-1,-1.1117603E-2],"categories":[],"categories_nodes":[],"categories_segments":[],"categories_sizes":[],"default_left":[0,0,0,0,0,0,0,0,0,0,0,0,0,0,0,0,0,0,0,0,0,0,0,0,0],"id":18,"left_children":[1,3,5,-1,-1,7,9,-1,11,13,15,-1,-1,17,19,21,23,-1,-1,-1,-1,-1,-1,-1,-1],"loss_changes":[4.283553E0,1.3502383E0,5.096762E0,0E0,0E0,4.161123E0,4.9363585E0,0E0,1.0175514E0,9.17224E0,1.0102678E1,0E0,0E0,5.934848E0,7.6060486E0,5.1808043E0,9.884537E0,0E0,0E0,0E0,0E0,0E0,0E0,0E0,0E0],"parents":[2147483647,0,0,1,1,2,2,5,5,6,6,8,8,9,9,10,10,13,13,14,14,15,15,16,16],"right_children":[2,4,6,-1,-1,8,10,-1,12,14,16,-1,-1,18,20,22,24,-1,-1,-1,-1,-1,-1,-1,-1],"split_conditions":[-5.272683E7,6.9444437E0,3.701E1,-0E0,1.04649104E-1,2.958E1,2.199997E0,5.5871017E-2,6.181926E-1,4.012E1,5.546049E1,-1.10353135E-1,-0E0,-1.2397265E0,1.6867026E2,-6.5755E4,2.1524E2,1.4165805E-1,-2.165437E-2,-4.527943E-2,1.3930428E-2,-9.789377E-2,1.6714787E-2,1.15014434E-1,-1.1117603E-2],"split_indices":[5,16,0,0,0,0,10,0,12,7,13,0,0,3,1,5,7,0,0,0,0,0,0,0,0],"split_type":[0,0,0,0,0,0,0,0,0,0,0,0,0,0,0,0,0,0,0,0,0,0,0,0,0],"sum_hessian":[2.8030786E2,5.0698833E0,2.7523798E2,1.0452797E0,4.024604E0,9.615753E0,2.6562222E2,1.0947086E0,8.521045E0,1.715139E2,9.410834E1,7.006823E0,1.5142217E0,9.30852E0,1.6220538E2,2.1697622E1,7.241071E1,7.2636905E0,2.0448298E0,2.4544798E1,1.3766058E2,1.7938921E1,3.7587023E0,5.840903E0,6.656982E1],"tree_param":{"num_deleted":"0","num_feature":"28","num_nodes":"25","size_leaf_vector":"1"}},{"base_weights":[-9.2435203E-4,7.274166E-1,-2.2893606E-2,-0E0,1.0211682E-1,7.705477E-3,-5.120808E-1,5.1881112E-2,-4.901445E-2,6.679305E-1,-2.1984575E-2,-7.855035E-1,3.0670318E-1,-0E0,9.516766E-1,-9.598859E-2,2.1988784E-1,-1.0844292E-1,-2.1743882E-1,7.977008E-2,-4.3513745E-2,6.874337E-2,-7.772318E-2,1.2503144E-1,-0E0,-0E0,-6.1864045E-2,-8.216647E-2,3.4156103E-2,2.1162331E-2,-7.943061E-2],"categories":[],"categories_nodes":[],"categories_segments":[],"categories_sizes":[],"default_left":[0,0,0,0,0,0,0,0,0,0,0,0,0,0,0,0,0,0,0,0,0,0,0,0,0,0,0,0,0,0,0],"id":19,"left_children":[1,3,5,7,-1,9,11,-1,-1,13,15,17,19,21,23,25,27,-1,29,-1,-1,-1,-1,-1,-1,-1,-1,-1,-1,-1,-1],"loss_changes":[4.146068E0,1.4152946E0,4.350371E0,1.116689E0,0E0,5.384061E0,4.303754E0,0E0,0E0,2.2597256E0,4.373295E0,1.4127693E0,2.1808953E0,2.9457545E0,1.8641548E0,9.429083E0,7.200316E0,0E0,2.067391E0,0E0,0E0,0E0,0E0,0E0,0E0,0E0,0E0,0E0,0E0,0E0,0E0],"parents":[2147483647,0,0,1,1,2,2,3,3,5,5,6,6,9,9,10,10,11,11,12,12,13,13,14,14,15,15,16,16,18,18],"right_children":[2,4,6,8,-1,10,12,-1,-1,14,16,18,20,22,24,26,28,-1,30,-1,-1,-1,-1,-1,-1,-1,-1,-1,-1,-1,-1],"split_conditions":[1.5512976E1,1.2594E2,5.7702E2,7.088E1,1.0211682E-1,-1.3473362E-1,6.519113E1,5.1881112E-2,-4.901445E-2,5.7953465E1,2.3955715E1,1.4400024E1,7.462485E6,8.0000305E-1,-8.688784E-2,2.950671E2,2.717555E1,-1.0844292E-1,3.831616E1,7.977008E-2,-4.3513745E-2,6.874337E-2,-7.772318E-2,1.2503144E-1,-0E0,-0E0,-6.1864045E-2,-8.216647E-2,3.4156103E-2,2.1162331E-2,-7.943061E-2],"split_indices":[2,0,0,0,0,25,3,0,0,13,4,20,5,19,24,1,2,0,16,0,0,0,0,0,0,0,0,0,0,0,0],"split_type":[0,0,0,0,0,0,0,0,0,0,0,0,0,0,0,0,0,0,0,0,0,0,0,0,0,0,0,0,0,0,0],"sum_hessian":[2.790854E2,6.5650854E0,2.7252032E2,2.3691456E0,4.19594E0,2.564418E2,1.6078514E1,1.3177955E0,1.0513501E0,1.0835435E1,2.4560637E2,1.2541682E1,3.5368314E0,3.5104065E0,7.3250284E0,1.9011006E2,5.5496296E1,7.0452027E0,5.496479E0,2.4884896E0,1.0483419E0,1.9121846E0,1.598222E0,5.0155573E0,2.3094714E0,1.6187184E2,2.8238226E1,4.7732944E0,5.0723003E1,3.0180874E0,2.4783916E0],"tree_param":{"num_deleted":"0","num_feature":"28","num_nodes":"31","size_leaf_vector":"1"}},{"base_weights":[-6.9693034E-4,1.0583452E-2,-1.1151483E-1,1.7605697E-1,-8.082101E-2,2.2271544E-1,-7.6395565E-1,-5.5923784E-1,-5.3009465E-3,-4.978591E-1,2.9266316E-1,6.7147166E-3,-1.2854163E-1,-7.098252E-1,4.5287618E-1,4.1743357E-2,-5.902602E-1,6.323488E-2,-1.0800743E-1,7.2371595E-2,1.1591872E-2,1.129563E-2,-9.3384326E-2,6.612684E-2,-0E0,-2.1426251E-2,2.0853944E-2,-9.944572E-2,-0E0],"categories":[],"categories_nodes":[],"categories_segments":[],"categories_sizes":[],"default_left":[0,0,0,0,0,0,0,0,0,0,0,0,0,0,0,0,0,0,0,0,0,0,0,0,0,0,0,0,0],"id":20,"left_children":[1,3,-1,5,7,9,11,13,15,17,19,-1,-1,21,23,25,27,-1,-1,-1,-1,-1,-1,-1,-1,-1,-1,-1,-1],"loss_changes":[4.0682516E0,4.2438188E0,0E0,4.313785E0,6.104309E0,4.940571E0,2.6363144E0,3.985601E0,4.5547175E0,6.3917027E0,6.340222E0,0E0,0E0,4.3890276E0,2.8750783E-1,6.1600466E0,3.2207923E0,0E0,0E0,0E0,0E0,0E0,0E0,0E0,0E0,0E0,0E0,0E0,0E0],"parents":[2147483647,0,0,1,1,3,3,4,4,5,5,6,6,7,7,8,8,9,9,10,10,13,13,14,14,15,15,16,16],"right_children":[2,4,-1,6,8,10,12,14,16,18,20,-1,-1,22,24,26,28,-1,-1,-1,-1,-1,-1,-1,-1,-1,-1,-1,-1],"split_conditions":[9.7871635E1,1E0,-1.1151483E-1,5.016469E0,8.0000305E-1,2.5100055E-1,9.9903476E-1,7.913111E1,6.963755E6,1.825571E-1,1.1081545E0,6.7147166E-3,-1.2854163E-1,2.3655903E1,8.51853E1,1.7890078E1,2.3208919E2,6.323488E-2,-1.0800743E-1,7.2371595E-2,1.1591872E-2,1.129563E-2,-9.3384326E-2,6.612684E-2,-0E0,-2.1426251E-2,2.0853944E-2,-9.944572E-2,-0E0],"split_indices":[17,19,0,21,18,6,8,17,5,3,6,0,0,2,17,14,13,0,0,0,0,0,0,0,0,0,0,0,0],"split_type":[0,0,0,0,0,0,0,0,0,0,0,0,0,0,0,0,0,0,0,0,0,0,0,0,0,0,0,0,0],"sum_hessian":[2.777404E2,2.754937E2,2.2466717E0,9.964537E1,1.7584833E2,9.616701E1,3.4783664E0,2.2198124E1,1.536502E2,7.3353415E0,8.8831665E1,1.3072548E0,2.1711116E0,2.0013153E1,2.1849713E0,1.4228136E2,1.1368845E1,2.1727188E0,5.162623E0,2.4109241E1,6.472242E1,3.9113207E0,1.6101831E1,1.1513547E0,1.0336167E0,5.483538E1,8.744598E1,6.614362E0,4.7544837E0],"tree_param":{"num_deleted":"0","num_feature":"28","num_nodes":"29","size_leaf_vector":"1"}},{"base_weights":[-1.3241762E-3,1.8473653E-2,-6.817437E-1,9.414604E-2,4.4348475E-4,-8.547216E-1,-0E0,-5.6886375E-1,2.7570331E-2,-0E0,-1.0855368E0,1.4529055E-1,-1.0668476E0,5.8134216E-1,-0E0,-0E0,-1.2173809E-1,9.0589486E-2,-3.8612142E-2,-1.1733904E-1,-0E0,9.529135E-2,-9.544782E-2,-4.2045187E-2,5.5959574E-3],"categories":[],"categories_nodes":[],"categories_segments":[],"categories_sizes":[],"default_left":[0,0,0,0,0,0,0,0,0,0,0,0,0,0,0,0,0,0,0,0,0,0,0,0,0],"id":21,"left_children":[1,3,5,-1,7,9,-1,11,13,-1,15,17,19,21,23,-1,-1,-1,-1,-1,-1,-1,-1,-1,-1],"loss_changes":[4.078685E0,4.0159845E0,1.345397E0,0E0,3.853196E0,1.5215626E0,0E0,4.6368256E0,4.078217E0,0E0,2.7626467E-1,2.676212E0,3.3952236E-1,8.123308E0,5.875134E0,0E0,0E0,0E0,0E0,0E0,0E0,0E0,0E0,0E0,0E0],"parents":[2147483647,0,0,1,1,2,2,4,4,5,5,7,7,8,8,10,10,11,11,12,12,13,13,14,14],"right_children":[2,4,6,-1,8,10,-1,12,14,-1,16,18,20,22,24,-1,-1,-1,-1,-1,-1,-1,-1,-1,-1],"split_conditions":[1.04417674E-1,3.2329227E1,8.712298E1,9.414604E-2,3.701E1,-3.8646114E-1,-0E0,-5.168203E7,4.012E1,-0E0,5.5558953E0,2.4158106E0,1.0288683E0,2.600006E0,1.6808138E2,-0E0,-1.2173809E-1,9.0589486E-2,-3.8612142E-2,-1.1733904E-1,-0E0,9.529135E-2,-9.544782E-2,-4.2045187E-2,5.5959574E-3],"split_indices":[23,1,17,0,0,12,0,5,7,0,6,14,8,10,1,0,0,0,0,0,0,0,0,0,0],"split_type":[0,0,0,0,0,0,0,0,0,0,0,0,0,0,0,0,0,0,0,0,0,0,0,0,0],"sum_hessian":[2.7622534E2,2.6864667E2,7.57867E0,3.6347E0,2.6501196E2,6.299365E0,1.2793049E0,1.0306591E1,2.5470538E2,1.4828652E0,4.8164997E0,4.1127396E0,6.1938515E0,1.1642327E1,2.4306305E2,1.0052357E0,3.811264E0,1.7887361E0,2.3240037E0,5.1933627E0,1.0004885E0,9.942075E0,1.7002525E0,2.8414196E1,2.1464886E2],"tree_param":{"num_deleted":"0","num_feature":"28","num_nodes":"25","size_leaf_vector":"1"}},{"base_weights":[-1.8468066E-3,4.2337275E-1,-3.440919E-2,7.5264823E-1,-3.1269202E-1,1.7501662E-2,-3.7312236E-1,1.1292315E0,1.3357884E-1,3.326268E-2,-7.205514E-1,-4.517215E-2,1.199093E0,8.4317505E-1,-6.226002E-1,-0E0,1.2331133E-1,-3.585841E-1,5.8581036E-1,-1.0560107E-1,-0E0,3.136014E-2,-4.7604358E-1,-0E0,1.3248502E-1,-1.2614443E-2,1.1601313E-1,-1.1527662E0,-2.3097137E-2,-5.5426914E-2,-0E0,-2.5955592E-3,9.801461E-2,-7.611878E-3,4.021037E-2,7.104433E-2,-7.814278E-2,-1.1826325E-2,-1.2434918E-1,7.052099E-2,-5.369211E-2],"categories":[],"categories_nodes":[],"categories_segments":[],"categories_sizes":[],"default_left":[0,0,0,0,0,0,0,0,0,0,0,0,0,0,0,0,0,0,0,0,0,0,0,0,0,0,0,0,0,0,0,0,0,0,0,0,0,0,0,0,0],"id":22,"left_children":[1,3,5,7,9,11,13,15,17,-1,19,21,23,25,27,-1,-1,29,31,-1,-1,33,35,-1,-1,-1,-1,37,39,-1,-1,-1,-1,-1,-1,-1,-1,-1,-1,-1,-1],"loss_changes":[3.6453764E0,4.971685E0,4.731918E0,2.3971152E0,2.0119495E0,1.7215034E1,1.1246105E1,3.9711E-1,1.835934E0,0E0,1.3350129E0,7.268417E0,1.8367081E0,2.5556083E0,9.091037E0,0E0,0E0,2.5519842E-1,1.5760639E0,0E0,0E0,7.4065256E0,1.2623001E1,0E0,0E0,0E0,0E0,6.4957047E-1,6.205009E0,0E0,0E0,0E0,0E0,0E0,0E0,0E0,0E0,0E0,0E0,0E0,0E0],"parents":[2147483647,0,0,1,1,2,2,3,3,4,4,5,5,6,6,7,7,8,8,10,10,11,11,12,12,13,13,14,14,17,17,18,18,21,21,22,22,27,27,28,28],"right_children":[2,4,6,8,10,12,14,16,18,-1,20,22,24,26,28,-1,-1,30,32,-1,-1,34,36,-1,-1,-1,-1,38,40,-1,-1,-1,-1,-1,-1,-1,-1,-1,-1,-1,-1],"split_conditions":[-1.6465865E-1,-1.0185189E-1,4.7759E2,9.9255353E-1,2.4000092E0,4.532809E2,4.612795E6,6.726917E-1,-1.9935693E-1,3.326268E-2,1.3008989E2,3.1253616E2,-1.1098779E-1,4.9732382E2,8.482102E0,-0E0,1.2331133E-1,-2.2600006E1,1.4000015E0,-1.0560107E-1,-0E0,1.7890078E1,1.8867138E1,-0E0,1.3248502E-1,-1.2614443E-2,1.1601313E-1,4.851184E2,7.08153E6,-5.5426914E-2,-0E0,-2.5955592E-3,9.801461E-2,-7.611878E-3,4.021037E-2,7.104433E-2,-7.814278E-2,-1.1826325E-2,-1.2434918E-1,7.052099E-2,-5.369211E-2],"split_indices":[27,25,0,8,18,1,5,21,27,0,13,1,27,1,3,0,0,10,19,0,0,14,4,0,0,0,0,1,5,0,0,0,0,0,0,0,0,0,0,0,0],"split_type":[0,0,0,0,0,0,0,0,0,0,0,0,0,0,0,0,0,0,0,0,0,0,0,0,0,0,0,0,0,0,0,0,0,0,0,0,0,0,0,0,0],"sum_hessian":[2.7527078E2,1.7634298E1,2.576365E2,1.2637654E1,4.996644E0,2.2294093E2,3.4695557E1,6.843173E0,5.7944813E0,1.5317072E0,3.4649367E0,2.1222285E2,1.0718085E1,5.159096E0,2.953646E1,1.0046521E0,5.8385205E0,2.3444595E0,3.4500217E0,2.2759304E0,1.1890062E0,1.8001498E2,3.2207863E1,1.0726024E0,9.645483E0,1.0308983E0,4.128197E0,1.4742312E1,1.4794148E1,1.2304871E0,1.1139723E0,1.2213943E0,2.2286274E0,1.3912776E2,4.0887226E1,5.9862504E0,2.6221613E1,1.8187354E0,1.2923577E1,5.5631833E0,9.230966E0],"tree_param":{"num_deleted":"0","num_feature":"28","num_nodes":"41","size_leaf_vector":"1"}},{"base_weights":[-5.520801E-4,6.950512E-1,-2.1310767E-2,-0E0,9.735433E-2,-7.9584E-1,-7.33515E-4,4.643343E-2,-4.4927325E-2,-1.2472049E-1,-1.3445826E-1,3.980479E-1,-4.693068E-2,3.257993E-2,-7.53771E-2,6.6893256E-1,-2.1144052E-1,2.85353E-1,-1.0956917E-1,8.1889406E-2,-2.7421204E-2,-7.813452E-2,6.7587644E-2,5.4173615E-2,-4.9415264E-2,-2.345382E-2,9.389266E-3],"categories":[],"categories_nodes":[],"categories_segments":[],"categories_sizes":[],"default_left":[0,0,0,0,0,0,0,0,0,0,0,0,0,0,0,0,0,0,0,0,0,0,0,0,0,0,0],"id":23,"left_children":[1,3,5,7,-1,9,11,-1,-1,-1,13,15,17,-1,-1,19,21,23,25,-1,-1,-1,-1,-1,-1,-1,-1],"loss_changes":[3.6346288E0,1.2959166E0,3.8682895E0,8.775113E-1,0E0,1.0219707E0,4.677959E0,0E0,0E0,0E0,1.635474E0,4.7004776E0,4.8806624E0,0E0,0E0,3.1793594E0,4.7588563E0,7.6131983E0,5.2177324E0,0E0,0E0,0E0,0E0,0E0,0E0,0E0,0E0],"parents":[2147483647,0,0,1,1,2,2,3,3,5,5,6,6,10,10,11,11,12,12,15,15,16,16,17,17,18,18],"right_children":[2,4,6,8,-1,10,12,-1,-1,-1,14,16,18,-1,-1,20,22,24,26,-1,-1,-1,-1,-1,-1,-1,-1],"split_conditions":[1.5512976E1,1.2594E2,1.92E1,7.088E1,9.735433E-2,8.000183E-1,-1.2866962E-1,4.643343E-2,-4.4927325E-2,-1.2472049E-1,4.4864E2,1.0125555E0,1.1081545E0,3.257993E-2,-7.53771E-2,5.270552E2,1.0585433E0,8.274194E1,3.977266E-2,8.1889406E-2,-2.7421204E-2,-7.813452E-2,6.7587644E-2,5.4173615E-2,-4.9415264E-2,-2.345382E-2,9.389266E-3],"split_indices":[2,0,2,0,0,20,26,0,0,0,0,8,6,0,0,1,8,16,15,0,0,0,0,0,0,0,0],"split_type":[0,0,0,0,0,0,0,0,0,0,0,0,0,0,0,0,0,0,0,0,0,0,0,0,0,0,0],"sum_hessian":[2.7301236E2,6.2720885E0,2.667403E2,2.1981242E0,4.073964E0,5.299314E0,2.6144098E2,1.1900595E0,1.0080645E0,2.1739419E0,3.1253722E0,2.5228136E1,2.3621283E2,1.6016524E0,1.5237199E0,1.7966034E1,7.262101E0,3.563563E1,2.0057721E2,1.6072382E1,1.8936522E0,4.837807E0,2.4242938E0,2.7527998E1,8.107632E0,1.25684685E2,7.489252E1],"tree_param":{"num_deleted":"0","num_feature":"28","num_nodes":"27","size_leaf_vector":"1"}},{"base_weights":[-3.613756E-4,1.793309E-2,-6.386417E-1,3.258437E-2,-1.0469293E-1,-8.103843E-1,-0E0,-1.3734839E-2,3.9826816E-1,-0E0,-1.0093358E0,8.545608E-2,-2.58291E-1,-2.301153E-1,6.111812E-1,-0E0,-1.16818026E-1,-4.1265762E-3,5.8364775E-2,2.5302857E-2,-5.7333775E-2,5.6575354E-2,-5.1418245E-2,7.9862885E-2,-0E0],"categories":[],"categories_nodes":[],"categories_segments":[],"categories_sizes":[],"default_left":[0,0,0,0,0,0,0,0,0,0,0,0,0,0,0,0,0,0,0,0,0,0,0,0,0],"id":24,"left_children":[1,3,5,7,-1,9,-1,11,13,-1,15,17,19,21,23,-1,-1,-1,-1,-1,-1,-1,-1,-1,-1],"loss_changes":[3.508087E0,3.6687925E0,1.2553289E0,4.6576633E0,0E0,1.3920083E0,0E0,5.771634E0,4.4584885E0,0E0,4.684558E-1,1.0736515E1,1.1431526E1,2.060039E0,3.0808706E0,0E0,0E0,0E0,0E0,0E0,0E0,0E0,0E0,0E0,0E0],"parents":[2147483647,0,0,1,1,2,2,3,3,5,5,7,7,8,8,10,10,11,11,12,12,13,13,14,14],"right_children":[2,4,6,8,-1,10,-1,12,14,-1,16,18,20,22,24,-1,-1,-1,-1,-1,-1,-1,-1,-1,-1],"split_conditions":[1.04417674E-1,9.7871635E1,8.712298E1,6.8231606E1,-1.0469293E-1,4.306488E1,-0E0,3.1149457E2,5E-1,-0E0,-3.8646114E-1,1.7890078E1,7.483014E-1,6.6666664E1,8.818895E-2,-0E0,-1.16818026E-1,-4.1265762E-3,5.8364775E-2,2.5302857E-2,-5.7333775E-2,5.6575354E-2,-5.1418245E-2,7.9862885E-2,-0E0],"split_indices":[23,17,17,2,0,2,0,1,18,0,12,14,21,16,24,0,0,0,0,0,0,0,0,0,0],"split_type":[0,0,0,0,0,0,0,0,0,0,0,0,0,0,0,0,0,0,0,0,0,0,0,0,0],"sum_hessian":[2.7186804E2,2.6447614E2,7.391897E0,2.6230606E2,2.1700847E0,6.1233644E0,1.2685328E0,2.324571E2,2.9848957E1,1.1650511E0,4.9583135E0,1.6438806E2,6.806904E1,6.9393253E0,2.2909632E1,1.1669286E0,3.791385E0,1.3098402E2,3.3404037E1,2.5420866E1,4.2648174E1,1.1014986E0,5.8378267E0,1.7833464E1,5.076168E0],"tree_param":{"num_deleted":"0","num_feature":"28","num_nodes":"25","size_leaf_vector":"1"}},{"base_weights":[-7.7293103E-4,7.9348624E-2,-1.5715778E-1,2.2418794E-1,-1.0985676E-1,-5.5855477E-1,-0E0,-0E0,6.791486E-1,-4.6154588E-1,1.935777E-1,-7.7119464E-1,3.6778024E-1,3.6276868E-1,-2.601057E-1,1.1410257E-1,-1.1024761E0,9.522735E-1,-0E0,2.3075397E-1,-6.536873E-1,-1.8070035E-1,5.8845645E-1,1.4570833E-2,-1.0343077E0,9.647506E-2,-1.7044324E-1,-4.1741812E-1,4.870652E-1,2.9681882E-1,-4.5858642E-1,4.798392E-2,-1.9800194E-2,-1.2307687E-1,-0E0,1.0239556E-1,-0E0,-7.255036E-2,4.5408227E-2,7.594677E-2,-4.805896E-2,-8.2566254E-2,-0E0,-4.913902E-2,7.659832E-2,1.1683132E-1,1.9433307E-2,-5.0688483E-2,7.235717E-2,-1.16860144E-1,-0E0,-6.756857E-2,2.1387842E-2,3.3852264E-2,-1.0868599E-1,6.5721974E-2,-0E0,-2.3607282E-2,1.0218095E-1,-7.608488E-2,-0E0],"categories":[],"categories_nodes":[],"categories_segments":[],"categories_sizes":[],"default_left":[0,0,0,0,0,0,0,0,0,0,0,0,0,0,0,0,0,0,0,0,0,0,0,0,0,0,0,0,0,0,0,0,0,0,0,0,0,0,0,0,0,0,0,0,0,0,0,0,0,0,0,0,0,0,0,0,0,0,0,0,0],"id":25,"left_children":[1,3,5,7,9,11,13,15,17,19,21,23,25,27,29,31,33,35,37,39,41,43,45,47,49,-1,51,53,55,57,59,-1,-1,-1,-1,-1,-1,-1,-1,-1,-1,-1,-1,-1,-1,-1,-1,-1,-1,-1,-1,-1,-1,-1,-1,-1,-1,-1,-1,-1,-1],"loss_changes":[3.4498012E0,4.956865E0,6.0747795E0,1.0231899E1,8.366485E0,5.791773E0,6.570693E0,8.622717E0,6.1140614E0,5.2045197E0,6.3558207E0,5.212262E0,2.2540722E0,3.0828378E0,4.6451406E0,7.6355033E0,3.8857222E-1,2.0266438E0,3.8169608E0,3.5440552E0,3.5410967E0,6.4497137E0,3.8428693E0,2.7661135E0,2.5310993E0,0E0,9.927956E-1,2.7748976E0,2.1081133E0,4.679367E0,4.1902256E0,0E0,0E0,0E0,0E0,0E0,0E0,0E0,0E0,0E0,0E0,0E0,0E0,0E0,0E0,0E0,0E0,0E0,0E0,0E0,0E0,0E0,0E0,0E0,0E0,0E0,0E0,0E0,0E0,0E0,0E0],"parents":[2147483647,0,0,1,1,2,2,3,3,4,4,5,5,6,6,7,7,8,8,9,9,10,10,11,11,12,12,13,13,14,14,15,15,16,16,17,17,18,18,19,19,20,20,21,21,22,22,23,23,24,24,26,26,27,27,28,28,29,29,30,30],"right_children":[2,4,6,8,10,12,14,16,18,20,22,24,26,28,30,32,34,36,38,40,42,44,46,48,50,-1,52,54,56,58,60,-1,-1,-1,-1,-1,-1,-1,-1,-1,-1,-1,-1,-1,-1,-1,-1,-1,-1,-1,-1,-1,-1,-1,-1,-1,-1,-1,-1,-1,-1],"split_conditions":[2.199997E0,-4.1435E4,5.9648987E1,-3.677755E6,4.5217392E1,1.424117E-1,3.3999634E0,2.2554E2,6.666709E1,-2.911009E1,1.1574185E2,2.1428576E0,-2.5568519E0,1.0422947E0,-1.5458923E-2,1.7911974E1,5.6257167E0,2.836E2,1.000996E0,5.5718787E2,-2.0512508E-3,4.507385E-3,-9.336269E-2,3E0,5.5999756E0,9.647506E-2,2.0117351E-1,1.0318472E0,9.200012E0,1.0995743E-2,6.632173E1,4.798392E-2,-1.9800194E-2,-1.2307687E-1,-0E0,1.0239556E-1,-0E0,-7.255036E-2,4.5408227E-2,7.594677E-2,-4.805896E-2,-8.2566254E-2,-0E0,-4.913902E-2,7.659832E-2,1.1683132E-1,1.9433307E-2,-5.0688483E-2,7.235717E-2,-1.16860144E-1,-0E0,-6.756857E-2,2.1387842E-2,3.3852264E-2,-1.0868599E-1,6.5721974E-2,-0E0,-2.3607282E-2,1.0218095E-1,-7.608488E-2,-0E0],"split_indices":[10,5,13,5,2,27,19,0,16,3,13,4,3,9,26,16,3,7,9,1,15,24,27,10,19,0,27,9,20,23,2,0,0,0,0,0,0,0,0,0,0,0,0,0,0,0,0,0,0,0,0,0,0,0,0,0,0,0,0,0,0],"split_type":[0,0,0,0,0,0,0,0,0,0,0,0,0,0,0,0,0,0,0,0,0,0,0,0,0,0,0,0,0,0,0,0,0,0,0,0,0,0,0,0,0,0,0,0,0,0,0,0,0,0,0,0,0,0,0,0,0,0,0,0,0],"sum_hessian":[2.7022757E2,1.7689386E2,9.3333694E1,1.01586075E2,7.530779E1,2.593953E1,6.7394165E1,6.922425E1,3.236182E1,3.540228E1,3.9905514E1,2.1671974E1,4.267555E0,2.8334562E1,3.90596E1,6.3824387E1,5.3998675E0,2.2711266E1,9.650554E0,7.0820193E0,2.832026E1,2.0115557E1,1.9789957E1,5.1967144E0,1.647526E1,2.0880764E0,2.1794786E0,3.016933E0,2.5317629E1,9.470731E0,2.9588871E1,2.987742E1,3.3946964E1,4.3917093E0,1.0081587E0,2.1440573E1,1.2706918E0,3.418742E0,6.231812E0,4.4269123E0,2.655107E0,2.2572556E1,5.747705E0,1.5904869E1,4.2106876E0,6.6998234E0,1.3090134E1,2.7523043E0,2.4444098E0,1.454302E1,1.9322404E0,1.1761453E0,1.0033333E0,1.2983043E0,1.7186286E0,1.8334986E1,6.982643E0,5.4497223E0,4.021009E0,1.73508E1,1.2238071E1],"tree_param":{"num_deleted":"0","num_feature":"28","num_nodes":"61","size_leaf_vector":"1"}},{"base_weights":[-2.902851E-4,1.0660718E-1,-1.0855635E-1,4.218109E-1,4.3558544E-3,-3.1166488E-1,-0E0,7.205302E-1,-0E0,-2.7453992E-1,2.5894868E-1,-6.566625E-1,2.0434476E-1,9.501544E-2,-5.677055E-2,8.0871534E-1,-0E0,-4.1230658E-1,5.4960245E-1,4.7309062E-1,-4.9797395E-1,4.895547E-1,-2.6098254E-1,3.6752397E-1,-7.7780205E-1,-1.2903798E-1,6.746368E-1,-1.2993728E-1,5.867209E-1,-0E0,8.9609854E-2,2.561992E-3,-8.1709415E-2,8.929805E-2,-2.9099245E-2,7.440351E-2,-3.9964225E-2,-8.380192E-2,-1.6720043E-2,7.855914E-2,-9.417605E-3,-5.2336343E-2,6.385916E-2,5.395661E-2,-0E0,4.7127213E-2,-8.989322E-2,-4.99001E-2,5.291868E-2,-0E0,8.546012E-2,-4.2779766E-2,5.9633125E-3,8.811846E-2,-3.0721219E-3],"categories":[],"categories_nodes":[],"categories_segments":[],"categories_sizes":[],"default_left":[0,0,0,0,0,0,0,0,0,0,0,0,0,0,0,0,0,0,0,0,0,0,0,0,0,0,0,0,0,0,0,0,0,0,0,0,0,0,0,0,0,0,0,0,0,0,0,0,0,0,0,0,0,0,0],"id":26,"left_children":[1,3,5,7,9,11,13,15,17,19,21,23,25,-1,27,29,-1,31,33,35,37,39,41,43,45,47,49,51,53,-1,-1,-1,-1,-1,-1,-1,-1,-1,-1,-1,-1,-1,-1,-1,-1,-1,-1,-1,-1,-1,-1,-1,-1,-1,-1],"loss_changes":[3.1219032E0,4.083515E0,2.9327471E0,4.0149984E0,7.370315E0,8.678989E0,4.731682E0,1.4436226E0,3.3766208E0,8.376245E0,6.8665085E0,4.0670137E0,3.3239932E0,0E0,3.9269109E0,1.535469E0,0E0,1.9433218E0,2.388451E0,3.1164632E0,3.6837015E0,7.2089205E0,4.2801495E0,1.7607433E-1,4.6517143E0,2.9959517E0,1.0746763E0,4.687781E0,1.9665966E0,0E0,0E0,0E0,0E0,0E0,0E0,0E0,0E0,0E0,0E0,0E0,0E0,0E0,0E0,0E0,0E0,0E0,0E0,0E0,0E0,0E0,0E0,0E0,0E0,0E0,0E0],"parents":[2147483647,0,0,1,1,2,2,3,3,4,4,5,5,6,6,7,7,8,8,9,9,10,10,11,11,12,12,14,14,15,15,17,17,18,18,19,19,20,20,21,21,22,22,23,23,24,24,25,25,26,26,27,27,28,28],"right_children":[2,4,6,8,10,12,14,16,18,20,22,24,26,-1,28,30,-1,32,34,36,38,40,42,44,46,48,50,52,54,-1,-1,-1,-1,-1,-1,-1,-1,-1,-1,-1,-1,-1,-1,-1,-1,-1,-1,-1,-1,-1,-1,-1,-1,-1,-1],"split_conditions":[9.9903476E-1,-2.7155694E-1,-8.0000305E-1,7.41323E-1,9.463734E-1,4.5E0,-2.5614754E-3,8.195433E1,6.5834526E1,-1.3026585E1,2.644149E1,3.532E1,1.0226969E0,9.501544E-2,2.928019E0,6.612192E0,-0E0,-1.8200012E1,7.7189885E-2,8.9694726E-1,-3.6936287E-2,2.8535978E1,6.2081802E1,1.0119048E0,-9.9800116E-1,8.199982E0,8.929285E0,3.977266E-2,9.142848E1,-0E0,8.9609854E-2,2.561992E-3,-8.1709415E-2,8.929805E-2,-2.9099245E-2,7.440351E-2,-3.9964225E-2,-8.380192E-2,-1.6720043E-2,7.855914E-2,-9.417605E-3,-5.2336343E-2,6.385916E-2,5.395661E-2,-0E0,4.7127213E-2,-8.989322E-2,-4.99001E-2,5.291868E-2,-0E0,8.546012E-2,-4.2779766E-2,5.9633125E-3,8.811846E-2,-3.0721219E-3],"split_indices":[8,12,22,21,21,20,15,17,17,3,14,7,8,0,12,17,0,10,23,21,12,16,2,8,12,19,6,15,16,0,0,0,0,0,0,0,0,0,0,0,0,0,0,0,0,0,0,0,0,0,0,0,0,0,0],"split_type":[0,0,0,0,0,0,0,0,0,0,0,0,0,0,0,0,0,0,0,0,0,0,0,0,0,0,0,0,0,0,0,0,0,0,0,0,0,0,0,0,0,0,0,0,0,0,0,0,0,0,0,0,0,0,0],"sum_hessian":[2.6766476E2,1.3236755E2,1.352972E2,3.0458843E1,1.0190871E2,4.5728157E1,8.956904E1,1.7514954E1,1.2943889E1,4.7658524E1,5.4250187E1,2.7822664E1,1.7905493E1,3.9318697E0,8.563717E1,1.5904543E1,1.6104113E0,7.6121445E0,5.331744E0,1.0193842E1,3.746468E1,3.8288227E1,1.5961957E1,2.291085E0,2.5531578E1,1.0280358E1,7.625135E0,7.830838E1,7.328791E0,1.2239655E0,1.4680577E1,3.5130174E0,4.0991273E0,4.1634827E0,1.168261E0,8.328572E0,1.86527E0,1.6971914E1,2.0492765E1,2.5743343E1,1.2544885E1,1.3111673E1,2.8502834E0,1.1317298E0,1.1593552E0,1.6366191E0,2.389496E1,7.2224264E0,3.0579324E0,1.7786616E0,5.846473E0,3.0992554E1,4.7315826E1,5.2213306E0,2.1074605E0],"tree_param":{"num_deleted":"0","num_feature":"28","num_nodes":"55","size_leaf_vector":"1"}},{"base_weights":[-0E0,6.534812E-1,-1.8266667E-2,-0E0,9.306459E-2,-7.3873043E-1,-0E0,4.3219905E-2,-4.4623006E-2,-1.1573561E-1,-1.01850644E-1,8.789411E-2,-1.8861935E-2,2.6740286E-2,-6.587116E-2,-7.4353594E-1,5.1720086E-3,1.6645266E-2,-9.481482E-2,3.3256527E-2,-3.6086675E-3],"categories":[],"categories_nodes":[],"categories_segments":[],"categories_sizes":[],"default_left":[0,0,0,0,0,0,0,0,0,0,0,0,0,0,0,0,0,0,0,0,0],"id":27,"left_children":[1,3,5,7,-1,9,11,-1,-1,-1,13,-1,15,-1,-1,17,19,-1,-1,-1,-1],"loss_changes":[3.1084275E0,1.2554917E0,3.2858157E0,7.9750264E-1,0E0,9.0032864E-1,4.0838933E0,0E0,0E0,0E0,1.1986997E0,0E0,4.752581E0,0E0,0E0,2.1772423E0,3.4522235E0,0E0,0E0,0E0,0E0],"parents":[2147483647,0,0,1,1,2,2,3,3,5,5,6,6,10,10,12,12,15,15,16,16],"right_children":[2,4,6,8,-1,10,12,-1,-1,-1,14,-1,16,-1,-1,18,20,-1,-1,-1,-1],"split_conditions":[1.5512976E1,1.2594E2,1.92E1,7.088E1,9.306459E-2,8.000183E-1,-5.195976E7,4.3219905E-2,-4.4623006E-2,-1.1573561E-1,4.4864E2,8.789411E-2,3.701E1,2.6740286E-2,-6.587116E-2,3.001E1,9.7365355E-1,1.6645266E-2,-9.481482E-2,3.3256527E-2,-3.6086675E-3],"split_indices":[2,0,2,0,0,20,5,0,0,0,0,0,0,0,0,0,6,0,0,0,0],"split_type":[0,0,0,0,0,0,0,0,0,0,0,0,0,0,0,0,0,0,0,0,0],"sum_hessian":[2.658824E2,6.0752635E0,2.5980713E2,2.1371655E0,3.938098E0,5.1805005E0,2.5462662E2,1.1334202E0,1.0037452E0,2.1590412E0,3.0214596E0,4.1705346E0,2.5045609E2,1.5894264E0,1.4320332E0,7.746606E0,2.4270949E2,1.0077242E0,6.738882E0,2.7729588E1,2.1497989E2],"tree_param":{"num_deleted":"0","num_feature":"28","num_nodes":"21","size_leaf_vector":"1"}},{"base_weights":[-0E0,1.1253443E-2,-9.9688105E-2,3.0376978E-2,-6.718972E-1,6.244354E-3,5.213879E-1,-9.487957E-2,1.630477E-2,3.8508978E-2,-4.8867413E-1,7.255173E-1,-4.2283777E-2,5.509404E-3,-1.1083197E-1,-8.844087E-2,3.0942911E-2,8.5757874E-2,-0E0,1.2905914E-3,-3.2951917E-2],"categories":[],"categories_nodes":[],"categories_segments":[],"categories_sizes":[],"default_left":[0,0,0,0,0,0,0,0,0,0,0,0,0,0,0,0,0,0,0,0,0],"id":28,"left_children":[1,3,-1,5,7,9,11,-1,-1,13,15,17,19,-1,-1,-1,-1,-1,-1,-1,-1],"loss_changes":[3.0916588E0,3.148421E0,0E0,2.7955835E0,2.054925E0,3.7593176E0,1.6524107E0,0E0,0E0,4.004514E0,5.085043E0,1.078969E0,2.1410444E-1,0E0,0E0,0E0,0E0,0E0,0E0,0E0,0E0],"parents":[2147483647,0,0,1,1,3,3,4,4,5,5,6,6,9,9,10,10,11,11,12,12],"right_children":[2,4,-1,6,8,10,12,-1,-1,14,16,18,20,-1,-1,-1,-1,-1,-1,-1,-1],"split_conditions":[9.7871635E1,7.462485E6,-9.9688105E-2,2.6552435E1,8.7992485E1,5.708445E6,8.818895E-2,-9.487957E-2,1.630477E-2,2.4070797E1,8.482102E0,7.633241E2,-3.0330062E-2,5.509404E-3,-1.1083197E-1,-8.844087E-2,3.0942911E-2,8.5757874E-2,-0E0,1.2905914E-3,-3.2951917E-2],"split_indices":[17,5,0,3,17,5,24,0,0,3,3,1,12,0,0,0,0,0,0,0,0],"split_type":[0,0,0,0,0,0,0,0,0,0,0,0,0,0,0,0,0,0,0,0,0],"sum_hessian":[2.6506265E2,2.6298526E2,2.077395E0,2.5746542E2,5.51983E0,2.4733998E2,1.0125453E1,4.492452E0,1.0273781E0,2.3401648E2,1.3323497E1,7.873895E0,2.2515574E0,2.3204861E2,1.9678662E0,9.253535E0,4.069961E0,6.818392E0,1.0555036E0,1.2296307E0,1.0219266E0],"tree_param":{"num_deleted":"0","num_feature":"28","num_nodes":"21","size_leaf_vector":"1"}},{"base_weights":[-0E0,9.284529E-3,-9.4723195E-2,2.9556304E-2,-5.665072E-1,-9.951628E-3,3.4783313E-1,-7.954153E-1,-0E0,3.252013E-2,-4.431479E-1,-1.995911E-1,5.3937644E-1,3.0543113E-3,-1.1473767E-1,8.099915E-3,-3.271424E-3,7.8618355E-2,-9.173086E-4,-6.1033048E-2,5.7329666E-2,5.2442987E-2,-4.6677284E-2,7.1501836E-2,-4.5316447E-6],"categories":[],"categories_nodes":[],"categories_segments":[],"categories_sizes":[],"default_left":[0,0,0,0,0,0,0,0,0,0,0,0,0,0,0,0,0,0,0,0,0,0,0,0,0],"id":29,"left_children":[1,3,-1,5,7,9,11,13,15,17,19,21,23,-1,-1,-1,-1,-1,-1,-1,-1,-1,-1,-1,-1],"loss_changes":[2.7349644E0,2.8194916E0,0E0,3.390972E0,1.1448536E0,4.4012027E0,3.390649E0,2.3226752E0,1.642561E-2,6.89578E0,4.007045E0,1.7149506E0,2.531023E0,0E0,0E0,0E0,0E0,0E0,0E0,0E0,0E0,0E0,0E0,0E0,0E0],"parents":[2147483647,0,0,1,1,3,3,4,4,5,5,6,6,7,7,8,8,9,9,10,10,11,11,12,12],"right_children":[2,4,-1,6,8,10,12,14,16,18,20,22,24,-1,-1,-1,-1,-1,-1,-1,-1,-1,-1,-1,-1],"split_conditions":[9.7871635E1,1.04417674E-1,-9.4723195E-2,6.8231606E1,1.4134276E-1,4.8852002E2,5E-1,9.606141E-1,1.0966666E0,-2.9926443E1,6.519113E1,6.6666664E1,8.818895E-2,3.0543113E-3,-1.1473767E-1,8.099915E-3,-3.271424E-3,7.8618355E-2,-9.173086E-4,-6.1033048E-2,5.7329666E-2,5.2442987E-2,-4.6677284E-2,7.1501836E-2,-4.5316447E-6],"split_indices":[17,23,0,2,23,7,18,8,9,3,3,16,24,0,0,0,0,0,0,0,0,0,0,0,0],"split_type":[0,0,0,0,0,0,0,0,0,0,0,0,0,0,0,0,0,0,0,0,0,0,0,0,0],"sum_hessian":[2.641431E2,2.6212018E2,2.0228899E0,2.5496088E2,7.1593146E0,2.2627142E2,2.868946E1,4.948336E0,2.2109785E0,2.0585913E2,2.041228E1,6.7489114E0,2.194055E1,1.3269509E0,3.621385E0,1.170772E0,1.0402066E0,1.0483899E1,1.9537524E2,1.8294666E1,2.1176124E0,1.0552207E0,5.693691E0,1.7004938E1,4.935612E0],"tree_param":{"num_deleted":"0","num_feature":"28","num_nodes":"25","size_leaf_vector":"1"}},{"base_weights":[-0E0,6.183179E-1,-1.8300623E-2,-0E0,8.849789E-2,-6.972842E-1,-0E0,-1.2948716E-2,1.3836662E-2,-1.0926082E-1,-7.6738715E-2,7.3655105E-1,-2.0619923E-2,3.2515954E-2,-5.3450324E-2,-0E0,9.1718614E-2,-8.816786E-1,3.2150235E-3,-1.10212706E-1,-0E0,2.5170788E-2,-4.737559E-3],"categories":[],"categories_nodes":[],"categories_segments":[],"categories_sizes":[],"default_left":[0,0,0,0,0,0,0,0,0,0,0,0,0,0,0,0,0,0,0,0,0,0,0],"id":30,"left_children":[1,3,5,7,-1,9,11,-1,-1,-1,13,15,17,-1,-1,-1,-1,19,21,-1,-1,-1,-1],"loss_changes":[2.7122362E0,1.1197145E0,2.8676276E0,7.333054E-2,0E0,8.21959E-1,3.5093575E0,0E0,0E0,0E0,1.001876E0,9.3482566E-1,5.5257463E0,0E0,0E0,0E0,0E0,1.8990202E0,3.1496124E0,0E0,0E0,0E0,0E0],"parents":[2147483647,0,0,1,1,2,2,3,3,5,5,6,6,10,10,11,11,12,12,17,17,18,18],"right_children":[2,4,6,8,-1,10,12,-1,-1,-1,14,16,18,-1,-1,-1,-1,20,22,-1,-1,-1,-1],"split_conditions":[1.5512976E1,1.2594E2,1.92E1,1.0626305E0,8.849789E-2,8.000183E-1,-5.168203E7,-1.2948716E-2,1.3836662E-2,-1.0926082E-1,1.0282338E0,-5.2910052E-2,3.701E1,3.2515954E-2,-5.3450324E-2,-0E0,9.1718614E-2,1.0298913E0,-3.9859602E-1,-1.10212706E-1,-0E0,2.5170788E-2,-4.737559E-3],"split_indices":[2,0,2,9,0,20,5,0,0,0,21,23,0,0,0,0,0,8,12,0,0,0,0],"split_type":[0,0,0,0,0,0,0,0,0,0,0,0,0,0,0,0,0,0,0,0,0,0,0],"sum_hessian":[2.6292154E2,5.86815E0,2.570534E2,2.0857391E0,3.782411E0,5.0757327E0,2.5197766E2,1.0569521E0,1.0287871E0,2.1436417E0,2.9320908E0,5.2746396E0,2.4670302E2,1.1339469E0,1.7981439E0,1.1168799E0,4.157759E0,6.2406487E0,2.4046237E2,5.1971574E0,1.0434911E0,4.1674053E1,1.9878831E2],"tree_param":{"num_deleted":"0","num_feature":"28","num_nodes":"23","size_leaf_vector":"1"}},{"base_weights":[-0E0,9.808006E-2,-9.919455E-2,1.364089E-1,-6.196582E-1,-2.023414E-1,7.805324E-2,4.7617668E-1,3.1278208E-2,-0E0,-8.612778E-1,1.2704563E-1,-3.342506E-1,9.173305E-1,-5.0054386E-2,-2.5789696E-1,5.758415E-1,-2.3858793E-1,2.8586408E-1,-1.03975095E-1,-1.4397162E-3,5.807282E-1,-5.3399396E-1,-5.727008E-1,1.07002325E-1,1.0595409E-1,-0E0,6.2416244E-1,-1.8347259E-1,-7.494112E-2,1.8002186E-2,-0E0,6.802874E-2,4.6909384E-2,-4.4925224E-2,-1.3697797E-2,5.7002492E-2,-0E0,9.5952876E-2,-1.0915911E-1,2.9506797E-2,-6.693897E-2,2.1273354E-2,-6.3179703E-3,6.5546595E-2,-5.4633794E-3,1.110305E-1,-3.2774076E-2,5.2674502E-2],"categories":[],"categories_nodes":[],"categories_segments":[],"categories_sizes":[],"default_left":[0,0,0,0,0,0,0,0,0,0,0,0,0,0,0,0,0,0,0,0,0,0,0,0,0,0,0,0,0,0,0,0,0,0,0,0,0,0,0,0,0,0,0,0,0,0,0,0,0],"id":31,"left_children":[1,3,5,7,9,11,13,15,17,-1,19,21,23,25,27,29,31,33,35,-1,-1,37,39,41,43,-1,-1,45,47,-1,-1,-1,-1,-1,-1,-1,-1,-1,-1,-1,-1,-1,-1,-1,-1,-1,-1,-1,-1],"loss_changes":[2.5710418E0,3.4369411E0,2.5199585E0,4.214326E0,1.3311117E0,3.9042826E0,5.648402E0,2.3898253E0,6.8275905E0,0E0,2.0971966E-1,7.6435094E0,6.935636E0,7.8298616E-1,3.6847289E0,1.1715252E0,1.8503046E0,7.2350855E0,6.525431E0,0E0,0E0,3.666473E0,5.3398232E0,3.5505257E0,2.4144468E0,0E0,0E0,2.7563262E0,3.820167E0,0E0,0E0,0E0,0E0,0E0,0E0,0E0,0E0,0E0,0E0,0E0,0E0,0E0,0E0,0E0,0E0,0E0,0E0,0E0,0E0],"parents":[2147483647,0,0,1,1,2,2,3,3,4,4,5,5,6,6,7,7,8,8,10,10,11,11,12,12,13,13,14,14,15,15,16,16,17,17,18,18,21,21,22,22,23,23,24,24,27,27,28,28],"right_children":[2,4,6,8,10,12,14,16,18,-1,20,22,24,26,28,30,32,34,36,-1,-1,38,40,42,44,-1,-1,46,48,-1,-1,-1,-1,-1,-1,-1,-1,-1,-1,-1,-1,-1,-1,-1,-1,-1,-1,-1,-1],"split_conditions":[9.9903476E-1,8.004163E-2,3.977266E-2,-2.62418E-1,3.0268208E1,9.7365355E-1,6.427546E-1,6.4845247E0,9.463734E-1,-0E0,1.3980514E0,7.161681E1,4.5E0,6.970721E1,5.4491855E-2,-3.84615E-2,9.581872E-1,-1.3026585E1,-8.512373E0,-1.03975095E-1,-1.4397162E-3,4.0384617E1,1.000996E0,6.8231606E1,1.8870514E2,1.0595409E-1,-0E0,2.4000015E0,9.756101E1,-7.494112E-2,1.8002186E-2,-0E0,6.802874E-2,4.6909384E-2,-4.4925224E-2,-1.3697797E-2,5.7002492E-2,-0E0,9.5952876E-2,-1.0915911E-1,2.9506797E-2,-6.693897E-2,2.1273354E-2,-6.3179703E-3,6.5546595E-2,-5.4633794E-3,1.110305E-1,-3.2774076E-2,5.2674502E-2],"split_indices":[8,23,15,12,16,6,21,17,21,0,21,17,20,2,15,23,8,3,3,0,0,16,9,2,13,0,0,18,16,0,0,0,0,0,0,0,0,0,0,0,0,0,0,0,0,0,0,0,0],"split_type":[0,0,0,0,0,0,0,0,0,0,0,0,0,0,0,0,0,0,0,0,0,0,0,0,0,0,0,0,0,0,0,0,0,0,0,0,0,0,0,0,0,0,0,0,0,0,0,0,0],"sum_hessian":[2.6221564E2,1.2964449E2,1.3257115E2,1.24502365E2,5.142127E0,8.549682E1,4.707433E1,2.7462387E1,9.703998E1,1.1683536E0,3.9737735E0,2.3374743E1,6.2122078E1,5.934926E0,4.11394E1,2.493349E0,2.4969038E1,4.6183453E1,5.085652E1,2.6063607E0,1.3674126E0,1.4382008E1,8.992736E0,4.087093E1,2.1251144E1,4.8957205E0,1.0392056E0,5.5693483E0,3.5570053E1,1.3776054E0,1.1157436E0,3.3638754E0,2.1605162E1,9.768405E0,3.641505E1,1.9941381E1,3.0915142E1,5.7653837E0,8.616624E0,5.5478706E0,3.4448652E0,3.7089462E1,3.7814677E0,1.6198196E1,5.0529485E0,2.2653599E0,3.3039885E0,3.0597298E1,4.9727573E0],"tree_param":{"num_deleted":"0","num_feature":"28","num_nodes":"49","size_leaf_vector":"1"}},{"base_weights":[-0E0,5.957364E-1,-1.6156623E-2,-0E0,8.467884E-2,-6.568092E-1,-0E0,-1.0284498E-2,1.3349463E-2,-1.0251305E-1,-6.4164825E-2,3.462681E-1,-3.856806E-2,3.1534493E-2,-5.135416E-2,5.8953446E-1,-2.0271173E-1,-2.4516703E-1,3.0958522E-2,7.255752E-2,-2.554071E-2,-6.964611E-2,5.7575643E-2,-4.7172796E-2,1.0655645E-2,4.863492E-2,-3.518339E-3],"categories":[],"categories_nodes":[],"categories_segments":[],"categories_sizes":[],"default_left":[0,0,0,0,0,0,0,0,0,0,0,0,0,0,0,0,0,0,0,0,0,0,0,0,0,0,0],"id":32,"left_children":[1,3,5,7,-1,9,11,-1,-1,-1,13,15,17,-1,-1,19,21,23,25,-1,-1,-1,-1,-1,-1,-1,-1],"loss_changes":[2.455445E0,9.555485E-1,2.5167677E0,5.768268E-2,0E0,6.967945E-1,3.2997484E0,0E0,0E0,0E0,9.231598E-1,3.6123152E0,3.3738089E0,0E0,0E0,2.4901881E0,3.4206357E0,4.938593E0,5.328217E0,0E0,0E0,0E0,0E0,0E0,0E0,0E0,0E0],"parents":[2147483647,0,0,1,1,2,2,3,3,5,5,6,6,10,10,11,11,12,12,15,15,16,16,17,17,18,18],"right_children":[2,4,6,8,-1,10,12,-1,-1,-1,14,16,18,-1,-1,20,22,24,26,-1,-1,-1,-1,-1,-1,-1,-1],"split_conditions":[1.5512976E1,1.2594E2,1.92E1,1.0626305E0,8.467884E-2,8.000183E-1,-1.2866962E-1,-1.0284498E-2,1.3349463E-2,-1.0251305E-1,1.0282338E0,1.0125555E0,-3.694778E-2,3.1534493E-2,-5.135416E-2,5.270552E2,1.0585433E0,1.6555803E-1,-3.3130452E-2,7.255752E-2,-2.554071E-2,-6.964611E-2,5.7575643E-2,-4.7172796E-2,1.0655645E-2,4.863492E-2,-3.518339E-3],"split_indices":[2,0,2,9,0,20,26,0,0,0,21,8,26,0,0,1,8,12,24,0,0,0,0,0,0,0,0],"split_type":[0,0,0,0,0,0,0,0,0,0,0,0,0,0,0,0,0,0,0,0,0,0,0,0,0,0,0],"sum_hessian":[2.603177E2,5.7306705E0,2.54587E2,2.0667372E0,3.663933E0,4.988631E0,2.4959839E2,1.0417515E0,1.0249857E0,2.1062124E0,2.8824184E0,2.3705648E1,2.2589273E2,1.1211711E0,1.7612472E0,1.7006542E1,6.6991067E0,5.8052975E1,1.6783977E2,1.5279481E1,1.7270601E0,4.5566487E0,2.1424577E0,3.5966022E1,2.2086952E1,2.1438807E1,1.4640096E2],"tree_param":{"num_deleted":"0","num_feature":"28","num_nodes":"27","size_leaf_vector":"1"}},{"base_weights":[-0E0,9.976958E-3,-9.031797E-2,2.7080316E-2,-6.20203E-1,-2.716474E-2,1.9463871E-1,-8.863798E-2,6.5582553E-3,5.1896926E-2,-4.5807368E-1,-2.002199E-1,4.5868263E-1,-3.516358E-3,5.8720022E-2,6.850188E-2,-7.710976E-2,4.71391E-2,-6.2397894E-2,1.2634362E-1,2.5222177E-2],"categories":[],"categories_nodes":[],"categories_segments":[],"categories_sizes":[],"default_left":[0,0,0,0,0,0,0,0,0,0,0,0,0,0,0,0,0,0,0,0,0],"id":33,"left_children":[1,3,-1,5,7,9,11,-1,-1,13,15,17,19,-1,-1,-1,-1,-1,-1,-1,-1],"loss_changes":[2.4387832E0,2.5077362E0,0E0,2.393333E0,1.582588E0,6.7047048E0,6.9332013E0,0E0,0E0,7.7803974E0,1.150621E1,7.694925E0,5.5101595E0,0E0,0E0,0E0,0E0,0E0,0E0,0E0,0E0],"parents":[2147483647,0,0,1,1,3,3,4,4,5,5,6,6,9,9,10,10,11,11,12,12],"right_children":[2,4,-1,6,8,10,12,-1,-1,14,16,18,20,-1,-1,-1,-1,-1,-1,-1,-1],"split_conditions":[9.7871635E1,7.462485E6,-9.031797E-2,2.3955715E1,8.712298E1,2.9283624E2,4.5075756E1,-8.863798E-2,6.5582553E-3,1.7890078E1,1.8867138E1,-2.9926443E1,1.72017E6,-3.516358E-3,5.8720022E-2,6.850188E-2,-7.710976E-2,4.71391E-2,-6.2397894E-2,1.2634362E-1,2.5222177E-2],"split_indices":[17,5,0,4,17,1,2,0,0,14,4,3,5,0,0,0,0,0,0,0,0],"split_type":[0,0,0,0,0,0,0,0,0,0,0,0,0,0,0,0,0,0,0,0,0],"sum_hessian":[2.595824E2,2.5762427E2,1.9581223E0,2.5252118E2,5.103083E0,1.891424E2,6.337878E1,3.9907317E0,1.1123513E0,1.5958206E2,2.9560335E1,2.4735989E1,3.864279E1,1.3725887E2,2.2323206E1,5.755788E0,2.3804546E1,9.069509E0,1.5666481E1,6.350037E0,3.2292755E1],"tree_param":{"num_deleted":"0","num_feature":"28","num_nodes":"21","size_leaf_vector":"1"}},{"base_weights":[-0E0,7.1575955E-2,-1.347373E-1,7.6351436E-3,4.2453843E-1,-3.3857867E-1,1.2785754E-1,-1.6106986E-1,2.6837346E-1,5.3043836E-1,-2.797281E-1,-1.5323906E-1,-8.5575044E-1,6.9889075E-1,-5.5583406E-2,-3.2774203E-2,-7.174449E-1,6.140116E-1,-1.4349355E-2,6.3027614E-1,-1.0071314E-1,-0E0,-5.8624722E-2,-4.2014143E-1,6.3881075E-1,3.5358506E-1,-1.1644496E0,-0E0,9.9135786E-1,-1.266983E-1,5.6647923E-2,-1.6766248E-2,4.8213E-2,-8.745717E-2,2.5815526E-2,-3.5802554E-2,7.030417E-2,-3.070404E-2,2.8493965E-2,9.170707E-3,9.5931165E-2,3.290348E-2,-6.998067E-2,-1.7277336E-2,-1.2543862E-1,-3.1878352E-2,8.4991835E-2,-0E0,4.5351043E-2,-0E0,-1.3988493E-1,-6.760037E-2,5.6143798E-2,-0E0,1.2365023E-1,-1.9657347E-2,5.4037362E-2],"categories":[],"categories_nodes":[],"categories_segments":[],"categories_sizes":[],"default_left":[0,0,0,0,0,0,0,0,0,0,0,0,0,0,0,0,0,0,0,0,0,0,0,0,0,0,0,0,0,0,0,0,0,0,0,0,0,0,0,0,0,0,0,0,0,0,0,0,0,0,0,0,0,0,0,0,0],"id":34,"left_children":[1,3,5,7,9,11,13,15,17,19,21,23,25,27,29,31,33,35,37,39,41,-1,-1,43,45,47,49,51,53,-1,55,-1,-1,-1,-1,-1,-1,-1,-1,-1,-1,-1,-1,-1,-1,-1,-1,-1,-1,-1,-1,-1,-1,-1,-1,-1,-1],"loss_changes":[2.507862E0,3.6107717E0,4.9795685E0,6.5146074E0,2.1241593E0,4.3636103E0,4.45576E0,5.8859344E0,6.059908E0,1.7479367E0,4.9922585E-1,8.683875E0,5.606889E0,2.480782E0,4.735708E0,5.016247E0,2.9436913E0,2.786724E0,2.9503505E0,2.9793568E0,1.2537655E0,0E0,0E0,5.515965E0,2.575931E0,3.2236457E-2,2.6088467E0,1.8010297E0,2.0460286E0,0E0,3.69577E0,0E0,0E0,0E0,0E0,0E0,0E0,0E0,0E0,0E0,0E0,0E0,0E0,0E0,0E0,0E0,0E0,0E0,0E0,0E0,0E0,0E0,0E0,0E0,0E0,0E0,0E0],"parents":[2147483647,0,0,1,1,2,2,3,3,4,4,5,5,6,6,7,7,8,8,9,9,10,10,11,11,12,12,13,13,14,14,15,15,16,16,17,17,18,18,19,19,20,20,23,23,24,24,25,25,26,26,27,27,28,28,30,30],"right_children":[2,4,6,8,10,12,14,16,18,20,22,24,26,28,30,32,34,36,38,40,42,-1,-1,44,46,48,50,52,54,-1,56,-1,-1,-1,-1,-1,-1,-1,-1,-1,-1,-1,-1,-1,-1,-1,-1,-1,-1,-1,-1,-1,-1,-1,-1,-1,-1],"split_conditions":[2.199997E0,1.0952382E0,2.2688574E1,-8.0000305E-1,2.0798898E0,2.023857E1,1.72017E6,-2.9190993E-2,-1.1105619E-3,-2.000122E-1,-2.6200012E1,1.7169468E1,2.498E2,2.7999878E0,2.8375E2,-5.104714E-2,-7.0210327E-3,9.551181E-1,1.9771909E2,-2.2600006E1,-3.4614317E0,-0E0,-5.8624722E-2,2.2236368E2,8.340745E0,4.91595E5,8E0,2.3955715E1,3.7315876E1,-1.266983E-1,6.676328E1,-1.6766248E-2,4.8213E-2,-8.745717E-2,2.5815526E-2,-3.5802554E-2,7.030417E-2,-3.070404E-2,2.8493965E-2,9.170707E-3,9.5931165E-2,3.290348E-2,-6.998067E-2,-1.7277336E-2,-1.2543862E-1,-3.1878352E-2,8.4991835E-2,-0E0,4.5351043E-2,-0E0,-1.3988493E-1,-6.760037E-2,5.6143798E-2,-0E0,1.2365023E-1,-1.9657347E-2,5.4037362E-2],"split_indices":[10,9,4,22,21,4,5,15,23,10,10,14,7,20,0,15,15,8,1,10,3,0,0,1,6,5,10,4,2,0,2,0,0,0,0,0,0,0,0,0,0,0,0,0,0,0,0,0,0,0,0,0,0,0,0,0,0],"split_type":[0,0,0,0,0,0,0,0,0,0,0,0,0,0,0,0,0,0,0,0,0,0,0,0,0,0,0,0,0,0,0,0,0,0,0,0,0,0,0,0,0,0,0,0,0,0,0,0,0,0,0,0,0,0,0,0,0],"sum_hessian":[2.5795926E2,1.6870844E2,8.925082E1,1.4489774E2,2.3810692E1,5.115559E1,3.8095226E1,8.704307E1,5.7854675E1,2.1530022E1,2.2806706E0,3.932554E1,1.1830052E1,9.2418995E0,2.8853327E1,7.232344E1,1.4719627E1,2.6299452E1,3.1555222E1,1.9274675E1,2.2553453E0,1.0811871E0,1.1994835E0,3.0237148E1,9.088391E0,2.046752E0,9.7833E0,2.6274369E0,6.614463E0,1.9518247E0,2.6901503E1,5.861392E1,1.3709518E1,1.3208389E1,1.5112382E0,1.4819484E0,2.4817505E1,1.678499E1,1.4770231E1,8.371089E0,1.0903586E1,1.0897905E0,1.165555E0,2.4715128E1,5.52202E0,1.1217171E0,7.966674E0,1.0379745E0,1.0087774E0,1.9778211E0,7.80548E0,1.4152306E0,1.2122061E0,1.3817376E0,5.2327256E0,1.7369091E1,9.532413E0],"tree_param":{"num_deleted":"0","num_feature":"28","num_nodes":"57","size_leaf_vector":"1"}},{"base_weights":[-0E0,1.3529574E-2,-6.682822E-1,-1.3855748E-2,4.8479754E-1,-0E0,-9.734596E-2,-4.913211E-2,2.803067E-1,7.909519E-1,-0E0,-5.554284E-3,-9.0991247E-1,-1.08314855E-2,7.084558E-1,-0E0,9.788415E-1,-4.7697987E-2,2.443795E-1,-5.1387744E-3,1.21488504E-1,-0E0,-1.0559275E-1,7.437041E-2,-9.1910504E-2,8.736305E-2,-1.1063739E-2,1.1177539E-1,-0E0,-0E0,6.908928E-2],"categories":[],"categories_nodes":[],"categories_segments":[],"categories_sizes":[],"default_left":[0,0,0,0,0,0,0,0,0,0,0,0,0,0,0,0,0,0,0,0,0,0,0,0,0,0,0,0,0,0,0],"id":35,"left_children":[1,3,5,7,9,-1,-1,11,13,15,17,19,21,23,25,-1,27,-1,29,-1,-1,-1,-1,-1,-1,-1,-1,-1,-1,-1,-1],"loss_changes":[2.451025E0,3.5017622E0,1.4139323E0,2.3748074E0,2.1580539E0,0E0,0E0,7.61997E0,3.3714957E0,1.4898124E0,8.996663E-1,1.10402355E1,1.616108E0,1.083682E1,1.8987861E0,0E0,6.999936E-1,0E0,8.954308E-1,0E0,0E0,0E0,0E0,0E0,0E0,0E0,0E0,0E0,0E0,0E0,0E0],"parents":[2147483647,0,0,1,1,2,2,3,3,4,4,7,7,8,8,9,9,10,10,11,11,12,12,13,13,14,14,16,16,18,18],"right_children":[2,4,6,8,10,-1,-1,12,14,16,18,20,22,24,26,-1,28,-1,30,-1,-1,-1,-1,-1,-1,-1,-1,-1,-1,-1,-1],"split_conditions":[8.3600006E1,1.1239669E0,4.0088E2,1.8326338E2,1.5172619E0,-0E0,-9.734596E-2,4.7759E2,5.6257167E0,6.000366E-1,-4.849235E6,2.8488571E1,1.1977145E1,4.902885E6,8.1306E2,-0E0,5.259755E6,-4.7697987E-2,8.96153E-1,-5.1387744E-3,1.21488504E-1,-0E0,-1.0559275E-1,7.437041E-2,-9.1910504E-2,8.736305E-2,-1.1063739E-2,1.1177539E-1,-0E0,-0E0,6.908928E-2],"split_indices":[10,9,0,13,21,0,0,0,3,20,5,4,6,5,0,0,5,0,12,0,0,0,0,0,0,0,0,0,0,0,0],"split_type":[0,0,0,0,0,0,0,0,0,0,0,0,0,0,0,0,0,0,0,0,0,0,0,0,0,0,0,0,0,0,0],"sum_hessian":[2.5595076E2,2.515661E2,4.384656E0,2.3766505E2,1.3901054E1,1.3548644E0,3.0297914E0,2.1447736E2,2.31877E1,8.047609E0,5.8534455E0,2.0565327E2,8.824073E0,1.3687313E1,9.500387E0,1.5851187E0,6.4624906E0,1.5666128E0,4.286833E0,1.9952762E2,6.1256547E0,1.079673E0,7.7443995E0,7.2746744E0,6.412639E0,8.3586645E0,1.1417221E0,5.2831764E0,1.1793141E0,2.7494678E0,1.5373647E0],"tree_param":{"num_deleted":"0","num_feature":"28","num_nodes":"31","size_leaf_vector":"1"}},{"base_weights":[-0E0,7.319336E-2,-1.2750028E-2,-5.1564837E-1,6.483488E-3,4.859491E-2,-9.2474884E-1,4.1476735E-1,-2.392869E-2,7.344106E-2,-3.7437264E-2,-0E0,-1.0322163E-1,8.4464693E-1,-4.0746373E-1,-6.1418825E-1,2.7712407E-2,1.09449565E-1,-4.0853556E-2,7.998266E-2,-1.117821E-1,-9.3325693E-4,-1.1924924E-1,3.4012105E-2,-4.930326E-3],"categories":[],"categories_nodes":[],"categories_segments":[],"categories_sizes":[],"default_left":[0,0,0,0,0,0,0,0,0,0,0,0,0,0,0,0,0,0,0,0,0,0,0,0,0],"id":36,"left_children":[1,-1,3,5,7,9,11,13,15,-1,-1,-1,-1,17,19,21,23,-1,-1,-1,-1,-1,-1,-1,-1],"loss_changes":[2.3409314E0,0E0,2.6958559E0,2.850102E0,3.2200553E0,1.8317944E0,2.2065496E-1,6.9341135E0,7.1920166E0,0E0,0E0,0E0,0E0,4.7232876E0,6.596545E0,6.0287843E0,5.1614895E0,0E0,0E0,0E0,0E0,0E0,0E0,0E0,0E0],"parents":[2147483647,0,0,2,2,3,3,4,4,5,5,6,6,7,7,8,8,13,13,14,14,15,15,16,16],"right_children":[2,-1,4,6,8,10,12,14,16,-1,-1,-1,-1,18,20,22,24,-1,-1,-1,-1,-1,-1,-1,-1],"split_conditions":[3.2329227E1,7.319336E-2,3.701E1,-5.168203E7,4.3600002E1,2.4158106E0,-6.690998E-2,-1.2397265E0,1.5083E2,7.344106E-2,-3.7437264E-2,-0E0,-1.0322163E-1,7.828011E-2,9.749483E-1,-3.4375456E7,1.9616E2,1.09449565E-1,-4.0853556E-2,7.998266E-2,-1.117821E-1,-9.3325693E-4,-1.1924924E-1,3.4012105E-2,-4.930326E-3],"split_indices":[1,0,0,5,7,14,24,3,0,0,0,0,0,25,8,5,7,0,0,0,0,0,0,0,0],"split_type":[0,0,0,0,0,0,0,0,0,0,0,0,0,0,0,0,0,0,0,0,0,0,0,0,0],"sum_hessian":[2.5434064E2,3.2931547E0,2.5104749E2,9.25458E0,2.4179291E2,3.7464242E0,5.508156E0,1.7025671E1,2.2476724E2,1.5992061E0,2.1472182E0,1.07753E0,4.430626E0,1.1561773E1,5.463897E0,1.798515E1,2.0678209E2,1.00781E1,1.4836732E0,1.7166082E0,3.747289E0,9.710035E0,8.275115E0,4.1503197E1,1.6527888E2],"tree_param":{"num_deleted":"0","num_feature":"28","num_nodes":"25","size_leaf_vector":"1"}},{"base_weights":[-0E0,1.040664E-2,-7.6955296E-2,2.5916964E-2,-6.269316E-1,-0E0,4.4545323E-1,-0E0,-9.305782E-2,-4.040463E-2,2.8350818E-1,5.765061E-1,-3.6952067E-2,4.3356605E-3,-2.719126E-2,-3.8116425E-2,4.8111737E-2,7.9176165E-2,-0E0],"categories":[],"categories_nodes":[],"categories_segments":[],"categories_sizes":[],"default_left":[0,0,0,0,0,0,0,0,0,0,0,0,0,0,0,0,0,0,0],"id":37,"left_children":[1,3,-1,5,7,9,11,-1,-1,13,15,17,-1,-1,-1,-1,-1,-1,-1],"loss_changes":[2.2556734E0,2.200776E0,0E0,2.7250597E0,1.3067739E0,2.6663408E0,1.8726442E0,0E0,0E0,4.1124086E0,4.042061E0,2.0602884E0,0E0,0E0,0E0,0E0,0E0,0E0,0E0],"parents":[2147483647,0,0,1,1,3,3,4,4,5,5,6,6,9,9,10,10,11,11],"right_children":[2,4,-1,6,8,10,12,-1,-1,14,16,18,-1,-1,-1,-1,-1,-1,-1],"split_conditions":[9.6051865E1,8.3600006E1,-7.6955296E-2,1.1239669E0,4.0088E2,6.676328E1,8.2172485E1,-0E0,-9.305782E-2,2.600006E0,1.9771909E2,1.7288052E0,-3.6952067E-2,4.3356605E-3,-2.719126E-2,-3.8116425E-2,4.8111737E-2,7.9176165E-2,-0E0],"split_indices":[17,10,0,9,0,2,17,0,0,10,1,21,0,0,0,0,0,0,0],"split_type":[0,0,0,0,0,0,0,0,0,0,0,0,0,0,0,0,0,0,0],"sum_hessian":[2.5314928E2,2.5038635E2,2.7629256E0,2.461401E2,4.24624E0,2.3257033E2,1.3569781E1,1.3560928E0,2.8901474E0,2.0457274E2,2.7997595E1,1.2470563E1,1.0992192E0,1.4923238E2,5.5340366E1,5.623484E0,2.237411E1,9.428291E0,3.042271E0],"tree_param":{"num_deleted":"0","num_feature":"28","num_nodes":"19","size_leaf_vector":"1"}},{"base_weights":[-5.197421E-6,5.7234937E-1,-1.6967475E-2,-0E0,7.463387E-1,-6.297939E-1,-1.462771E-4,4.800479E-3,8.976866E-2,-0E0,-8.3384566E-2,7.28169E-2,-1.6205564E-2,-2.815077E-1,3.8062852E-2,-1.9223146E-3,-1.1722135E-1,8.807721E-2,-1.3000863E-4],"categories":[],"categories_nodes":[],"categories_segments":[],"categories_sizes":[],"default_left":[0,0,0,0,0,0,0,0,0,0,0,0,0,0,0,0,0,0,0],"id":38,"left_children":[1,3,5,-1,7,9,11,-1,-1,-1,-1,-1,13,15,17,-1,-1,-1,-1],"loss_changes":[2.1919115E0,8.9269257E-1,2.2404432E0,0E0,5.5803776E-2,5.549085E-1,2.4988763E0,0E0,0E0,0E0,0E0,0E0,3.5803664E0,9.275841E0,7.013124E0,0E0,0E0,0E0,0E0],"parents":[2147483647,0,0,1,1,2,2,4,4,5,5,6,6,12,12,13,13,14,14],"right_children":[2,4,6,-1,8,10,12,-1,-1,-1,-1,-1,14,16,18,-1,-1,-1,-1],"split_conditions":[1.5512976E1,-7.333076E-2,1.92E1,-0E0,1.2594E2,6.424785E0,-5.195976E7,4.800479E-3,8.976866E-2,-0E0,-8.3384566E-2,7.28169E-2,1.6808138E2,-3.305925E7,1.7136E2,-1.9223146E-3,-1.1722135E-1,8.807721E-2,-1.3000863E-4],"split_indices":[2,24,2,0,0,17,5,0,0,0,0,0,1,5,7,0,0,0,0],"split_type":[0,0,0,0,0,0,0,0,0,0,0,0,0,0,0,0,0,0,0],"sum_hessian":[2.5237662E2,5.4732785E0,2.4690335E2,1.0637312E0,4.4095473E0,4.8284745E0,2.4207487E2,1.608518E0,2.8010292E0,1.7054734E0,3.1230013E0,3.5942123E0,2.3848065E2,4.135152E1,1.9712914E2,3.3167637E1,8.183882E0,8.409939E0,1.8871921E2],"tree_param":{"num_deleted":"0","num_feature":"28","num_nodes":"19","size_leaf_vector":"1"}},{"base_weights":[-0E0,4.0553892E-1,-2.2547508E-2,6.315665E-1,-3.4777332E-2,-0E0,-4.3011674E-1,-0E0,8.1018984E-1,5.34267E-1,-2.575013E-2,-7.289229E-1,-0E0,-4.0014517E-2,3.1314842E-2,-0E0,1.043869E-1,7.348508E-1,-3.47659E-2,5.9383903E-3,-4.1095677E-1,2.9866225E-3,-9.378149E-2,2.0865777E-1,-4.982127E-2,9.333552E-2,-0E0,-4.360669E-3,1.0034452E-1,-8.398226E-2,1.1604487E-4,-1.4558861E-2,5.6190845E-2],"categories":[],"categories_nodes":[],"categories_segments":[],"categories_sizes":[],"default_left":[0,0,0,0,0,0,0,0,0,0,0,0,0,0,0,0,0,0,0,0,0,0,0,0,0,0,0,0,0,0,0,0,0],"id":39,"left_children":[1,3,5,7,-1,9,11,13,15,17,19,21,23,-1,-1,-1,-1,25,-1,27,29,-1,-1,31,-1,-1,-1,-1,-1,-1,-1,-1,-1],"loss_changes":[2.1370957E0,2.44707E0,2.3018978E0,1.2880664E0,0E0,3.266835E0,1.4966116E0,5.241526E-1,1.6788573E0,2.3835506E0,2.8819177E0,1.6517503E0,8.777444E-1,0E0,0E0,0E0,0E0,1.8696661E0,0E0,1.0527654E1,3.581015E0,0E0,0E0,9.257778E-1,0E0,0E0,0E0,0E0,0E0,0E0,0E0,0E0,0E0],"parents":[2147483647,0,0,1,1,2,2,3,3,5,5,6,6,7,7,8,8,9,9,10,10,11,11,12,12,17,17,19,19,20,20,23,23],"right_children":[2,4,6,8,-1,10,12,14,16,18,20,22,24,-1,-1,-1,-1,26,-1,28,30,-1,-1,32,-1,-1,-1,-1,-1,-1,-1,-1,-1],"split_conditions":[-1.7751479E-1,-7.766992E-2,1.4799988E1,1.056266E0,-3.4777332E-2,-2.911009E1,1.7177704E1,3.653484E1,-7.264952E-2,2.3200012E1,4.7759E2,8.702797E0,2.6200012E1,-4.0014517E-2,3.1314842E-2,-0E0,1.043869E-1,4.8376E2,-3.47659E-2,4.532809E2,8.482102E0,2.9866225E-3,-9.378149E-2,2.2E1,-4.982127E-2,9.333552E-2,-0E0,-4.360669E-3,1.0034452E-1,-8.398226E-2,1.1604487E-4,-1.4558861E-2,5.6190845E-2],"split_indices":[27,25,19,9,0,3,3,2,23,10,0,16,18,0,0,0,0,7,0,1,3,0,0,19,0,0,0,0,0,0,0,0,0],"split_type":[0,0,0,0,0,0,0,0,0,0,0,0,0,0,0,0,0,0,0,0,0,0,0,0,0,0,0,0,0,0,0,0,0],"sum_hessian":[2.5159418E2,1.1248424E1,2.4034575E2,9.287195E0,1.9612277E0,2.2823985E2,1.2105892E1,2.073725E0,7.213471E0,9.935425E0,2.1830443E2,6.3800035E0,5.7258883E0,1.0091345E0,1.0645905E0,1.725001E0,5.4884696E0,8.692193E0,1.2432312E0,2.0142134E2,1.6883083E1,1.0455484E0,5.334455E0,4.080882E0,1.6450063E0,7.154153E0,1.5380402E0,1.9232387E2,9.097482E0,8.359389E0,8.523695E0,1.6243691E0,2.456513E0],"tree_param":{"num_deleted":"0","num_feature":"28","num_nodes":"33","size_leaf_vector":"1"}},{"base_weights":[-0E0,7.58518E-3,-8.383817E-2,2.3315238E-2,-5.883584E-1,1.8689217E-1,-2.6421286E-2,-8.288857E-2,-0E0,4.8442953E-3,5.6508917E-1,-5.095148E-2,6.0780513E-1,1.0498411E-2,-8.8815406E-2,4.862625E-3,8.637185E-2,3.950984E-3,-2.76301E-2,-3.1171998E-2,9.487714E-2],"categories":[],"categories_nodes":[],"categories_segments":[],"categories_sizes":[],"default_left":[0,0,0,0,0,0,0,0,0,0,0,0,0,0,0,0,0,0,0,0,0],"id":40,"left_children":[1,3,-1,5,7,9,11,-1,-1,13,15,17,19,-1,-1,-1,-1,-1,-1,-1,-1],"loss_changes":[2.0113852E0,2.0703561E0,0E0,2.0775633E0,1.2018062E0,3.8135202E0,2.6513405E0,0E0,0E0,3.4675617E0,2.3481555E0,3.8204823E0,2.57588E0,0E0,0E0,0E0,0E0,0E0,0E0,0E0,0E0],"parents":[2147483647,0,0,1,1,3,3,4,4,5,5,6,6,9,9,10,10,11,11,12,12],"right_children":[2,4,-1,6,8,10,12,-1,-1,14,16,18,20,-1,-1,-1,-1,-1,-1,-1,-1],"split_conditions":[9.7871635E1,7.462485E6,-8.383817E-2,6.544736E-1,8.712298E1,5.154639E-3,9.756101E1,-8.288857E-2,-0E0,8.421449E1,1.0398848E0,1.79137E6,2.862224E-4,1.0498411E-2,-8.8815406E-2,4.862625E-3,8.637185E-2,3.950984E-3,-2.76301E-2,-3.1171998E-2,9.487714E-2],"split_indices":[17,5,0,21,17,24,16,0,0,17,9,5,23,0,0,0,0,0,0,0,0],"split_type":[0,0,0,0,0,0,0,0,0,0,0,0,0,0,0,0,0,0,0,0,0],"sum_hessian":[2.503722E2,2.48531E2,1.8411924E0,2.4389326E2,4.6377325E0,5.856756E1,1.8532571E2,3.5897508E0,1.0479819E0,4.1112587E1,1.745497E1,1.8006914E2,5.2565703E0,3.826405E1,2.8485389E0,7.4345217E0,1.0020449E1,1.27495094E2,5.257404E1,1.0484477E0,4.2081227E0],"tree_param":{"num_deleted":"0","num_feature":"28","num_nodes":"21","size_leaf_vector":"1"}},{"base_weights":[-2.1853402E-5,6.775864E-2,-1.31816E-2,-5.1312715E-1,5.575389E-3,-0E0,-1.00276604E-1,3.6942685E-1,-2.1015756E-2,-8.235543E-2,4.516885E-1,9.046889E-1,-2.0592631E-1,-5.104062E-1,3.0224267E-2,8.063605E-2,-3.2745828E-3,-1.6380984E-2,1.1280129E-1,9.413298E-2,-7.6210216E-2,-1.1725535E-1,-0E0,7.990443E-2,-4.889084E-4],"categories":[],"categories_nodes":[],"categories_segments":[],"categories_sizes":[],"default_left":[0,0,0,0,0,0,0,0,0,0,0,0,0,0,0,0,0,0,0,0,0,0,0,0,0],"id":41,"left_children":[1,-1,3,5,7,9,-1,11,13,-1,15,17,19,21,23,-1,-1,-1,-1,-1,-1,-1,-1,-1,-1],"loss_changes":[1.9102628E0,0E0,2.5767086E0,2.3704638E0,2.489392E0,2.636631E0,0E0,5.9486723E0,5.820244E0,0E0,1.1697304E0,2.9913368E0,6.2654786E0,7.3126945E0,5.824395E0,0E0,0E0,0E0,0E0,0E0,0E0,0E0,0E0,0E0,0E0],"parents":[2147483647,0,0,2,2,3,3,4,4,5,5,7,7,8,8,10,10,11,11,12,12,13,13,14,14],"right_children":[2,-1,4,6,8,10,-1,12,14,-1,16,18,20,22,24,-1,-1,-1,-1,-1,-1,-1,-1,-1,-1],"split_conditions":[3.2329227E1,6.775864E-2,3.701E1,4.0138805E1,4.3600002E1,6.4845247E0,-1.00276604E-1,-3.999977E-1,1.6808138E2,-8.235543E-2,-5.168203E7,1.8705562E0,-5.01847E0,3.0346653E1,1.7136E2,8.063605E-2,-3.2745828E-3,-1.6380984E-2,1.1280129E-1,9.413298E-2,-7.6210216E-2,-1.1725535E-1,-0E0,7.990443E-2,-4.889084E-4],"split_indices":[1,0,0,17,7,17,0,10,1,0,5,14,3,13,7,0,0,0,0,0,0,0,0,0,0],"split_type":[0,0,0,0,0,0,0,0,0,0,0,0,0,0,0,0,0,0,0,0,0,0,0,0,0],"sum_hessian":[2.4947612E2,3.0670438E0,2.4640907E2,8.921341E0,2.3748773E2,4.966043E0,3.9552975E0,1.6576662E1,2.2091107E2,1.5629528E0,3.4030902E0,8.74119E0,7.835471E0,2.10131E1,1.9989796E2,2.1768966E0,1.2261937E0,1.1701541E0,7.5710363E0,2.0386758E0,5.7967954E0,8.489853E0,1.2523247E1,8.402633E0,1.9149533E2],"tree_param":{"num_deleted":"0","num_feature":"28","num_nodes":"25","size_leaf_vector":"1"}},{"base_weights":[-1.6420493E-4,5.350517E-1,-1.595999E-2,7.165494E-1,-0E0,-5.9187895E-1,-2.1275127E-4,3.929082E-3,8.582755E-2,-8.695158E-2,-0E0,2.9592252E-1,-3.402931E-2,3.22869E-2,-4.867904E-2,5.312743E-1,-2.3979934E-1,2.3096874E-1,-8.366298E-2,7.265227E-2,-1.0275472E-3,-6.596925E-2,4.5007505E-2,-4.647068E-3,7.8986846E-2,-7.084458E-2,-4.650262E-3],"categories":[],"categories_nodes":[],"categories_segments":[],"categories_sizes":[],"default_left":[0,0,0,0,0,0,0,0,0,0,0,0,0,0,0,0,0,0,0,0,0,0,0,0,0,0,0],"id":42,"left_children":[1,3,5,7,-1,9,11,-1,-1,-1,13,15,17,-1,-1,19,21,23,25,-1,-1,-1,-1,-1,-1,-1,-1],"loss_changes":[1.8569802E0,8.432003E-1,1.9173665E0,1.0656357E-2,0E0,5.9112394E-1,2.2767737E0,0E0,0E0,0E0,7.3166734E-1,3.188948E0,2.803742E0,0E0,0E0,2.1659522E0,2.4581842E0,5.518546E0,3.8926811E0,0E0,0E0,0E0,0E0,0E0,0E0,0E0,0E0],"parents":[2147483647,0,0,1,1,2,2,3,3,5,5,6,6,10,10,11,11,12,12,15,15,16,16,17,17,18,18],"right_children":[2,4,6,8,-1,10,12,-1,-1,-1,14,16,18,-1,-1,20,22,24,26,-1,-1,-1,-1,-1,-1,-1,-1],"split_conditions":[1.5512976E1,1.0985707E0,1.92E1,1.2594E2,-0E0,5.0412006E1,-1.2866962E-1,3.929082E-3,8.582755E-2,-8.695158E-2,4.4864E2,1.0125555E0,1.1081545E0,3.22869E-2,-4.867904E-2,1.762375E1,1.0585433E0,1.9771909E2,1.8705562E0,7.265227E-2,-1.0275472E-3,-6.596925E-2,4.5007505E-2,-4.647068E-3,7.8986846E-2,-7.084458E-2,-4.650262E-3],"split_indices":[2,21,2,0,0,13,26,0,0,0,0,8,6,0,0,16,8,1,14,0,0,0,0,0,0,0,0],"split_type":[0,0,0,0,0,0,0,0,0,0,0,0,0,0,0,0,0,0,0,0,0,0,0,0,0,0,0],"sum_hessian":[2.4834329E2,5.269437E0,2.4307385E2,4.1378946E0,1.1315417E0,4.650612E0,2.3842325E2,1.5476048E0,2.59029E0,2.4000711E0,2.250541E0,2.2126102E1,2.1629715E2,1.0762556E0,1.1742854E0,1.6026852E1,6.0992494E0,3.1955727E1,1.8434142E2,1.2207367E1,3.8194857E0,4.2692704E0,1.8299788E0,2.136989E1,1.0585836E1,8.579145E0,1.7576227E2],"tree_param":{"num_deleted":"0","num_feature":"28","num_nodes":"27","size_leaf_vector":"1"}},{"base_weights":[-6.1643266E-5,-3.5176963E-1,1.8663857E-2,4.0410522E-1,-9.182757E-1,7.925344E-1,-6.7276773E-3,9.388956E-2,-1.7661455E-1,-0E0,-1.0465055E-1,1.0840286E-1,-1.2758985E-2,-2.749415E-2,7.848972E-1,1.6436761E-2,-6.678971E-2,-3.046166E-1,2.2223195E-2,-0E0,1.05838895E-1,-6.4497157E-3,-7.424953E-2,6.087482E-2,-2.0574175E-3],"categories":[],"categories_nodes":[],"categories_segments":[],"categories_sizes":[],"default_left":[0,0,0,0,0,0,0,0,0,0,0,0,0,0,0,0,0,0,0,0,0,0,0,0,0],"id":43,"left_children":[1,3,5,7,9,11,13,-1,15,-1,-1,-1,-1,17,19,-1,-1,21,23,-1,-1,-1,-1,-1,-1],"loss_changes":[1.8089894E0,6.604363E0,5.024443E0,2.502011E0,7.968564E-1,2.7926354E0,3.396288E0,0E0,9.33024E-1,0E0,0E0,0E0,0E0,3.2350893E0,1.2997725E0,0E0,0E0,3.3002858E0,5.0604672E0,0E0,0E0,0E0,0E0,0E0,0E0],"parents":[2147483647,0,0,1,1,2,2,3,3,4,4,5,5,6,6,8,8,13,13,14,14,17,17,18,18],"right_children":[2,4,6,8,10,12,14,-1,16,-1,-1,-1,-1,18,20,-1,-1,22,24,-1,-1,-1,-1,-1,-1],"split_conditions":[6.599993E-1,1.825571E-1,1.1739925E0,4.4268543E-1,1.414246E-1,7.666651E1,8.056701E0,9.388956E-2,6.666654E1,-0E0,-1.0465055E-1,1.0840286E-1,-1.2758985E-2,1.0398848E0,-1.20025845E-2,1.6436761E-2,-6.678971E-2,2.4000015E0,5.8064044E-1,-0E0,1.05838895E-1,-6.4497157E-3,-7.424953E-2,6.087482E-2,-2.0574175E-3],"split_indices":[4,3,14,14,6,17,12,0,16,0,0,0,0,9,15,0,0,18,21,0,0,0,0,0,0],"split_type":[0,0,0,0,0,0,0,0,0,0,0,0,0,0,0,0,0,0,0,0,0,0,0,0,0],"sum_hessian":[2.4738962E2,1.2956306E1,2.344333E2,5.2951665E0,7.66114E0,7.1134095E0,2.273199E2,2.883732E0,2.4114347E0,1.2648772E0,6.3962626E0,5.679441E0,1.4339683E0,2.2306517E2,4.2547245E0,1.2154915E0,1.1959432E0,3.4681545E1,1.8838362E2,1.2044922E0,3.0502322E0,2.387718E1,1.0804362E1,1.2706323E1,1.756773E2],"tree_param":{"num_deleted":"0","num_feature":"28","num_nodes":"25","size_leaf_vector":"1"}},{"base_weights":[-0E0,7.2670165E-3,-7.9469875E-2,1.9692938E-1,-2.8611522E-2,3.6274904E-1,-1.8857872E-1,-3.0163655E-1,2.1269713E-2,-2.4541669E-2,6.6390663E-1,-8.068224E-1,1.8276079E-1,-0E0,-6.993376E-1,5.1933765E-1,-1.1343595E-2,-3.1398207E-2,8.5019484E-2,-4.4028793E-4,8.6775176E-2,-0E0,-1.0352774E-1,4.8332706E-2,-4.4026595E-2,7.784071E-2,-3.669359E-2,-8.510209E-2,2.8637225E-2,8.5301004E-2,-3.6771905E-2,-4.6419114E-2,5.804693E-3],"categories":[],"categories_nodes":[],"categories_segments":[],"categories_sizes":[],"default_left":[0,0,0,0,0,0,0,0,0,0,0,0,0,0,0,0,0,0,0,0,0,0,0,0,0,0,0,0,0,0,0,0,0],"id":44,"left_children":[1,3,-1,5,7,9,11,13,15,17,19,21,23,25,27,29,31,-1,-1,-1,-1,-1,-1,-1,-1,-1,-1,-1,-1,-1,-1,-1,-1],"loss_changes":[1.7541561E0,1.7623539E0,0E0,2.8047686E0,2.943189E0,3.861613E0,3.2639723E0,4.328972E0,3.0702307E0,3.406965E0,2.8558888E0,7.829838E-1,1.72153E0,5.9873867E0,2.7766852E0,3.9885998E0,5.33366E0,0E0,0E0,0E0,0E0,0E0,0E0,0E0,0E0,0E0,0E0,0E0,0E0,0E0,0E0,0E0,0E0],"parents":[2147483647,0,0,1,1,3,3,4,4,5,5,6,6,7,7,8,8,9,9,10,10,11,11,12,12,13,13,14,14,15,15,16,16],"right_children":[2,4,-1,6,8,10,12,14,16,18,20,22,24,26,28,30,32,-1,-1,-1,-1,-1,-1,-1,-1,-1,-1,-1,-1,-1,-1,-1,-1],"split_conditions":[9.7871635E1,-4.0294772E-1,-7.9469875E-2,7.500032E1,8.0000305E-1,-1.2000008E0,2.7990297E-3,1.2000008E0,-4.082274E7,1.1340191E-2,2.5100055E-1,7.161681E1,2.4000015E0,-1.4208202E0,1.7778309E1,6.000023E-1,3.554138E1,-3.1398207E-2,8.5019484E-2,-4.4028793E-4,8.6775176E-2,-0E0,-1.0352774E-1,4.8332706E-2,-4.4026595E-2,7.784071E-2,-3.669359E-2,-8.510209E-2,2.8637225E-2,8.5301004E-2,-3.6771905E-2,-4.6419114E-2,5.804693E-3],"split_indices":[17,12,0,16,18,22,