{"learner":{"attributes":{"scikit_learn":"{\"_estimator_type\": \"classifier\"}"},"feature_names":["SMA20","EMA20","RSI","MACD","ATR","OBV","rolling_std","rolling_mean","Close/Open","High/Low","Momentum","Volatility","VolumeChange","BB_Width","return_lag_1","return_lag_2","return_lag_3","return_lag_4","return_lag_5"],"feature_types":["float","float","float","float","float","float","float","float","float","float","float","float","float","float","float","float","float","float","float"],"gradient_booster":{"model":{"gbtree_model_param":{"num_parallel_tree":"1","num_trees":"200"},"iteration_indptr":[0,1,2,3,4,5,6,7,8,9,10,11,12,13,14,15,16,17,18,19,20,21,22,23,24,25,26,27,28,29,30,31,32,33,34,35,36,37,38,39,40,41,42,43,44,45,46,47,48,49,50,51,52,53,54,55,56,57,58,59,60,61,62,63,64,65,66,67,68,69,70,71,72,73,74,75,76,77,78,79,80,81,82,83,84,85,86,87,88,89,90,91,92,93,94,95,96,97,98,99,100,101,102,103,104,105,106,107,108,109,110,111,112,113,114,115,116,117,118,119,120,121,122,123,124,125,126,127,128,129,130,131,132,133,134,135,136,137,138,139,140,141,142,143,144,145,146,147,148,149,150,151,152,153,154,155,156,157,158,159,160,161,162,163,164,165,166,167,168,169,170,171,172,173,174,175,176,177,178,179,180,181,182,183,184,185,186,187,188,189,190,191,192,193,194,195,196,197,198,199,200],"tree_info":[0,0,0,0,0,0,0,0,0,0,0,0,0,0,0,0,0,0,0,0,0,0,0,0,0,0,0,0,0,0,0,0,0,0,0,0,0,0,0,0,0,0,0,0,0,0,0,0,0,0,0,0,0,0,0,0,0,0,0,0,0,0,0,0,0,0,0,0,0,0,0,0,0,0,0,0,0,0,0,0,0,0,0,0,0,0,0,0,0,0,0,0,0,0,0,0,0,0,0,0,0,0,0,0,0,0,0,0,0,0,0,0,0,0,0,0,0,0,0,0,0,0,0,0,0,0,0,0,0,0,0,0,0,0,0,0,0,0,0,0,0,0,0,0,0,0,0,0,0,0,0,0,0,0,0,0,0,0,0,0,0,0,0,0,0,0,0,0,0,0,0,0,0,0,0,0,0,0,0,0,0,0,0,0,0,0,0,0,0,0,0,0,0,0,0,0,0,0,0,0],"trees":[{"base_weights":[-7.8324005E-2,1.8348815E-1,-9.3628603E-1,3.5115921E-1,-1.0846363E0,3.5261068E-1,-1.5160288E0,-2.7354878E-1,5.444286E-1,-1.4212437E0,5.9278287E-2,-6.2687534E-1,8.127386E-1,-1.6048423E0,-0E0,-5.586302E-1,1.2791987E-1,-3.4279364E-1,6.9072694E-1,-1.7183095E-1,-0E0,-1.0027236E-1,-0E0,1.3709398E-1,-1.8885505E-1,-0E0,-1.7032836E-1,5.095873E-2,-8.9755766E-2,-1.0720396E-1,6.406828E-2,8.7819904E-2,2.1891345E-3,3.9313506E-2,-8.914105E-2],"categories":[],"categories_nodes":[],"categories_segments":[],"categories_sizes":[],"default_left":[0,0,0,0,0,0,0,0,0,0,0,0,0,0,0,0,0,0,0,0,0,0,0,0,0,0,0,0,0,0,0,0,0,0,0],"id":0,"left_children":[1,3,5,7,9,11,13,15,17,19,-1,21,23,25,-1,27,-1,29,31,-1,-1,-1,-1,-1,33,-1,-1,-1,-1,-1,-1,-1,-1,-1,-1],"loss_changes":[3.125518E1,2.2367844E1,2.545554E1,1.1628474E1,8.130209E0,5.401969E0,3.4666786E0,1.0205375E1,9.847534E0,4.2592373E0,0E0,1.0906836E0,5.33855E0,3.8479118E0,0E0,7.809175E0,0E0,8.415792E0,7.458647E0,0E0,0E0,0E0,0E0,0E0,2.0026445E0,0E0,0E0,0E0,0E0,0E0,0E0,0E0,0E0,0E0,0E0],"parents":[2147483647,0,0,1,1,2,2,3,3,4,4,5,5,6,6,7,7,8,8,9,9,11,11,12,12,13,13,15,15,17,17,18,18,24,24],"right_children":[2,4,6,8,10,12,14,16,18,20,-1,22,24,26,-1,28,-1,30,32,-1,-1,-1,-1,-1,34,-1,-1,-1,-1,-1,-1,-1,-1,-1,-1],"split_conditions":[3.403279E1,-1.497351E8,-4.534895E0,-5.774551E-2,1.2854986E1,3.6601566E1,9.9135E0,2.6524293E0,1.0373397E0,5.712889E-1,5.9278287E-2,4.5141705E1,-9.61023E7,7.0656204E-1,-0E0,-5.940934E8,1.2791987E-1,-3.1112716E-1,5.953032E-2,-1.7183095E-1,-0E0,-1.0027236E-1,-0E0,1.3709398E-1,-1.6209672E-1,-0E0,-1.7032836E-1,5.095873E-2,-8.9755766E-2,-1.0720396E-1,6.406828E-2,8.7819904E-2,2.1891345E-3,3.9313506E-2,-8.914105E-2],"split_indices":[1,5,3,16,13,13,4,4,9,12,0,2,5,6,0,5,0,3,16,0,0,0,0,0,18,0,0,0,0,0,0,0,0,0,0],"split_type":[0,0,0,0,0,0,0,0,0,0,0,0,0,0,0,0,0,0,0,0,0,0,0,0,0,0,0,0,0,0,0,0,0,0,0],"sum_hessian":[1.3570338E2,1.0413066E2,3.1572725E1,9.295725E1,1.1173412E1,9.649367E0,2.1923357E1,2.1254265E1,7.170299E1,9.6814375E0,1.4919748E0,2.6209779E0,7.0283895E0,2.0802372E1,1.1209855E0,1.8770311E1,2.4839523E0,9.475899E0,6.2227085E1,7.7499604E0,1.931477E0,1.4999924E0,1.1209855E0,4.5969152E0,2.4314744E0,1.1209855E0,1.9681385E1,4.04444E0,1.4725872E1,5.6814575E0,3.7944412E0,4.7775265E1,1.4451821E1,1.1814809E0,1.2499936E0],"tree_param":{"num_deleted":"0","num_feature":"19","num_nodes":"35","size_leaf_vector":"1"}},{"base_weights":[-4.977817E-2,1.5395547E-1,-8.51484E-1,3.1010774E-1,-5.919416E-1,2.7655396E-1,-1.4136281E0,1.4617488E-1,1.1417509E0,-1.0308776E0,1.0853364E-1,8.512222E-1,-6.886345E-1,-0E0,-1.5203074E0,5.036468E-1,-4.0886712E-1,1.4638435E0,-9.62879E-3,4.4122692E-2,-1.2212743E0,1.22301124E-1,-0E0,-1.0637873E-1,-0E0,-3.185913E-1,-1.7003569E-1,-1.020467E-2,9.486354E-2,-1.1157707E-1,5.9265E-3,1.7071776E-1,-2.2124358E-2,8.495656E-2,-9.782298E-2,8.6555985E-4,-1.4969048E-1,-1.0048445E-1,4.622517E-2],"categories":[],"categories_nodes":[],"categories_segments":[],"categories_sizes":[],"default_left":[0,0,0,0,0,0,0,0,0,0,0,0,0,0,0,0,0,0,0,0,0,0,0,0,0,0,0,0,0,0,0,0,0,0,0,0,0,0,0],"id":1,"left_children":[1,3,5,7,9,11,13,15,17,19,-1,21,23,-1,25,27,29,31,33,-1,35,-1,-1,-1,-1,37,-1,-1,-1,-1,-1,-1,-1,-1,-1,-1,-1,-1,-1],"loss_changes":[2.228036E1,1.2479179E1,1.8522034E1,1.1391328E1,1.4544703E1,6.076579E0,3.34618E0,1.5414732E1,5.9659443E0,5.198225E0,0E0,2.4292808E0,1.2755313E0,0E0,2.3058624E0,1.3315927E1,1.0501809E1,5.776552E0,4.002734E0,0E0,5.5214443E0,0E0,0E0,0E0,0E0,2.8338058E0,0E0,0E0,0E0,0E0,0E0,0E0,0E0,0E0,0E0,0E0,0E0,0E0,0E0],"parents":[2147483647,0,0,1,1,2,2,3,3,4,4,5,5,6,6,7,7,8,8,9,9,11,11,12,12,14,14,15,15,16,16,17,17,18,18,20,20,25,25],"right_children":[2,4,6,8,10,12,14,16,18,20,-1,22,24,-1,26,28,30,32,34,-1,36,-1,-1,-1,-1,38,-1,-1,-1,-1,-1,-1,-1,-1,-1,-1,-1,-1,-1],"split_conditions":[3.4630142E1,-1.659137E8,-4.534895E0,3.0552E1,1.4847955E1,-8.27385E7,-1.11399975E1,-3.577731E8,3.3338E1,2.1372E1,1.0853364E-1,4.2652035E0,7.9179277E0,-0E0,3.554275E1,3.485304E0,-8.517365E-1,8.098586E-2,8.097033E0,4.4122692E-2,1.0589283E0,1.22301124E-1,-0E0,-1.0637873E-1,-0E0,3.52865E1,-1.7003569E-1,-1.020467E-2,9.486354E-2,-1.1157707E-1,5.9265E-3,1.7071776E-1,-2.2124358E-2,8.495656E-2,-9.782298E-2,8.6555985E-4,-1.4969048E-1,-1.0048445E-1,4.622517E-2],"split_indices":[1,5,3,7,13,5,10,5,7,7,0,6,4,0,0,13,3,17,13,0,4,0,0,0,0,0,0,0,0,0,0,0,0,0,0,0,0,0,0],"split_type":[0,0,0,0,0,0,0,0,0,0,0,0,0,0,0,0,0,0,0,0,0,0,0,0,0,0,0,0,0,0,0,0,0,0,0,0,0,0,0],"sum_hessian":[1.3247157E2,1.0577561E2,2.6695951E1,8.850238E1,1.7273237E1,8.752052E0,1.79439E1,7.541385E1,1.30885315E1,1.4232219E1,3.041018E0,5.8845387E0,2.8675137E0,1.1175678E0,1.6826332E1,4.647518E1,2.8938667E1,1.035473E1,2.7338026E0,1.1783063E0,1.3053912E1,3.959145E0,1.9253937E0,1.7478397E0,1.119674E0,2.9152648E0,1.3911066E1,1.9533852E1,2.6941328E1,1.1403468E1,1.7535198E1,9.295962E0,1.058767E0,1.2402916E0,1.493511E0,2.235069E0,1.0818844E1,1.7397377E0,1.1755271E0],"tree_param":{"num_deleted":"0","num_feature":"19","num_nodes":"39","size_leaf_vector":"1"}},{"base_weights":[-3.019131E-2,1.4398624E0,-1.4147048E-1,1.61175E-1,-0E0,1.0152848E0,-2.1127261E-1,1.3239487E-1,-0E0,-1.6895175E-1,-9.036004E-2,1.16558E-1,-5.8939284E-1,-3.0177921E-2,5.3982127E-2,4.457309E-2,-9.866785E-2],"categories":[],"categories_nodes":[],"categories_segments":[],"categories_sizes":[],"default_left":[0,0,0,0,0,0,0,0,0,0,0,0,0,0,0,0,0],"id":2,"left_children":[1,3,5,-1,-1,7,9,-1,-1,-1,11,13,15,-1,-1,-1,-1],"loss_changes":[2.1554455E1,1.9338703E0,1.0006277E1,0E0,0E0,2.6170845E0,2.0459436E1,0E0,0E0,0E0,1.1929203E1,1.4394744E1,1.4638518E1,0E0,0E0,0E0,0E0],"parents":[2147483647,0,0,1,1,2,2,5,5,6,6,10,10,11,11,12,12],"right_children":[2,4,6,-1,-1,8,10,-1,-1,-1,12,14,16,-1,-1,-1,-1],"split_conditions":[-6.44503E8,3.9490122E-1,1.0262345E1,1.61175E-1,-0E0,6.595092E1,1.3333602E1,1.3239487E-1,-0E0,-1.6895175E-1,-1.742944E8,-2.6000023E-1,-4.1745692E-2,-3.0177921E-2,5.3982127E-2,4.457309E-2,-9.866785E-2],"split_indices":[5,12,1,0,0,2,1,0,0,0,5,10,15,0,0,0,0],"split_type":[0,0,0,0,0,0,0,0,0,0,0,0,0,0,0,0,0],"sum_hessian":[1.3348526E2,8.237068E0,1.2524819E2,7.1163654E0,1.1207023E0,5.949259E0,1.19298935E2,4.5797462E0,1.3695127E0,7.7266536E0,1.1157228E2,7.8703354E1,3.2868923E1,3.9132256E1,3.9571102E1,8.733473E0,2.413545E1],"tree_param":{"num_deleted":"0","num_feature":"19","num_nodes":"17","size_leaf_vector":"1"}},{"base_weights":[-0E0,4.7324893E-1,-2.6975963E-1,6.76022E-1,-6.40951E-1,-1.0331148E0,-8.950114E-2,-6.306436E-1,8.5442954E-1,4.561103E-2,-1.1837794E0,-1.3314232E0,6.953897E-2,4.237295E-1,-3.5378918E-1,3.1624485E-2,-1.0782943E-1,2.972059E-1,1.1658005E0,-1.4911382E-1,-0E0,-4.5160562E-1,-1.6659246E-1,-5.3234047E-1,1.0058666E0,1.08537905E-1,-7.0009637E-1,-8.690258E-2,1.1313566E-1,-2.009556E-2,1.3916911E-1,5.4677725E-2,-1.0453721E-1,-1.3038942E-1,1.0958298E-1,-3.4621835E-2,1.2709017E-1,-8.503764E-2,4.7505364E-2,-0E0,-9.9622965E-2],"categories":[],"categories_nodes":[],"categories_segments":[],"categories_sizes":[],"default_left":[0,0,0,0,0,0,0,0,0,0,0,0,0,0,0,0,0,0,0,0,0,0,0,0,0,0,0,0,0,0,0,0,0,0,0,0,0,0,0,0,0],"id":3,"left_children":[1,3,5,7,9,11,13,15,17,-1,19,21,-1,23,25,-1,-1,27,29,-1,-1,31,-1,33,35,37,39,-1,-1,-1,-1,-1,-1,-1,-1,-1,-1,-1,-1,-1,-1],"loss_changes":[1.7687923E1,1.1826682E1,1.1468834E1,1.0783264E1,5.6001225E0,9.599577E0,1.0002419E1,3.0365095E0,5.689472E0,0E0,2.3323927E0,2.429659E0,0E0,1.4457973E1,8.265835E0,0E0,0E0,1.6582188E1,8.317047E0,0E0,0E0,4.2312975E0,0E0,1.3636426E1,6.6197624E0,7.7244415E0,6.4477386E0,0E0,0E0,0E0,0E0,0E0,0E0,0E0,0E0,0E0,0E0,0E0,0E0,0E0,0E0],"parents":[2147483647,0,0,1,1,2,2,3,3,4,4,5,5,6,6,7,7,8,8,10,10,11,11,13,13,14,14,17,17,18,18,21,21,23,23,24,24,25,25,26,26],"right_children":[2,4,6,8,10,12,14,16,18,-1,20,22,-1,24,26,-1,-1,28,30,-1,-1,32,-1,34,36,38,40,-1,-1,-1,-1,-1,-1,-1,-1,-1,-1,-1,-1,-1,-1],"split_conditions":[-3.616441E8,5.141602E-1,-3.107246E8,-8.508475E-2,-1.1087626E0,1.18229635E-1,-2.233149E8,-6.274734E8,3.4607668E0,4.561103E-2,3.3942565E-2,-3.434246E8,6.953897E-2,-8.640654E-1,-2.6697412E-2,3.1624485E-2,-1.0782943E-1,-2.2002362E-1,1.8322973E1,-1.4911382E-1,-0E0,6.098194E-1,-1.6659246E-1,3.178852E1,-1.0799999E0,1.8575004E0,8.097033E0,-8.690258E-2,1.1313566E-1,-2.009556E-2,1.3916911E-1,5.4677725E-2,-1.0453721E-1,-1.3038942E-1,1.0958298E-1,-3.4621835E-2,1.2709017E-1,-8.503764E-2,4.7505364E-2,-0E0,-9.9622965E-2],"split_indices":[5,12,5,15,3,17,5,5,13,0,15,5,0,3,17,0,0,3,2,0,0,6,0,13,10,4,13,0,0,0,0,0,0,0,0,0,0,0,0,0,0],"split_type":[0,0,0,0,0,0,0,0,0,0,0,0,0,0,0,0,0,0,0,0,0,0,0,0,0,0,0,0,0,0,0,0,0,0,0,0,0,0,0,0,0],"sum_hessian":[1.3645079E2,4.935126E1,8.709953E1,4.246507E1,6.8861933E0,1.5204924E1,7.189461E1,4.4602857E0,3.8004784E1,2.0274162E0,4.8587766E0,1.3409655E1,1.7952687E0,2.3589714E1,4.8304893E1,1.1674509E0,3.2928348E0,1.490012E1,2.3104662E1,3.7414098E0,1.1173669E0,4.7529993E0,8.656655E0,8.634887E0,1.4954827E1,2.0362854E1,2.794204E1,5.945898E0,8.954222E0,2.978727E0,2.0125935E1,1.4880269E0,3.2649724E0,6.202106E0,2.432781E0,2.0916018E0,1.2863225E1,4.8885617E0,1.5474294E1,8.152321E0,1.9789719E1],"tree_param":{"num_deleted":"0","num_feature":"19","num_nodes":"41","size_leaf_vector":"1"}},{"base_weights":[3.7055206E-3,1.18481256E-1,-8.468844E-1,1.1442816E0,2.6515115E-2,-1.0512471E0,2.268338E-2,1.3599584E-1,-0E0,1.9541858E-1,-1.2384272E0,-1.3974565E0,3.6630694E-2,-7.296418E-1,3.090471E-1,-2.3468348E-1,-1.4462511E-1,-1.4728747E-1,-1.0919244E-2,9.879525E-2,-7.702502E-2,9.1896765E-2,-1.1503571E-1,-2.7074171E-3,5.155858E-2,4.511185E-2,-8.8531636E-2],"categories":[],"categories_nodes":[],"categories_segments":[],"categories_sizes":[],"default_left":[0,0,0,0,0,0,0,0,0,0,0,0,0,0,0,0,0,0,0,0,0,0,0,0,0,0,0],"id":4,"left_children":[1,3,5,7,9,11,-1,-1,-1,13,15,17,19,21,23,25,-1,-1,-1,-1,-1,-1,-1,-1,-1,-1,-1],"loss_changes":[1.309656E1,1.0891345E1,4.134206E0,2.6581097E0,2.3951181E1,5.9689846E0,0E0,0E0,0E0,1.0659396E1,1.562643E0,1.0939598E-1,3.927078E0,8.728905E0,6.6013126E0,2.339531E0,0E0,0E0,0E0,0E0,0E0,0E0,0E0,0E0,0E0,0E0,0E0],"parents":[2147483647,0,0,1,1,2,2,3,3,4,4,5,5,9,9,10,10,11,11,12,12,13,13,14,14,15,15],"right_children":[2,4,6,8,10,12,-1,-1,-1,14,16,18,20,22,24,26,-1,-1,-1,-1,-1,-1,-1,-1,-1,-1,-1],"split_conditions":[-8.27385E7,-4.9236436E0,2.5243657E0,4.92958E0,3.473508E1,1.10024E2,2.268338E-2,1.3599584E-1,-0E0,-1.3173959E-1,3.554275E1,7.572613E-1,6.75708E7,-2.3185928E-1,1.6344E1,3.2519138E-1,-1.4462511E-1,-1.4728747E-1,-1.0919244E-2,9.879525E-2,-7.702502E-2,9.1896765E-2,-1.1503571E-1,-2.7074171E-3,5.155858E-2,4.511185E-2,-8.8531636E-2],"split_indices":[5,3,3,6,1,0,0,0,0,18,0,12,5,17,7,3,0,0,0,0,0,0,0,0,0,0,0],"split_type":[0,0,0,0,0,0,0,0,0,0,0,0,0,0,0,0,0,0,0,0,0,0,0,0,0,0,0],"sum_hessian":[1.3585158E2,1.2097602E2,1.4875561E1,8.564742E0,1.1241128E2,1.2905781E1,1.9697798E0,7.2087626E0,1.355979E0,1.0026413E2,1.2147144E1,9.922921E0,2.9828596E0,9.894061E0,9.037007E1,2.8615623E0,9.285583E0,8.872105E0,1.0508165E0,1.5502996E0,1.4325601E0,1.5291609E0,8.3649E0,3.380456E1,5.656551E1,1.168288E0,1.6932744E0],"tree_param":{"num_deleted":"0","num_feature":"19","num_nodes":"27","size_leaf_vector":"1"}},{"base_weights":[3.4499146E-2,2.1359865E-1,-5.187364E-1,3.5477883E-1,-5.586047E-1,-1.0028586E0,7.885742E-2,1.506352E-1,9.381444E-1,-1.0912774E0,9.5481955E-2,-1.1416299E0,-1.7979458E-1,7.742287E-1,-7.380546E-1,3.7357807E-1,-7.3960805E-1,-4.4169143E-2,1.0846431E0,-0E0,-1.2337502E0,-0E0,-1.2522088E0,3.770107E-2,-6.5321855E-2,1.0577943E0,-3.1997476E-2,1.6965577E-2,-1.076891E-1,-2.7848051E-3,7.0293084E-2,1.17247775E-2,-1.19004264E-1,1.2082515E-1,-0E0,-1.3815078E-1,-2.140509E-2,-1.3995409E-1,-0E0,-0E0,1.3297738E-1],"categories":[],"categories_nodes":[],"categories_segments":[],"categories_sizes":[],"default_left":[0,0,0,0,0,0,0,0,0,0,0,0,0,0,0,0,0,0,0,0,0,0,0,0,0,0,0,0,0,0,0,0,0,0,0,0,0,0,0,0,0],"id":5,"left_children":[1,3,5,7,9,11,13,15,17,19,-1,21,23,25,27,29,31,-1,33,-1,35,-1,37,-1,-1,39,-1,-1,-1,-1,-1,-1,-1,-1,-1,-1,-1,-1,-1,-1,-1],"loss_changes":[1.3465976E1,1.1475447E1,1.0073425E1,9.961298E0,1.3988129E1,1.2741966E0,9.2302685E0,1.3600062E1,5.3183556E0,2.49129E0,0E0,1.6035938E0,1.5469217E0,3.5108852E0,2.84329E0,7.699781E0,5.8924456E0,0E0,2.6856384E0,0E0,6.297493E-1,0E0,2.3794174E0,0E0,0E0,2.6683655E0,0E0,0E0,0E0,0E0,0E0,0E0,0E0,0E0,0E0,0E0,0E0,0E0,0E0,0E0,0E0],"parents":[2147483647,0,0,1,1,2,2,3,3,4,4,5,5,6,6,7,7,8,8,9,9,11,11,12,12,13,13,14,14,15,15,16,16,18,18,20,20,22,22,25,25],"right_children":[2,4,6,8,10,12,14,16,18,20,-1,22,24,26,28,30,32,-1,34,-1,36,-1,38,-1,-1,40,-1,-1,-1,-1,-1,-1,-1,-1,-1,-1,-1,-1,-1,-1,-1],"split_conditions":[-1.669549E8,3.4194138E1,1.6029856E1,2.7909E1,3.178852E1,5.712889E-1,9.24505E1,1.4498569E0,1.7420002E0,8.6137676E-1,9.5481955E-2,-2.7000008E0,6.5192213E0,3.5300026E0,-1.6209672E-1,3.4607668E0,7.4901956E-1,-4.4169143E-2,8.0513835E-2,-0E0,-1.905653E8,-0E0,2.7328577E0,3.770107E-2,-6.5321855E-2,9.3851334E-1,-3.1997476E-2,1.6965577E-2,-1.076891E-1,-2.7848051E-3,7.0293084E-2,1.17247775E-2,-1.19004264E-1,1.2082515E-1,-0E0,-1.3815078E-1,-2.140509E-2,-1.3995409E-1,-0E0,-0E0,1.3297738E-1],"split_indices":[5,1,13,0,13,12,0,4,4,6,0,10,13,10,18,13,6,0,15,0,5,0,4,0,0,8,0,0,0,0,0,0,0,0,0,0,0,0,0,0,0],"split_type":[0,0,0,0,0,0,0,0,0,0,0,0,0,0,0,0,0,0,0,0,0,0,0,0,0,0,0,0,0,0,0,0,0,0,0,0,0,0,0,0,0],"sum_hessian":[1.3532588E2,1.0337717E2,3.1948711E1,8.8402756E1,1.4974412E1,1.7737637E1,1.4211074E1,6.7053345E1,2.1349413E1,1.1526719E1,3.4476922E0,1.432745E1,3.4101877E0,8.035453E0,6.1756215E0,5.4537556E1,1.2515786E1,1.5281507E0,1.9821262E1,1.089404E0,1.0437316E1,1.5648382E0,1.2762611E1,1.1753479E0,2.23484E0,6.7709665E0,1.264486E0,1.4132689E0,4.762353E0,2.4307762E1,3.0229795E1,4.184785E0,8.331001E0,1.7618639E1,2.202623E0,8.378138E0,2.0591776E0,1.1232289E1,1.5303222E0,1.344718E0,5.4262486E0],"tree_param":{"num_deleted":"0","num_feature":"19","num_nodes":"41","size_leaf_vector":"1"}},{"base_weights":[8.614597E-3,3.8043466E-1,-2.1571967E-1,5.805513E-1,-6.581796E-1,-1.4459963E-1,-1.0839029E-1,3.722472E-2,8.433474E-1,-1.0450555E0,4.7660835E-2,8.904851E-1,-2.6618835E-1,9.929678E-2,-1.4347365E-1,-1.1681823E-1,1.0007007E0,-1.2821762E-1,-0E0,1.2608312E-1,-0E0,6.162454E-1,-4.0267834E-1,-5.7020318E-2,3.9432336E-2,4.3084394E-2,-9.414324E-2,-0E0,1.07104376E-1,-8.834004E-2,6.387893E-2,9.761198E-2,-7.096464E-2,-1.4391677E-2,-1.1371485E-1],"categories":[],"categories_nodes":[],"categories_segments":[],"categories_sizes":[],"default_left":[0,0,0,0,0,0,0,0,0,0,0,0,0,0,0,0,0,0,0,0,0,0,0,0,0,0,0,0,0,0,0,0,0,0,0],"id":6,"left_children":[1,3,5,7,9,-1,11,13,15,17,-1,19,21,-1,23,25,27,-1,-1,-1,29,31,33,-1,-1,-1,-1,-1,-1,-1,-1,-1,-1,-1,-1],"loss_changes":[1.1175303E1,1.0917296E1,9.911081E0,5.752406E0,4.419088E0,0E0,1.2061024E1,3.3092E0,4.8970795E0,2.0607343E0,0E0,3.9172277E0,8.294649E0,0E0,3.4766629E0,2.6891418E0,2.1202602E0,0E0,0E0,0E0,2.7525423E0,5.1071706E0,1.0546042E1,0E0,0E0,0E0,0E0,0E0,0E0,0E0,0E0,0E0,0E0,0E0,0E0],"parents":[2147483647,0,0,1,1,2,2,3,3,4,4,6,6,7,7,8,8,9,9,11,11,12,12,14,14,15,15,16,16,20,20,21,21,22,22],"right_children":[2,4,6,8,10,-1,12,14,16,18,-1,20,22,-1,24,26,28,-1,-1,-1,30,32,34,-1,-1,-1,-1,-1,-1,-1,-1,-1,-1,-1,-1],"split_conditions":[-3.434246E8,5.141602E-1,1.6344E1,-3.9066806E-2,1.0334868E0,-1.4459963E-1,1.9203087E1,-6.465947E8,1.0373397E0,2.6943E1,4.7660835E-2,7.500467E-1,-5.038605E0,9.929678E-2,1.1555946E0,9.9592966E-1,-5.774551E-2,-1.2821762E-1,-0E0,1.2608312E-1,6.431848E1,9.24505E1,3.6196E1,-5.7020318E-2,3.9432336E-2,4.3084394E-2,-9.414324E-2,-0E0,1.07104376E-1,-8.834004E-2,6.387893E-2,9.761198E-2,-7.096464E-2,-1.4391677E-2,-1.1371485E-1],"split_indices":[5,12,7,15,8,0,1,5,9,0,0,6,3,0,6,8,16,0,0,0,2,0,7,0,0,0,0,0,0,0,0,0,0,0,0],"split_type":[0,0,0,0,0,0,0,0,0,0,0,0,0,0,0,0,0,0,0,0,0,0,0,0,0,0,0,0,0,0,0,0,0,0,0],"sum_hessian":[1.3100595E2,4.987471E1,8.113124E1,4.2590885E1,7.2838235E0,5.135369E0,7.599587E1,1.4877063E1,2.7713823E1,5.8195033E0,1.4643204E0,9.301947E0,6.669393E1,2.0907295E0,1.2786333E1,3.4911249E0,2.4222698E1,4.783901E0,1.0356021E0,6.6029024E0,2.699044E0,7.9724298E0,5.87215E1,7.614146E0,5.1721873E0,2.0204396E0,1.4706855E0,1.3559955E0,2.2866703E1,1.2427859E0,1.4562582E0,6.774576E0,1.1978533E0,4.4810867E1,1.3910631E1],"tree_param":{"num_deleted":"0","num_feature":"19","num_nodes":"35","size_leaf_vector":"1"}},{"base_weights":[2.726341E-2,3.3911422E-1,-2.410747E-1,-6.010909E-1,4.3755656E-1,2.0358859E-1,-5.1037955E-1,5.5160474E-2,-1.3310318E-1,1.8591741E-2,6.776783E-1,-2.4515982E-1,8.6065143E-1,3.4919494E-1,-8.5097486E-1,3.982898E-1,-3.8823637E-1,8.5203E-1,-1.8819001E-1,3.7637046E-1,-1.0549426E0,1.1924943E0,-0E0,6.735269E-1,-5.0265723E-1,-0E0,-9.9244446E-1,-6.0418423E-2,6.3078806E-2,-1.0502944E-1,2.965919E-3,1.04650676E-1,-0E0,-9.803337E-2,4.595157E-2,-5.8397013E-3,9.9138714E-2,-1.3042517E-1,-0E0,2.1708194E-2,1.3236271E-1,-4.591644E-2,2.7415965E-2,9.794537E-2,-4.602502E-2,-0E0,-8.841881E-2,-1.05927706E-1,1.04713105E-1,2.4585372E-2,-1.0813999E-1],"categories":[],"categories_nodes":[],"categories_segments":[],"categories_sizes":[],"default_left":[0,0,0,0,0,0,0,0,0,0,0,0,0,0,0,0,0,0,0,0,0,0,0,0,0,0,0,0,0,0,0,0,0,0,0,0,0,0,0,0,0,0,0,0,0,0,0,0,0,0,0],"id":7,"left_children":[1,3,5,7,9,11,13,-1,-1,15,17,19,21,23,25,27,29,31,33,35,37,39,41,43,45,47,49,-1,-1,-1,-1,-1,-1,-1,-1,-1,-1,-1,-1,-1,-1,-1,-1,-1,-1,-1,-1,-1,-1,-1,-1],"loss_changes":[1.1252725E1,5.988903E0,8.778795E0,6.077279E0,5.4601774E0,8.437383E0,1.3811782E1,0E0,0E0,3.6919417E0,5.9260597E0,8.931999E0,3.6635952E0,4.056952E0,3.9462166E0,3.414374E0,3.5598755E0,4.5736694E0,3.979861E0,3.0914385E0,2.65763E0,4.2848587E-2,6.810375E-1,4.3093247E0,1.1416435E0,7.5122027E0,3.8101406E0,0E0,0E0,0E0,0E0,0E0,0E0,0E0,0E0,0E0,0E0,0E0,0E0,0E0,0E0,0E0,0E0,0E0,0E0,0E0,0E0,0E0,0E0,0E0,0E0],"parents":[2147483647,0,0,1,1,2,2,3,3,4,4,5,5,6,6,9,9,10,10,11,11,12,12,13,13,14,14,15,15,16,16,17,17,18,18,19,19,20,20,21,21,22,22,23,23,24,24,25,25,26,26],"right_children":[2,4,6,8,10,12,14,-1,-1,16,18,20,22,24,26,28,30,32,34,36,38,40,42,44,46,48,50,-1,-1,-1,-1,-1,-1,-1,-1,-1,-1,-1,-1,-1,-1,-1,-1,-1,-1,-1,-1,-1,-1,-1,-1],"split_conditions":[7.500467E-1,2.4062762E0,8.293573E0,-6.646419E8,-9.184836E-3,2.59245E1,-4.534895E0,5.5160474E-2,-1.3310318E-1,-3.901045E-2,6.1343636E-2,1.284857E0,1.4400005E0,-5.10273E7,-3.623624E8,1.8322973E1,-8.62248E-1,-1.891996E8,8.540924E-2,-1.7631887E-1,1.609006E0,9.918768E-1,1.0184582E0,5.046108E0,1.0610236E0,-1.21656336E-1,-1.3678849E-1,-6.0418423E-2,6.3078806E-2,-1.0502944E-1,2.965919E-3,1.04650676E-1,-0E0,-9.803337E-2,4.595157E-2,-5.8397013E-3,9.9138714E-2,-1.3042517E-1,-0E0,2.1708194E-2,1.3236271E-1,-4.591644E-2,2.7415965E-2,9.794537E-2,-4.602502E-2,-0E0,-8.841881E-2,-1.05927706E-1,1.04713105E-1,2.4585372E-2,-1.0813999E-1],"split_indices":[6,13,13,5,16,0,3,0,0,16,16,4,10,5,5,2,3,5,16,3,6,6,8,6,9,17,16,0,0,0,0,0,0,0,0,0,0,0,0,0,0,0,0,0,0,0,0,0,0,0,0],"split_type":[0,0,0,0,0,0,0,0,0,0,0,0,0,0,0,0,0,0,0,0,0,0,0,0,0,0,0,0,0,0,0,0,0,0,0,0,0,0,0,0,0,0,0,0,0,0,0,0,0,0,0],"sum_hessian":[1.3190822E2,6.1747517E1,7.0160706E1,4.8870497E0,5.6860466E1,2.5855963E1,4.430474E1,1.7239621E0,3.1630878E0,2.186685E1,3.4993618E1,1.5283708E1,1.0572256E1,1.2149437E1,3.2155304E1,1.195712E1,9.90973E0,2.9622293E1,5.371324E0,8.600421E0,6.683286E0,7.6041064E0,2.9681494E0,9.375956E0,2.7734816E0,4.7721205E0,2.7383183E1,1.5452358E0,1.0411884E1,3.712042E0,6.1976876E0,2.347467E1,6.1476235E0,2.5324936E0,2.8388305E0,5.0924964E0,3.5079246E0,5.589013E0,1.094273E0,1.6676791E0,5.936427E0,1.267395E0,1.7007545E0,7.8381166E0,1.5378392E0,1.0936428E0,1.6798389E0,2.3881826E0,2.383938E0,1.3403503E0,2.6042833E1],"tree_param":{"num_deleted":"0","num_feature":"19","num_nodes":"51","size_leaf_vector":"1"}},{"base_weights":[-5.34687E-2,2.8240517E-1,-3.489507E-1,-4.64103E-1,4.4625166E-1,2.3154378E-1,-5.008349E-1,3.3483002E-1,-9.8304033E-1,-4.9842083E-1,5.830352E-1,-5.9792554E-1,6.22385E-1,1.7085978E-1,-6.361583E-1,-1.0599152E-2,7.627685E-2,-1.2023628E-1,-0E0,4.2520747E-1,-1.2191112E-1,7.8686625E-1,1.1051038E-2,-1.0919937E-1,3.040346E-2,-3.9767034E-2,8.574035E-1,6.1720973E-1,-9.0501145E-2,-4.353003E-2,-9.7688895E-1,-0E0,6.760769E-2,-3.5522562E-3,9.408303E-2,-7.314514E-2,5.726826E-2,1.1996204E-1,-6.644117E-3,1.0702912E-1,-2.7748002E-2,-7.8345366E-2,3.1905808E-2,-1.0543138E-1,-0E0],"categories":[],"categories_nodes":[],"categories_segments":[],"categories_sizes":[],"default_left":[0,0,0,0,0,0,0,0,0,0,0,0,0,0,0,0,0,0,0,0,0,0,0,0,0,0,0,0,0,0,0,0,0,0,0,0,0,0,0,0,0,0,0,0,0],"id":8,"left_children":[1,3,5,7,9,11,13,15,17,19,21,23,25,27,29,-1,-1,-1,-1,31,-1,33,35,-1,-1,-1,37,39,-1,41,43,-1,-1,-1,-1,-1,-1,-1,-1,-1,-1,-1,-1,-1,-1],"loss_changes":[1.2867932E1,7.5150404E0,6.379121E0,5.092579E0,6.8083296E0,5.0580196E0,5.439991E0,1.2737653E0,1.8355055E0,5.185579E0,4.8036222E0,2.828269E0,3.1356726E0,5.01255E0,9.042528E0,0E0,0E0,0E0,0E0,4.0859252E-1,0E0,4.5753155E0,5.928454E0,0E0,0E0,0E0,3.6215124E0,3.8107097E0,0E0,5.5606856E0,2.6441708E0,0E0,0E0,0E0,0E0,0E0,0E0,0E0,0E0,0E0,0E0,0E0,0E0,0E0,0E0],"parents":[2147483647,0,0,1,1,2,2,3,3,4,4,5,5,6,6,7,7,8,8,9,9,10,10,11,11,12,12,13,13,14,14,19,19,21,21,22,22,26,26,27,27,29,29,30,30],"right_children":[2,4,6,8,10,12,14,16,18,20,22,24,26,28,30,-1,-1,-1,-1,32,-1,34,36,-1,-1,-1,38,40,-1,42,44,-1,-1,-1,-1,-1,-1,-1,-1,-1,-1,-1,-1,-1,-1],"split_conditions":[7.500467E-1,1.0373397E0,-3.623624E8,-2.8290114E-1,1.2946E1,-1.2978315E-1,-5.038605E0,-4.4128028E-1,1.0100994E0,1.0030011E1,2.6892334E-1,1.597185E0,-2.8290114E-1,8.98315E1,8.393274E0,-1.0599152E-2,7.627685E-2,-1.2023628E-1,-0E0,9.970588E-1,-1.2191112E-1,-6.495514E-2,1.0641849E0,-1.0919937E-1,3.040346E-2,-3.9767034E-2,5.141602E-1,1.1201551E0,-9.0501145E-2,5.7393413E0,1.8364114E-1,-0E0,6.760769E-2,-3.5522562E-3,9.408303E-2,-7.314514E-2,5.726826E-2,1.1996204E-1,-6.644117E-3,1.0702912E-1,-2.7748002E-2,-7.8345366E-2,3.1905808E-2,-1.0543138E-1,-0E0],"split_indices":[6,9,5,12,0,18,3,12,8,1,12,6,12,0,13,0,0,0,0,8,0,17,9,0,0,0,12,9,0,13,16,0,0,0,0,0,0,0,0,0,0,0,0,0,0],"split_type":[0,0,0,0,0,0,0,0,0,0,0,0,0,0,0,0,0,0,0,0,0,0,0,0,0,0,0,0,0,0,0,0,0,0,0,0,0,0,0,0,0,0,0,0,0],"sum_hessian":[1.27330444E2,5.8820915E1,6.850953E1,9.707582E0,4.9113335E1,1.3416355E1,5.509317E1,3.5828516E0,6.1247306E0,5.41516E0,4.3698174E1,3.7175624E0,9.698793E0,8.574604E0,4.6518566E1,1.5599096E0,2.022942E0,5.032208E0,1.0925229E0,2.2490387E0,3.1661212E0,3.129583E1,1.2402345E1,2.6239152E0,1.0936472E0,1.2881665E0,8.410626E0,6.6901126E0,1.8844913E0,1.7929398E1,2.858917E1,1.0699385E0,1.1791003E0,4.5443344E0,2.6751495E1,4.827516E0,7.574828E0,6.3143353E0,2.0962915E0,4.681784E0,2.0083282E0,5.9683003E0,1.1961098E1,2.6781658E1,1.8075112E0],"tree_param":{"num_deleted":"0","num_feature":"19","num_nodes":"45","size_leaf_vector":"1"}},{"base_weights":[4.6546493E-2,1.0536125E0,-2.8564403E-2,1.2127396E-1,-0E0,8.290384E-2,-4.8578694E-1,5.521515E-4,9.897112E-1,-1.119085E0,-1.4327897E-1,1.0125257E-1,-4.980063E-2,4.183296E-3,1.188904E-1,-1.3133326E-1,-0E0,2.1853496E-1,-7.969942E-1,-1.2271432E-1,2.003632E-3,-6.144361E-2,5.772061E-2,-0E0,-1.0264931E-1],"categories":[],"categories_nodes":[],"categories_segments":[],"categories_sizes":[],"default_left":[0,0,0,0,0,0,0,0,0,0,0,0,0,0,0,0,0,0,0,0,0,0,0,0,0],"id":9,"left_children":[1,3,5,-1,-1,7,9,11,13,15,17,-1,19,-1,-1,-1,-1,21,23,-1,-1,-1,-1,-1,-1],"loss_changes":[1.0190467E1,1.8476944E0,6.317128E0,0E0,0E0,6.6595373E0,4.4989734E0,5.08439E0,7.454982E-1,1.6932659E0,4.5998497E0,0E0,7.66569E0,0E0,0E0,0E0,0E0,3.786798E0,1.7739677E0,0E0,0E0,0E0,0E0,0E0,0E0],"parents":[2147483647,0,0,1,1,2,2,5,5,6,6,7,7,8,8,9,9,10,10,12,12,17,17,18,18],"right_children":[2,4,6,-1,-1,8,10,12,14,16,18,-1,20,-1,-1,-1,-1,22,24,-1,-1,-1,-1,-1,-1],"split_conditions":[-6.44503E8,5.354838E-2,5.4182477E-2,1.2127396E-1,-0E0,8.76128E-2,6.621079E-2,1.0262345E1,-2.224376E-2,1.8346285E1,-1.759125E8,1.0125257E-1,1.3106097E1,4.183296E-3,1.188904E-1,-1.3133326E-1,-0E0,1.598E1,1.8497E1,-1.2271432E-1,2.003632E-3,-6.144361E-2,5.772061E-2,-0E0,-1.0264931E-1],"split_indices":[5,17,16,0,0,18,17,1,14,13,5,0,1,0,0,0,0,7,0,0,0,0,0,0,0],"split_type":[0,0,0,0,0,0,0,0,0,0,0,0,0,0,0,0,0,0,0,0,0,0,0,0,0],"sum_hessian":[1.265468E2,8.341097E0,1.18205696E2,7.3068786E0,1.0342182E0,9.481538E1,2.3390326E1,8.8344376E1,6.4709983E0,6.901778E0,1.6488548E1,3.7523427E0,8.459203E1,1.7697263E0,4.701272E0,5.718913E0,1.1828653E0,1.055016E1,5.938388E0,4.209774E0,8.0382256E1,2.5412602E0,8.0089E0,1.0721065E0,4.866281E0],"tree_param":{"num_deleted":"0","num_feature":"19","num_nodes":"25","size_leaf_vector":"1"}},{"base_weights":[1.2535315E-2,4.0370858E-1,-1.9073159E-1,5.872318E-1,-6.014878E-1,-1.2551594E-1,-8.316286E-2,1.0190544E0,1.957676E-1,-1.0574832E-1,4.137921E-2,6.188245E-1,-3.8935766E-1,-0E0,1.1330687E0,-4.9719116E-1,6.170191E-1,4.899611E-2,-2.6809067E-2,-3.1053922E-1,8.1863296E-1,8.676791E-1,-4.8428208E-1,4.1817822E-3,1.1980774E-1,2.040566E-2,-6.9121145E-2,1.1352234E-1,-2.2969289E-2,-7.294152E-2,1.7576342E-2,-1.7716803E-4,9.4118245E-2,-0E0,1.1394464E-1,2.3956725E-2,-6.745596E-2],"categories":[],"categories_nodes":[],"categories_segments":[],"categories_sizes":[],"default_left":[0,0,0,0,0,0,0,0,0,0,0,0,0,0,0,0,0,0,0,0,0,0,0,0,0,0,0,0,0,0,0,0,0,0,0,0,0],"id":10,"left_children":[1,3,5,7,9,-1,11,13,15,-1,17,19,21,-1,23,25,27,-1,-1,29,31,33,35,-1,-1,-1,-1,-1,-1,-1,-1,-1,-1,-1,-1,-1,-1],"loss_changes":[1.0579322E1,8.807978E0,9.059053E0,5.9065657E0,2.6492798E0,0E0,1.7212315E1,1.7758808E0,6.985988E0,0E0,7.249021E-1,4.9709435E0,6.9653025E0,0E0,4.6318626E-1,1.5653355E0,7.2940574E0,0E0,0E0,1.3287585E0,2.5322046E0,7.217469E-1,7.748581E0,0E0,0E0,0E0,0E0,0E0,0E0,0E0,0E0,0E0,0E0,0E0,0E0,0E0,0E0],"parents":[2147483647,0,0,1,1,2,2,3,3,4,4,6,6,7,7,8,8,10,10,11,11,12,12,14,14,15,15,16,16,19,19,20,20,21,21,22,22],"right_children":[2,4,6,8,10,-1,12,14,16,-1,18,20,22,-1,24,26,28,-1,-1,30,32,34,36,-1,-1,-1,-1,-1,-1,-1,-1,-1,-1,-1,-1,-1,-1],"split_conditions":[-3.616441E8,5.141602E-1,1.6344E1,9.929541E-1,9.8625195E-1,-1.2551594E-1,7.500467E-1,-1.3978913E-1,-3.0999947E-1,-1.0574832E-1,6.0369614E1,3.1651267E-1,1.1248571E0,-0E0,1.0320734E0,1.0336134E0,3.0329289E-2,4.899611E-2,-2.6809067E-2,1.4372594E-2,-1.1299992E0,2.1854E1,-4.534895E0,4.1817822E-3,1.1980774E-1,2.040566E-2,-6.9121145E-2,1.1352234E-1,-2.2969289E-2,-7.294152E-2,1.7576342E-2,-1.7716803E-4,9.4118245E-2,-0E0,1.1394464E-1,2.3956725E-2,-6.745596E-2],"split_indices":[5,12,7,8,8,0,6,18,10,0,2,6,4,0,9,9,15,0,0,16,10,0,3,0,0,0,0,0,0,0,0,0,0,0,0,0,0],"split_type":[0,0,0,0,0,0,0,0,0,0,0,0,0,0,0,0,0,0,0,0,0,0,0,0,0,0,0,0,0,0,0,0,0,0,0,0,0],"sum_hessian":[1.2974452E2,4.4869656E1,8.487486E1,3.8714577E1,6.155077E0,6.3842263E0,7.849064E1,1.7038755E1,2.1675821E1,3.6786041E0,2.4764729E0,2.3032341E1,5.5458298E1,2.0643783E0,1.4974378E1,7.678114E0,1.3997707E1,1.4324913E0,1.0439816E0,3.5347366E0,1.9497604E1,2.9524455E0,5.250585E1,1.3667278E0,1.360765E1,1.0942795E0,6.583834E0,8.838283E0,5.1594243E0,2.1828167E0,1.3519197E0,2.1318104E0,1.7365795E1,1.104641E0,1.8478044E0,1.0328319E1,4.2177532E1],"tree_param":{"num_deleted":"0","num_feature":"19","num_nodes":"37","size_leaf_vector":"1"}},{"base_weights":[1.2802807E-2,1.5684022E-1,-5.0021774E-1,-1.9201245E-2,5.9629655E-1,2.694407E-1,-8.605561E-1,2.2147283E-1,-6.585569E-1,9.118334E-1,-9.383786E-2,8.488392E-2,-2.3972571E-1,-1.05905E0,3.4140576E-2,3.8870794E-1,-4.6041098E-1,-8.496363E-1,1.2711477E-1,1.071827E0,-5.714933E-2,-7.78802E-1,2.9939476E-1,2.2890424E-2,-7.066064E-2,-0E0,-1.1470436E0,1.0544381E-1,2.1984847E-2,-8.315786E-2,1.9118717E-2,-9.883416E-2,1.0778892E-2,7.93275E-2,-2.4427582E-2,-4.4695074E-3,1.2085505E-1,-9.704507E-2,-0E0,-4.6074864E-2,8.2706295E-2,-0E0,-1.21526025E-1],"categories":[],"categories_nodes":[],"categories_segments":[],"categories_sizes":[],"default_left":[0,0,0,0,0,0,0,0,0,0,0,0,0,0,0,0,0,0,0,0,0,0,0,0,0,0,0,0,0,0,0,0,0,0,0,0,0,0,0,0,0,0,0],"id":11,"left_children":[1,3,5,7,9,11,13,15,17,19,21,-1,23,25,-1,27,29,31,33,35,-1,37,39,-1,-1,-1,41,-1,-1,-1,-1,-1,-1,-1,-1,-1,-1,-1,-1,-1,-1,-1,-1],"loss_changes":[8.63371E0,7.551448E0,7.5627127E0,1.0686524E1,6.516288E0,2.988578E0,5.005069E0,5.7211733E0,3.3464708E0,5.5063877E0,2.92012E0,0E0,1.4499004E0,1.7029133E0,0E0,3.6740031E0,2.7774744E0,2.6793222E0,1.4844279E0,3.4316502E0,0E0,2.3278618E-1,2.9831333E0,0E0,0E0,0E0,8.7709427E-1,0E0,0E0,0E0,0E0,0E0,0E0,0E0,0E0,0E0,0E0,0E0,0E0,0E0,0E0,0E0,0E0],"parents":[2147483647,0,0,1,1,2,2,3,3,4,4,5,5,6,6,7,7,8,8,9,9,10,10,12,12,13,13,15,15,16,16,17,17,18,18,19,19,21,21,22,22,26,26],"right_children":[2,4,6,8,10,12,14,16,18,20,22,-1,24,26,-1,28,30,32,34,36,-1,38,40,-1,-1,-1,42,-1,-1,-1,-1,-1,-1,-1,-1,-1,-1,-1,-1,-1,-1,-1,-1],"split_conditions":[3.3636E1,1.772929E0,-5.038605E0,1.9513906E1,9.8000145E-1,-1.009984E8,6.677136E0,4.6576753E-1,1.0754573E0,3.473508E1,1.0133929E0,8.488392E-2,-4.051567E-2,7.614938E0,3.4140576E-2,-6.44503E8,2.590865E-2,7.2819054E-2,1.2674288E0,6.024457E0,-5.714933E-2,1.0759076E0,-1.4802373E-2,2.2890424E-2,-7.066064E-2,-0E0,-1.3671182E-1,1.0544381E-1,2.1984847E-2,-8.315786E-2,1.9118717E-2,-9.883416E-2,1.0778892E-2,7.93275E-2,-2.4427582E-2,-4.4695074E-3,1.2085505E-1,-9.704507E-2,-0E0,-4.6074864E-2,8.2706295E-2,-0E0,-1.21526025E-1],"split_indices":[7,4,3,1,10,5,6,12,9,1,8,0,14,13,0,5,14,18,4,13,0,9,14,0,0,0,17,0,0,0,0,0,0,0,0,0,0,0,0,0,0,0,0],"split_type":[0,0,0,0,0,0,0,0,0,0,0,0,0,0,0,0,0,0,0,0,0,0,0,0,0,0,0,0,0,0,0,0,0,0,0,0,0,0,0,0,0,0,0],"sum_hessian":[1.171006E2,9.273336E1,2.4367237E1,6.608069E1,2.6652674E1,7.408294E0,1.6958942E1,4.7915363E1,1.8165325E1,1.8566929E1,8.085744E0,3.6124458E0,3.7958484E0,1.5014338E1,1.9446061E0,3.9412483E1,8.502879E0,1.5058101E1,3.1072242E0,1.7313923E1,1.2530063E0,3.0551093E0,5.0306344E0,1.614289E0,2.181559E0,1.0684936E0,1.3945844E1,6.313993E0,3.309849E1,5.730031E0,2.7728477E0,1.3580581E1,1.4775195E0,1.1875172E0,1.9197071E0,1.5633384E0,1.5750586E1,1.8587962E0,1.1963129E0,1.7249614E0,3.305673E0,1.0369333E0,1.2908911E1],"tree_param":{"num_deleted":"0","num_feature":"19","num_nodes":"43","size_leaf_vector":"1"}},{"base_weights":[3.5353457E-3,3.2425615E-1,-1.7123668E-1,6.3131094E-1,-2.5552198E-2,-5.3493494E-1,8.150204E-2,-0E0,8.0130553E-1,-7.362244E-1,7.354376E-1,-8.445836E-1,2.1319832E-1,4.0055093E-1,-5.166233E-1,5.9882313E-1,-5.865638E-1,8.6432517E-1,-0E0,8.0835305E-2,-1.0820618E0,1.21508315E-1,2.1673348E-2,4.5893104E-3,-9.2717147E-1,8.017431E-1,-5.7949555E-1,5.4935974E-1,-8.593539E-2,3.4968147E-1,-1.0156958E0,-0E0,9.593763E-2,-8.385712E-2,-0E0,1.400954E-2,1.0062184E-1,3.303233E-2,-1.4118528E-1,6.726333E-2,-5.8699902E-2,-1.00247316E-1,9.18766E-3,1.10910095E-1,-1.1126994E-2,-9.646015E-2,8.257678E-3,-1.3322979E-3,9.032849E-2,-1.5844208E-3,9.220179E-2,-1.1714671E-1,-0E0],"categories":[],"categories_nodes":[],"categories_segments":[],"categories_sizes":[],"default_left":[0,0,0,0,0,0,0,0,0,0,0,0,0,0,0,0,0,0,0,0,0,0,0,0,0,0,0,0,0,0,0,0,0,0,0,0,0,0,0,0,0,0,0,0,0,0,0,0,0,0,0,0,0],"id":12,"left_children":[1,3,5,7,9,11,13,15,17,19,21,23,25,27,29,31,33,35,-1,-1,37,-1,39,-1,41,43,45,47,-1,49,51,-1,-1,-1,-1,-1,-1,-1,-1,-1,-1,-1,-1,-1,-1,-1,-1,-1,-1,-1,-1,-1,-1],"loss_changes":[7.067675E0,5.1523075E0,7.599619E0,2.4529915E0,1.2025873E1,8.287513E0,9.137136E0,2.6628714E0,1.0583305E0,7.3253846E0,2.9208522E0,2.2822533E0,5.321225E0,6.283708E0,7.7250752E0,1.101841E0,5.8216417E-1,1.1265297E0,0E0,0E0,5.8278933E0,0E0,2.6655972E0,0E0,2.3083134E0,2.479796E0,1.6814439E0,6.3174686E0,0E0,1.7913032E0,1.6793528E0,0E0,0E0,0E0,0E0,0E0,0E0,0E0,0E0,0E0,0E0,0E0,0E0,0E0,0E0,0E0,0E0,0E0,0E0,0E0,0E0,0E0,0E0],"parents":[2147483647,0,0,1,1,2,2,3,3,4,4,5,5,6,6,7,7,8,8,9,9,10,10,11,11,12,12,13,13,14,14,15,15,16,16,17,17,20,20,22,22,24,24,25,25,26,26,27,27,29,29,30,30],"right_children":[2,4,6,8,10,12,14,16,18,20,22,24,26,28,30,32,34,36,-1,-1,38,-1,40,-1,42,44,46,48,-1,50,52,-1,-1,-1,-1,-1,-1,-1,-1,-1,-1,-1,-1,-1,-1,-1,-1,-1,-1,-1,-1,-1,-1],"split_conditions":[-3.60674E8,-7.180887E-1,-7.1061605E-1,-7.198224E-2,-1.3319746E-1,3.178852E1,-1.659137E8,-9.51183E-2,6.639674E-1,9.668E0,1.3756406E-1,2.3697477E1,-8.27385E7,3.6196E1,2.16225E1,-3.457563E-1,2.7822092E1,-2.8644595E-1,-0E0,8.0835305E-2,-6.44503E8,1.21508315E-1,-6.535522E8,4.5893104E-3,-8.17702E7,3.6799984E0,1.075445E2,2.1737E1,-8.593539E-2,2.4482515E0,6.1843675E-1,-0E0,9.593763E-2,-8.385712E-2,-0E0,1.400954E-2,1.0062184E-1,3.303233E-2,-1.4118528E-1,6.726333E-2,-5.8699902E-2,-1.00247316E-1,9.18766E-3,1.10910095E-1,-1.1126994E-2,-9.646015E-2,8.257678E-3,-1.3322979E-3,9.032849E-2,-1.5844208E-3,9.220179E-2,-1.1714671E-1,-0E0],"split_indices":[5,3,3,15,3,13,5,15,12,7,3,2,5,7,0,12,2,12,0,0,5,0,5,0,5,10,0,0,0,3,12,0,0,0,0,0,0,0,0,0,0,0,0,0,0,0,0,0,0,0,0,0,0],"split_type":[0,0,0,0,0,0,0,0,0,0,0,0,0,0,0,0,0,0,0,0,0,0,0,0,0,0,0,0,0,0,0,0,0,0,0,0,0,0,0,0,0,0,0,0,0,0,0,0,0,0,0,0,0],"sum_hessian":[1.2273357E2,4.3998436E1,7.873513E1,2.376373E1,2.0234707E1,3.2634674E1,4.610046E1,5.572259E0,1.819147E1,1.0819856E1,9.414851E0,2.3462904E1,9.171769E0,3.082449E1,1.527597E1,2.9624155E0,2.6098437E0,1.6911585E1,1.2798846E0,1.4702564E0,9.349599E0,4.79187E0,4.6229806E0,1.5152615E0,2.1947643E1,5.6191273E0,3.5526419E0,2.8427687E1,2.3968031E0,5.3268857E0,9.949085E0,1.2215284E0,1.740887E0,1.5940732E0,1.0157706E0,3.6734135E0,1.3238172E1,1.4825606E0,7.8670382E0,2.5800543E0,2.0429265E0,2.0909475E1,1.038168E0,4.4529486E0,1.1661788E0,2.4347112E0,1.1179307E0,1.080274E1,1.7624947E1,3.3110015E0,2.0158842E0,8.454577E0,1.4945081E0],"tree_param":{"num_deleted":"0","num_feature":"19","num_nodes":"53","size_leaf_vector":"1"}},{"base_weights":[-1.603037E-2,8.38663E-1,-6.574532E-2,1.02129474E-1,-0E0,-1.2769999E-1,-1.2340017E-2,2.1097468E-1,-1.9029906E-1,-4.4931293E-1,4.7896913E-1,3.0591258E-1,-3.0905277E-1,-1.0832417E-3,-8.835712E-2,-1.931708E-3,7.198253E-2,7.632311E-2,-1.50086805E-2,-8.335636E-3,-8.07478E-2],"categories":[],"categories_nodes":[],"categories_segments":[],"categories_sizes":[],"default_left":[0,0,0,0,0,0,0,0,0,0,0,0,0,0,0,0,0,0,0,0,0],"id":13,"left_children":[1,3,5,-1,-1,-1,7,9,11,13,15,17,19,-1,-1,-1,-1,-1,-1,-1,-1],"loss_changes":[4.7222815E0,9.7031975E-1,6.7059026E0,0E0,0E0,0E0,4.420067E0,8.762898E0,3.8233097E0,2.189732E0,4.6033707E0,2.9034822E0,5.3759823E0,0E0,0E0,0E0,0E0,0E0,0E0,0E0,0E0],"parents":[2147483647,0,0,1,1,2,2,6,6,7,7,8,8,9,9,10,10,11,11,12,12],"right_children":[2,4,6,-1,-1,-1,8,10,12,14,16,18,20,-1,-1,-1,-1,-1,-1,-1,-1],"split_conditions":[-6.600295E8,4.3196988E-1,2.423793E0,1.02129474E-1,-0E0,-1.2769999E-1,7.500467E-1,-3.724672E-2,-4.534895E0,-5.4124493E-2,1.41095E1,-1.009984E8,3.36762E1,-1.0832417E-3,-8.835712E-2,-1.931708E-3,7.198253E-2,7.632311E-2,-1.50086805E-2,-8.335636E-3,-8.07478E-2],"split_indices":[5,12,13,0,0,0,6,17,3,12,0,5,1,0,0,0,0,0,0,0,0],"split_type":[0,0,0,0,0,0,0,0,0,0,0,0,0,0,0,0,0,0,0,0,0],"sum_hessian":[1.1793337E2,5.0575647E0,1.1287581E2,4.0150776E0,1.042487E0,3.4037392E0,1.0947207E2,4.7220955E1,6.2251114E1,1.2898705E1,3.432225E1,1.0903689E1,5.1347427E1,7.501053E0,5.397651E0,1.080748E1,2.3514772E1,5.6550345E0,5.248655E0,3.6837227E1,1.4510198E1],"tree_param":{"num_deleted":"0","num_feature":"19","num_nodes":"21","size_leaf_vector":"1"}},{"base_weights":[-5.9655212E-2,8.5867435E-1,-1.2312532E-1,-0E0,1.0566282E-1,7.428899E-1,-1.8574375E-1,1.0469321E-1,-3.0061653E-2,-9.1022706E-1,-8.108235E-2,-0E0,-1.1569163E0,4.318959E-1,-1.7855221E-1,-8.559088E-2,7.461446E-2,-1.2583475E-1,-1.5318383E-2,-6.693079E-2,6.348755E-2,-4.7587898E-2,4.3357457E-3],"categories":[],"categories_nodes":[],"categories_segments":[],"categories_sizes":[],"default_left":[0,0,0,0,0,0,0,0,0,0,0,0,0,0,0,0,0,0,0,0,0,0,0],"id":14,"left_children":[1,3,5,-1,-1,7,9,-1,-1,11,13,15,17,19,21,-1,-1,-1,-1,-1,-1,-1,-1],"loss_changes":[6.524802E0,1.4332771E0,5.8406014E0,0E0,0E0,2.9401612E0,7.3313303E0,0E0,0E0,2.406026E0,4.587701E0,3.19594E0,6.921291E-2,3.6000516E0,5.4798555E0,0E0,0E0,0E0,0E0,0E0,0E0,0E0,0E0],"parents":[2147483647,0,0,1,1,2,2,5,5,6,6,9,9,10,10,11,11,12,12,13,13,14,14],"right_children":[2,4,6,-1,-1,8,10,-1,-1,12,14,16,18,20,22,-1,-1,-1,-1,-1,-1,-1,-1],"split_conditions":[-6.44503E8,1.042091E0,1.0262345E1,-0E0,1.0566282E-1,-4.190298E8,1.43345E1,1.0469321E-1,-3.0061653E-2,2.6067474E0,1.756E1,2.423793E0,1.39805E1,2.1951566E0,1.9075004E0,-8.559088E-2,7.461446E-2,-1.2583475E-1,-1.5318383E-2,-6.693079E-2,6.348755E-2,-4.7587898E-2,4.3357457E-3],"split_indices":[5,9,1,0,0,5,0,0,0,13,0,13,0,13,4,0,0,0,0,0,0,0,0],"split_type":[0,0,0,0,0,0,0,0,0,0,0,0,0,0,0,0,0,0,0,0,0,0,0],"sum_hessian":[1.1543957E2,6.1435733E0,1.09296E2,1.1421319E0,5.001441E0,6.0989304E0,1.0319707E2,5.091354E0,1.0075765E0,1.145178E1,9.1745285E1,2.9464254E0,8.505355E0,1.3282002E1,7.846329E1,1.5141462E0,1.4322791E0,7.041931E0,1.4634237E0,1.32623E0,1.1955772E1,3.400723E1,4.445606E1],"tree_param":{"num_deleted":"0","num_feature":"19","num_nodes":"23","size_leaf_vector":"1"}},{"base_weights":[7.49932E-2,1.99748E-1,-3.158489E-1,5.369117E-2,5.4500425E-1,-7.2998667E-1,2.0055334E-1,-5.344139E-1,1.9947223E-1,6.561836E-1,-5.9587307E-2,-0E0,-1.0449553E0,4.4784954E-1,-6.8612285E-2,-9.761558E-1,6.9937944E-2,5.401151E-1,-8.836009E-2,-5.130928E-2,8.901367E-1,9.2445046E-2,-7.61307E-2,-1.215886E-1,-0E0,-0E0,1.1379452E-1,4.4917278E-2,-1.347885E-1,9.038546E-2,1.5115464E-2,-6.868511E-2,1.974116E-2,3.8059127E-2,-6.393987E-2,1.1130575E-1,-0E0,4.74299E-2,-4.6492506E-2],"categories":[],"categories_nodes":[],"categories_segments":[],"categories_sizes":[],"default_left":[0,0,0,0,0,0,0,0,0,0,0,0,0,0,0,0,0,0,0,0,0,0,0,0,0,0,0,0,0,0,0,0,0,0,0,0,0,0,0],"id":15,"left_children":[1,3,5,7,9,11,13,15,17,19,-1,21,23,25,-1,27,-1,29,31,33,35,-1,-1,-1,-1,37,-1,-1,-1,-1,-1,-1,-1,-1,-1,-1,-1,-1,-1],"loss_changes":[5.8228188E0,4.31211E0,6.460747E0,5.665969E0,3.7483654E0,3.4177818E0,3.0028393E0,7.8296394E0,5.660166E0,4.5661974E0,0E0,5.0755377E0,1.8967628E0,3.4125996E0,0E0,6.4510927E0,0E0,3.028079E0,5.4840794E0,2.0419176E0,3.4710817E0,0E0,0E0,0E0,0E0,1.9254363E0,0E0,0E0,0E0,0E0,0E0,0E0,0E0,0E0,0E0,0E0,0E0,0E0,0E0],"parents":[2147483647,0,0,1,1,2,2,3,3,4,4,5,5,6,6,7,7,8,8,9,9,11,11,12,12,13,13,15,15,17,17,18,18,19,19,20,20,25,25],"right_children":[2,4,6,8,10,12,14,16,18,20,-1,22,24,26,-1,28,-1,30,32,34,36,-1,-1,-1,-1,38,-1,-1,-1,-1,-1,-1,-1,-1,-1,-1,-1,-1,-1],"split_conditions":[-1.659137E8,-1.5604784E-1,1.6029856E1,3.4607668E0,3.6196E1,6.7628407E0,6.75708E7,1.6228E1,-3.616441E8,4.8235294E1,-5.9587307E-2,-1.446621E8,4.26E0,-4.0587764E0,-6.8612285E-2,9.668E0,6.9937944E-2,1.737E1,-3.107246E8,-4.0121626E-2,1.0793535E0,9.2445046E-2,-7.61307E-2,-1.215886E-1,-0E0,-1.2439936E-1,1.1379452E-1,4.4917278E-2,-1.347885E-1,9.038546E-2,1.5115464E-2,-6.868511E-2,1.974116E-2,3.8059127E-2,-6.393987E-2,1.1130575E-1,-0E0,4.74299E-2,-4.6492506E-2],"split_indices":[5,3,13,13,7,13,5,7,5,2,0,5,10,3,0,7,0,0,5,16,9,0,0,0,0,18,0,0,0,0,0,0,0,0,0,0,0,0,0],"split_type":[0,0,0,0,0,0,0,0,0,0,0,0,0,0,0,0,0,0,0,0,0,0,0,0,0,0,0,0,0,0,0,0,0,0,0,0,0,0,0],"sum_hessian":[1.18315994E2,9.102841E1,2.7287584E1,6.57973E1,2.5231108E1,1.5451013E1,1.1836573E1,1.1859289E1,5.3938015E1,2.3777111E1,1.4539956E0,5.2926154E0,1.0158398E1,1.0083168E1,1.7534049E0,9.184855E0,2.6744337E0,2.5096968E1,2.8841047E1,5.571613E0,1.8205498E1,2.0864022E0,3.206213E0,8.524602E0,1.6337957E0,6.731127E0,3.3520408E0,1.5785993E0,7.6062565E0,1.1620612E1,1.3476356E1,9.432577E0,1.940847E1,2.9256217E0,2.6459913E0,1.4084734E1,4.1207647E0,3.3339255E0,3.3972013E0],"tree_param":{"num_deleted":"0","num_feature":"19","num_nodes":"39","size_leaf_vector":"1"}},{"base_weights":[5.68776E-3,1.3639215E-1,-4.1009387E-1,-2.0436095E-1,3.0757996E-1,6.4235264E-1,-5.6499535E-1,7.925119E-2,-3.4772176E-1,-6.952093E-1,3.8566545E-1,8.553415E-2,-0E0,-7.624521E-1,5.940148E-1,-5.3136307E-1,6.659564E-1,-0E0,-8.744987E-2,4.5761478E-1,-3.6468306E-1,-8.7190497E-1,1.2768837E-2,7.194312E-2,-0E0,4.232564E-2,-6.460683E-2,-0E0,1.0438205E-1,7.536123E-4,6.0067542E-2,-8.405819E-2,4.2887587E-2,-0E0,-9.5214345E-2],"categories":[],"categories_nodes":[],"categories_segments":[],"categories_sizes":[],"default_left":[0,0,0,0,0,0,0,0,0,0,0,0,0,0,0,0,0,0,0,0,0,0,0,0,0,0,0,0,0,0,0,0,0,0,0],"id":16,"left_children":[1,3,5,7,9,11,13,-1,15,17,19,-1,-1,21,23,25,27,-1,-1,29,31,33,-1,-1,-1,-1,-1,-1,-1,-1,-1,-1,-1,-1,-1],"loss_changes":[5.975849E0,5.157955E0,4.5614004E0,4.1312847E0,4.7273636E0,2.3676884E-1,5.9386225E0,0E0,5.141716E0,2.9890013E-1,3.2244148E0,0E0,0E0,2.5268173E0,7.2614074E-2,2.9093738E0,1.51029E0,0E0,0E0,3.036047E0,2.3898768E0,1.2888393E0,0E0,0E0,0E0,0E0,0E0,0E0,0E0,0E0,0E0,0E0,0E0,0E0,0E0],"parents":[2147483647,0,0,1,1,2,2,3,3,4,4,5,5,6,6,8,8,9,9,10,10,13,13,14,14,15,15,16,16,19,19,20,20,21,21],"right_children":[2,4,6,8,10,12,14,-1,16,18,20,-1,-1,22,24,26,28,-1,-1,30,32,34,-1,-1,-1,-1,-1,-1,-1,-1,-1,-1,-1,-1,-1],"split_conditions":[-1.659137E8,-4.616349E-2,-1.6232044E-1,-6.677515E8,2.423793E0,-1.23734415E-1,2.5243657E0,7.925119E-2,-1.800044E8,-6.465947E8,3.4630142E1,8.553415E-2,-0E0,6.0331304E-2,4.935834E-2,-2.0978367E-1,1.0475651E0,-0E0,-8.744987E-2,1.41095E1,4.77385E1,-8.236407E0,1.2768837E-2,7.194312E-2,-0E0,4.232564E-2,-6.460683E-2,-0E0,1.0438205E-1,7.536123E-4,6.0067542E-2,-8.405819E-2,4.2887587E-2,-0E0,-9.5214345E-2],"split_indices":[5,17,17,5,13,15,3,0,5,5,1,0,0,14,16,17,9,0,0,0,0,3,0,0,0,0,0,0,0,0,0,0,0,0,0],"split_type":[0,0,0,0,0,0,0,0,0,0,0,0,0,0,0,0,0,0,0,0,0,0,0,0,0,0,0,0,0,0,0,0,0,0,0],"sum_hessian":[1.1045136E2,8.5460625E1,2.4990736E1,2.7535686E1,5.792494E1,2.3884168E0,2.260232E1,2.4542222E0,2.5081463E1,3.151127E0,5.477381E1,1.2346451E0,1.1537716E0,1.9973118E1,2.6292005E0,2.2054972E1,3.0264928E0,1.1367925E0,2.0143344E0,5.0945267E1,3.8285468E0,1.8304562E1,1.6685575E0,1.6144507E0,1.0147496E0,1.6096773E0,2.0445293E1,1.0013934E0,2.0250993E0,1.3384474E1,3.756079E1,2.7501147E0,1.0784321E0,1.6948947E0,1.6609667E1],"tree_param":{"num_deleted":"0","num_feature":"19","num_nodes":"35","size_leaf_vector":"1"}},{"base_weights":[-3.7454246E-3,7.771502E-1,-5.3282876E-2,9.4436094E-2,-0E0,-2.1341608E-1,1.742335E-1,2.5405226E-2,-6.9983566E-1,6.4830446E-1,-3.3085316E-1,-2.5160494E-1,3.6578935E-1,-1.2338234E0,-1.5952817E-1,9.019036E-1,-2.2766724E-1,5.1375383E-1,-7.5080407E-1,2.4650556E-3,-1.1896284E-1,9.639866E-2,-1.7315848E-2,-1.7111054E-2,-1.3564709E-1,7.1854346E-2,-3.9979603E-2,1.0339969E-1,-4.227599E-2,5.526665E-2,-7.30907E-2,-3.5094954E-2,9.624137E-2,-0E0,-9.751775E-2],"categories":[],"categories_nodes":[],"categories_segments":[],"categories_sizes":[],"default_left":[0,0,0,0,0,0,0,0,0,0,0,0,0,0,0,0,0,0,0,0,0,0,0,0,0,0,0,0,0,0,0,0,0,0,0],"id":17,"left_children":[1,3,5,-1,-1,7,9,11,13,15,17,19,21,23,25,27,29,31,33,-1,-1,-1,-1,-1,-1,-1,-1,-1,-1,-1,-1,-1,-1,-1,-1],"loss_changes":[3.999458E0,7.216506E-1,3.938744E0,0E0,0E0,7.821705E0,1.0735439E1,4.2399054E0,5.4222355E0,5.6899595E0,7.989664E0,6.7537785E0,7.2305593E0,3.590603E-1,2.7639308E0,3.9997559E0,2.6756976E0,3.439419E0,2.0423813E0,0E0,0E0,0E0,0E0,0E0,0E0,0E0,0E0,0E0,0E0,0E0,0E0,0E0,0E0,0E0,0E0],"parents":[2147483647,0,0,1,1,2,2,5,5,6,6,7,7,8,8,9,9,10,10,11,11,12,12,13,13,14,14,15,15,16,16,17,17,18,18],"right_children":[2,4,6,-1,-1,8,10,12,14,16,18,20,22,24,26,28,30,32,34,-1,-1,-1,-1,-1,-1,-1,-1,-1,-1,-1,-1,-1,-1,-1,-1],"split_conditions":[-6.44503E8,3.0996153E-1,1.9402142E0,9.4436094E-2,-0E0,1.2950001E0,3.3374E1,1.6344E1,-3.724672E-2,1.8499994E0,-1.2439936E-1,-3.672142E8,1.9240253E1,1.4498569E0,-3.457563E-1,3.473508E1,2.7462E1,2.756523E1,-5.038605E0,2.4650556E-3,-1.1896284E-1,9.639866E-2,-1.7315848E-2,-1.7111054E-2,-1.3564709E-1,7.1854346E-2,-3.9979603E-2,1.0339969E-1,-4.227599E-2,5.526665E-2,-7.30907E-2,-3.5094954E-2,9.624137E-2,-0E0,-9.751775E-2],"split_indices":[5,12,4,0,0,4,7,7,17,10,18,5,1,4,12,1,7,13,3,0,0,0,0,0,0,0,0,0,0,0,0,0,0,0,0],"split_type":[0,0,0,0,0,0,0,0,0,0,0,0,0,0,0,0,0,0,0,0,0,0,0,0,0,0,0,0,0,0,0,0,0,0,0],"sum_hessian":[1.1067485E2,5.123757E0,1.05551094E2,3.956361E0,1.1673957E0,6.327545E1,4.2275642E1,4.2385136E1,2.0890316E1,2.2171759E1,2.0103886E1,2.2701872E1,1.9683264E1,9.395629E0,1.1494688E1,1.761368E1,4.5580783E0,6.2067876E0,1.3897098E1,1.7877491E1,4.824381E0,9.394768E0,1.0288496E1,1.6417861E0,7.753843E0,1.5948004E0,9.899887E0,1.6559296E1,1.054384E0,1.3590026E0,3.1990757E0,1.8140045E0,4.392783E0,3.9188714E0,9.978227E0],"tree_param":{"num_deleted":"0","num_feature":"19","num_nodes":"35","size_leaf_vector":"1"}},{"base_weights":[2.699513E-2,1.2216649E-1,-3.2255924E-1,-3.0984871E-2,3.90927E-1,-0E0,-9.560154E-1,-2.5078413E-1,2.6345256E-1,6.49997E-1,-6.070343E-2,-7.073234E-1,3.364114E-1,-0E0,-1.1502602E-1,4.750144E-1,-4.6125016E-1,6.8483734E-1,-6.6861376E-2,8.657976E-1,-0E0,-8.1963897E-1,4.5449993E-1,1.301917E-2,-1.0492734E-1,-4.4502273E-2,5.4636073E-1,8.197298E-2,-0E0,-2.6818449E-2,-1.01432346E-1,9.559493E-2,-9.463972E-3,6.1145257E-2,-4.8901394E-2,-0E0,9.47755E-2,1.6246175E-2,-4.5690883E-2,-0E0,-1.136412E-1,-2.5334677E-2,8.864778E-2,-0E0,8.6803906E-2],"categories":[],"categories_nodes":[],"categories_segments":[],"categories_sizes":[],"default_left":[0,0,0,0,0,0,0,0,0,0,0,0,0,0,0,0,0,0,0,0,0,0,0,0,0,0,0,0,0,0,0,0,0,0,0,0,0,0,0,0,0,0,0,0,0],"id":18,"left_children":[1,3,5,7,9,11,13,15,17,19,21,23,25,-1,-1,27,29,31,33,35,37,39,41,-1,-1,-1,43,-1,-1,-1,-1,-1,-1,-1,-1,-1,-1,-1,-1,-1,-1,-1,-1,-1,-1],"loss_changes":[3.7096288E0,3.9349318E0,4.862717E0,3.7916884E0,4.3433814E0,4.113761E0,1.5917206E0,5.4826546E0,3.7180462E0,3.3878717E0,5.52167E0,2.1809783E0,2.243805E0,0E0,0E0,8.6730397E-1,2.0538902E0,2.9243212E0,4.1869445E0,1.0253305E0,6.1964977E-1,1.3998218E0,2.9313214E0,0E0,0E0,0E0,1.7421222E0,0E0,0E0,0E0,0E0,0E0,0E0,0E0,0E0,0E0,0E0,0E0,0E0,0E0,0E0,0E0,0E0,0E0,0E0],"parents":[2147483647,0,0,1,1,2,2,3,3,4,4,5,5,6,6,7,7,8,8,9,9,10,10,11,11,12,12,15,15,16,16,17,17,18,18,19,19,20,20,21,21,22,22,26,26],"right_children":[2,4,6,8,10,12,14,16,18,20,22,24,26,-1,-1,28,30,32,34,36,38,40,42,-1,-1,-1,44,-1,-1,-1,-1,-1,-1,-1,-1,-1,-1,-1,-1,-1,-1,-1,-1,-1,-1],"split_conditions":[5.953032E-2,-9.184836E-3,-2.027176E8,1.8575004E0,-3.7347276E-2,9.55143E-1,2.118E1,-5.940934E8,3.3338E1,2.268644E0,6.5306114E1,4.1428235E-1,2.1383658E-2,-0E0,-1.1502602E-1,-6.677515E8,2.336E1,-2.1260712E-2,-6.449073E0,1.0366665E0,-9.01014E-1,-5.69705E-4,1.9059794E-2,1.301917E-2,-1.0492734E-1,-4.4502273E-2,-2.1707731E-1,8.197298E-2,-0E0,-2.6818449E-2,-1.01432346E-1,9.559493E-2,-9.463972E-3,6.1145257E-2,-4.8901394E-2,-0E0,9.47755E-2,1.6246175E-2,-4.5690883E-2,-0E0,-1.136412E-1,-2.5334677E-2,8.864778E-2,-0E0,8.6803906E-2],"split_indices":[16,16,5,4,3,4,7,5,7,4,2,6,17,0,0,5,0,17,3,9,3,18,16,0,0,0,12,0,0,0,0,0,0,0,0,0,0,0,0,0,0,0,0,0,0],"split_type":[0,0,0,0,0,0,0,0,0,0,0,0,0,0,0,0,0,0,0,0,0,0,0,0,0,0,0,0,0,0,0,0,0,0,0,0,0,0,0,0,0,0,0,0,0],"sum_hessian":[1.1233619E2,8.9931816E1,2.240437E1,5.6665615E1,3.32662E1,1.541959E1,6.98478E0,3.350234E1,2.3163277E1,2.1564167E1,1.1702036E1,4.5338507E0,1.0885739E1,1.2660568E0,5.718723E0,6.7145085E0,2.6787832E1,1.0372014E1,1.2791262E1,1.6237257E1,5.326909E0,4.885254E0,6.8167815E0,1.070069E0,3.4637818E0,1.5638554E0,9.321884E0,2.8811944E0,3.8333142E0,2.1627193E1,5.1606374E0,8.003392E0,2.3686223E0,4.2805157E0,8.510747E0,1.7108049E0,1.4526452E1,3.989571E0,1.3373381E0,1.739792E0,3.145462E0,2.3015208E0,4.5152607E0,3.9206092E0,5.401275E0],"tree_param":{"num_deleted":"0","num_feature":"19","num_nodes":"45","size_leaf_vector":"1"}},{"base_weights":[-1.6340524E-2,7.908035E-2,-4.04606E-1,-2.7738804E-2,7.3839504E-1,1.4000158E-1,-7.878186E-1,4.9610728E-1,-1.5006727E-1,1.0181851E0,-2.0876548E-1,5.703209E-1,-5.360845E-1,-0E0,-9.493136E-1,-9.427666E-2,9.091478E-1,7.447143E-2,-2.2736739E-1,1.1950361E-1,-0E0,-6.111866E-2,1.2504645E-2,8.318483E-2,-1.7158438E-2,-8.183943E-2,-0E0,3.2371987E-2,-2.1816013E-2,-0E0,-1.10195816E-1,7.545559E-2,-7.426789E-2,-0E0,1.0523011E-1,5.815072E-2,-3.2083653E-2],"categories":[],"categories_nodes":[],"categories_segments":[],"categories_sizes":[],"default_left":[0,0,0,0,0,0,0,0,0,0,0,0,0,0,0,0,0,0,0,0,0,0,0,0,0,0,0,0,0,0,0,0,0,0,0,0,0],"id":19,"left_children":[1,3,5,7,9,11,13,15,17,19,21,23,25,27,29,31,33,-1,35,-1,-1,-1,-1,-1,-1,-1,-1,-1,-1,-1,-1,-1,-1,-1,-1,-1,-1],"loss_changes":[4.2817225E0,6.598341E0,5.2259026E0,4.7937865E0,4.0643845E0,3.1720006E0,2.0391788E0,3.8855438E0,4.2982025E0,1.9394646E0,7.746927E-1,1.8156741E0,6.314653E-1,3.1921887E-1,1.9531918E0,3.9306402E0,1.3402405E0,0E0,4.567615E0,0E0,0E0,0E0,0E0,0E0,0E0,0E0,0E0,0E0,0E0,0E0,0E0,0E0,0E0,0E0,0E0,0E0,0E0],"parents":[2147483647,0,0,1,1,2,2,3,3,4,4,5,5,6,6,7,7,8,8,9,9,10,10,11,11,12,12,13,13,14,14,15,15,16,16,18,18],"right_children":[2,4,6,8,10,12,14,16,18,20,22,24,26,28,30,32,34,-1,36,-1,-1,-1,-1,-1,-1,-1,-1,-1,-1,-1,-1,-1,-1,-1,-1,-1,-1],"split_conditions":[3.3964184E1,3.0552E1,-4.534895E0,-1.3466154E0,-1.659137E8,4.92958E0,8.6137676E-1,-7.825293E-2,-6.535522E8,8.166291E-2,3.292025E1,1.0502223E0,7.898572E0,1.0004301E0,-1.4954224E-1,-1.9673759E-1,1.4149E1,7.447143E-2,1.0262345E1,1.1950361E-1,-0E0,-6.111866E-2,1.2504645E-2,8.318483E-2,-1.7158438E-2,-8.183943E-2,-0E0,3.2371987E-2,-2.1816013E-2,-0E0,-1.10195816E-1,7.545559E-2,-7.426789E-2,-0E0,1.0523011E-1,5.815072E-2,-3.2083653E-2],"split_indices":[1,7,3,3,5,6,6,18,5,17,0,8,4,8,17,18,0,0,1,0,0,0,0,0,0,0,0,0,0,0,0,0,0,0,0,0,0],"split_type":[0,0,0,0,0,0,0,0,0,0,0,0,0,0,0,0,0,0,0,0,0,0,0,0,0,0,0,0,0,0,0,0,0,0,0,0,0],"sum_hessian":[1.0931347E2,8.735378E1,2.1959688E1,7.5346115E1,1.20076685E1,8.793126E0,1.3166562E1,1.2911675E1,6.243444E1,9.619103E0,2.3885653E0,5.9206824E0,2.8724434E0,2.1472363E0,1.1019325E1,5.1342273E0,7.7774477E0,3.7638562E0,5.867058E1,8.066732E0,1.5523713E0,1.3853724E0,1.0031929E0,4.786213E0,1.1344695E0,1.60441E0,1.2680333E0,1.1299725E0,1.0172639E0,1.4907604E0,9.528564E0,1.818613E0,3.3156142E0,1.0153725E0,6.7620754E0,4.982414E0,5.368817E1],"tree_param":{"num_deleted":"0","num_feature":"19","num_nodes":"37","size_leaf_vector":"1"}},{"base_weights":[-6.801463E-2,6.686163E-1,-1.11096084E-1,8.3063446E-2,-0E0,-5.487642E-1,-6.2431777E-3,-7.9355836E-1,2.7819246E-2,5.072947E-1,-1.8647252E-1,-1.0491557E0,1.7499325E-1,5.567811E-1,-5.9753772E-2,-0E0,8.7046295E-1,-6.32887E-1,-6.977295E-2,9.485428E-3,-1.2164211E-1,5.981881E-2,-1.2909166E-2,8.2888655E-2,-0E0,6.115931E-2,-3.578434E-2,-0E0,1.0048826E-1,-9.412881E-2,7.230892E-2,1.6497953E-2,-3.196794E-2],"categories":[],"categories_nodes":[],"categories_segments":[],"categories_sizes":[],"default_left":[0,0,0,0,0,0,0,0,0,0,0,0,0,0,0,0,0,0,0,0,0,0,0,0,0,0,0,0,0,0,0,0,0],"id":20,"left_children":[1,3,5,-1,-1,7,9,11,13,15,17,19,21,23,-1,25,27,29,31,-1,-1,-1,-1,-1,-1,-1,-1,-1,-1,-1,-1,-1,-1],"loss_changes":[3.248206E0,5.230751E-1,4.5047607E0,0E0,0E0,3.1180038E0,7.8996634E0,4.1201277E0,2.3255305E0,4.1325235E0,2.998943E0,2.921832E0,7.4931884E-1,8.005121E-1,0E0,2.3817377E0,1.2460518E0,6.0133796E0,3.2784412E0,0E0,0E0,0E0,0E0,0E0,0E0,0E0,0E0,0E0,0E0,0E0,0E0,0E0,0E0],"parents":[2147483647,0,0,1,1,2,2,5,5,6,6,7,7,8,8,9,9,10,10,11,11,12,12,13,13,15,15,16,16,17,17,18,18],"right_children":[2,4,6,-1,-1,8,10,12,14,16,18,20,22,24,-1,26,28,30,32,-1,-1,-1,-1,-1,-1,-1,-1,-1,-1,-1,-1,-1,-1],"split_conditions":[-6.600295E8,3.9490122E-1,3.485304E0,8.3063446E-2,-0E0,6.469344E1,-3.577731E8,1.6228E1,6.1343636E-2,-7.336581E-2,2.003E1,9.8005E0,1.6826E1,-9.003273E-2,-5.9753772E-2,-1.7346765E-1,-1.9200001E0,6.431848E1,-1.742944E8,9.485428E-3,-1.2164211E-1,5.981881E-2,-1.2909166E-2,8.2888655E-2,-0E0,6.115931E-2,-3.578434E-2,-0E0,1.0048826E-1,-9.412881E-2,7.230892E-2,1.6497953E-2,-3.196794E-2],"split_indices":[5,12,13,0,0,2,5,7,16,18,7,0,7,12,0,18,10,2,5,0,0,0,0,0,0,0,0,0,0,0,0,0,0],"split_type":[0,0,0,0,0,0,0,0,0,0,0,0,0,0,0,0,0,0,0,0,0,0,0,0,0,0,0,0,0,0,0,0,0],"sum_hessian":[1.0779694E2,4.5125794E0,1.0328436E2,3.3299458E0,1.1826335E0,1.8221882E1,8.506248E1,1.3135811E1,5.08607E0,2.0905699E1,6.415678E1,1.0735708E1,2.4001021E0,3.2479632E0,1.838107E0,9.011631E0,1.1894069E1,1.1491244E1,5.2665535E1,1.0433533E0,9.692355E0,1.2866186E0,1.1134837E0,2.0818632E0,1.1661001E0,2.9500015E0,6.06163E0,1.9848964E0,9.909172E0,9.91154E0,1.5797043E0,2.62997E1,2.6365837E1],"tree_param":{"num_deleted":"0","num_feature":"19","num_nodes":"33","size_leaf_vector":"1"}},{"base_weights":[1.4865886E-2,2.122512E-1,-1.284968E-1,-4.9112198E-1,2.9540336E-1,-1.4792872E-2,-6.6544557E-1,1.993332E-2,-9.954486E-2,4.219591E-1,-4.5381702E-2,-3.626967E-1,1.3638471E-1,-0E0,-8.8715446E-1,-7.3052384E-2,5.550925E-1,-7.342845E-1,2.784512E-1,-8.1137466E-1,2.550151E-1,5.361213E-1,-2.4997969E-1,-1.0922032E-1,-0E0,6.594135E-2,-9.214276E-2,1.5101942E-2,7.9202555E-2,-9.9353425E-2,-0E0,-3.866988E-2,7.600368E-2,1.687358E-2,-1.1310657E-1,9.0043716E-2,-1.622661E-3,6.936296E-2,-6.0171124E-2,6.541299E-2,-5.234933E-2],"categories":[],"categories_nodes":[],"categories_segments":[],"categories_sizes":[],"default_left":[0,0,0,0,0,0,0,0,0,0,0,0,0,0,0,0,0,0,0,0,0,0,0,0,0,0,0,0,0,0,0,0,0,0,0,0,0,0,0,0,0],"id":21,"left_children":[1,3,5,7,9,11,13,-1,-1,15,17,19,21,-1,23,25,27,29,31,33,35,37,39,-1,-1,-1,-1,-1,-1,-1,-1,-1,-1,-1,-1,-1,-1,-1,-1,-1,-1],"loss_changes":[3.1772904E0,2.8578837E0,3.4830182E0,2.2750251E0,2.115252E0,2.9817812E0,1.9183803E0,0E0,0E0,2.484281E0,3.0675216E0,5.338464E0,6.0053444E0,0E0,1.7389975E0,5.1951876E0,2.0179234E0,9.523132E-1,3.1285095E0,4.072183E0,1.7976918E0,3.9013238E0,4.9523516E0,0E0,0E0,0E0,0E0,0E0,0E0,0E0,0E0,0E0,0E0,0E0,0E0,0E0,0E0,0E0,0E0,0E0,0E0],"parents":[2147483647,0,0,1,1,2,2,3,3,4,4,5,5,6,6,9,9,10,10,11,11,12,12,14,14,15,15,16,16,17,17,18,18,19,19,20,20,21,21,22,22],"right_children":[2,4,6,8,10,12,14,-1,-1,16,18,20,22,-1,24,26,28,30,32,34,36,38,40,-1,-1,-1,-1,-1,-1,-1,-1,-1,-1,-1,-1,-1,-1,-1,-1,-1,-1],"split_conditions":[1.2674288E0,2.423793E0,4.5314837E-2,-6.646419E8,3.1152326E-1,1.772929E0,9.5475495E-1,1.993332E-2,-9.954486E-2,2.5331792E-1,1.0644382E0,-1.9000053E-1,3.3374E1,-0E0,5.9299984E0,-4.725649E8,3.9238844E0,1.0326431E0,1.40625E1,1.927341E1,3.2860943E1,1.0674189E0,-7.6037703E0,-1.0922032E-1,-0E0,6.594135E-2,-9.214276E-2,1.5101942E-2,7.9202555E-2,-9.9353425E-2,-0E0,-3.866988E-2,7.600368E-2,1.687358E-2,-1.1310657E-1,9.0043716E-2,-1.622661E-3,6.936296E-2,-6.0171124E-2,6.541299E-2,-5.234933E-2],"split_indices":[4,13,14,5,12,4,8,0,0,6,9,10,7,0,10,5,13,4,0,2,2,8,3,0,0,0,0,0,0,0,0,0,0,0,0,0,0,0,0,0,0],"split_type":[0,0,0,0,0,0,0,0,0,0,0,0,0,0,0,0,0,0,0,0,0,0,0,0,0,0,0,0,0,0,0,0,0,0,0,0,0,0,0,0,0],"sum_hessian":[1.08837234E2,4.705621E1,6.1781025E1,3.820419E0,4.323579E1,5.2601006E1,9.1800165E0,1.4494132E0,2.371006E0,3.2423744E1,1.0812047E1,1.6511482E1,3.6089523E1,2.0149322E0,7.165085E0,6.1717687E0,2.6251974E1,3.545688E0,7.266359E0,9.851627E0,6.6598544E0,1.8183352E1,1.7906174E1,5.844847E0,1.3202379E0,3.1153905E0,3.0563781E0,1.1088681E1,1.5163294E1,2.4476688E0,1.0980191E0,2.6983209E0,4.568038E0,2.1545076E0,7.6971197E0,1.8297164E0,4.830138E0,1.6701252E1,1.4820998E0,3.411079E0,1.4495094E1],"tree_param":{"num_deleted":"0","num_feature":"19","num_nodes":"41","size_leaf_vector":"1"}},{"base_weights":[1.7848022E-2,9.524217E-2,-2.811966E-1,-9.395585E-2,3.161097E-1,-5.7904255E-1,4.6007538E-1,5.265724E-1,-1.9194275E-1,4.528519E-1,-5.6221887E-2,-9.9699944E-1,4.1831452E-2,7.776678E-1,-1.6256882E-2,-0E0,8.4819004E-2,2.0042777E-3,-4.1780466E-1,-1.315193E-1,5.1747704E-1,-3.669172E-1,5.427124E-1,-1.2069688E-1,-1.1483752E-1,3.7046772E-1,-6.389256E-2,8.985171E-2,-0E0,4.858388E-2,-2.5488451E-2,3.9958533E-2,-2.8783133E-2,-7.146639E-2,-0E0,3.4300562E-3,-4.8948567E-2,1.813579E-2,7.481491E-2,4.624269E-2,-8.0515824E-2,8.616418E-2,-0E0,-4.6525985E-2,7.4350387E-3,7.5534955E-2,-2.460488E-2],"categories":[],"categories_nodes":[],"categories_segments":[],"categories_sizes":[],"default_left":[0,0,0,0,0,0,0,0,0,0,0,0,0,0,0,0,0,0,0,0,0,0,0,0,0,0,0,0,0,0,0,0,0,0,0,0,0,0,0,0,0,0,0,0,0,0,0],"id":22,"left_children":[1,3,5,7,9,11,13,15,17,19,21,23,25,27,-1,29,-1,31,33,35,37,39,41,-1,43,45,-1,-1,-1,-1,-1,-1,-1,-1,-1,-1,-1,-1,-1,-1,-1,-1,-1,-1,-1,-1,-1],"loss_changes":[2.368654E0,3.719849E0,4.8639064E0,2.7114725E0,2.3094726E0,4.563963E0,1.6140381E0,6.465248E-1,1.9995874E0,1.4338107E0,2.1416433E0,1.0225878E0,1.6124573E0,3.2885313E-2,0E0,6.693685E-1,0E0,2.6828835E0,2.2673218E0,4.2953366E-1,1.6430035E0,3.5714722E0,6.709343E-1,0E0,4.590466E-1,1.7883513E0,0E0,0E0,0E0,0E0,0E0,0E0,0E0,0E0,0E0,0E0,0E0,0E0,0E0,0E0,0E0,0E0,0E0,0E0,0E0,0E0,0E0],"parents":[2147483647,0,0,1,1,2,2,3,3,4,4,5,5,6,6,7,7,8,8,9,9,10,10,11,11,12,12,13,13,15,15,17,17,18,18,19,19,20,20,21,21,22,22,24,24,25,25],"right_children":[2,4,6,8,10,12,14,16,18,20,22,24,26,28,-1,30,-1,32,34,36,38,40,42,-1,44,46,-1,-1,-1,-1,-1,-1,-1,-1,-1,-1,-1,-1,-1,-1,-1,-1,-1,-1,-1,-1,-1],"split_conditions":[6.1343636E-2,-1.8114954E-2,2.8123266E-1,-1.7338E-1,-1.800044E8,1.22145034E-1,7.939393E1,-1.831938E8,-2.9926527E-2,1.0336134E0,2.5600004E0,1.0512373E-1,6.132644E1,-1.997698E8,-1.6256882E-2,-2.578964E-1,8.4819004E-2,8.362835E0,1.772929E0,6.853383E-3,-7.0164096E-1,2.16225E1,1.0669954E0,-1.2069688E-1,5.8472525E-2,-2.027176E8,-6.389256E-2,8.985171E-2,-0E0,4.858388E-2,-2.5488451E-2,3.9958533E-2,-2.8783133E-2,-7.146639E-2,-0E0,3.4300562E-3,-4.8948567E-2,1.813579E-2,7.481491E-2,4.624269E-2,-8.0515824E-2,8.616418E-2,-0E0,-4.6525985E-2,7.4350387E-3,7.5534955E-2,-2.460488E-2],"split_indices":[16,15,3,17,5,16,2,5,14,9,10,18,2,5,0,16,0,13,4,15,3,0,9,0,15,5,0,0,0,0,0,0,0,0,0,0,0,0,0,0,0,0,0,0,0,0,0],"split_type":[0,0,0,0,0,0,0,0,0,0,0,0,0,0,0,0,0,0,0,0,0,0,0,0,0,0,0,0,0,0,0,0,0,0,0,0,0,0,0,0,0,0,0,0,0,0,0],"sum_hessian":[1.04202965E2,8.464893E1,1.9554037E1,4.4683372E1,3.9965557E1,1.4586495E1,4.967541E0,4.80129E0,3.9882084E1,3.0054424E1,9.911135E0,8.837098E0,5.7493973E0,3.6565125E0,1.3110286E0,2.6667116E0,2.1345787E0,2.0799225E1,1.9082857E1,2.1192386E0,2.7935184E1,7.330605E0,2.5805297E0,6.382881E0,2.4542167E0,4.680269E0,1.0691286E0,2.5288932E0,1.1276194E0,1.1405479E0,1.5261637E0,9.337288E0,1.1461938E1,1.0303109E1,8.779747E0,1.1116785E0,1.0075601E0,1.2978141E1,1.4957045E1,2.120872E0,5.209733E0,1.3241782E0,1.2563514E0,1.275432E0,1.1787847E0,3.2420964E0,1.4381722E0],"tree_param":{"num_deleted":"0","num_feature":"19","num_nodes":"47","size_leaf_vector":"1"}},{"base_weights":[2.0280879E-2,1.7898154E-1,-1.5004799E-1,6.544462E-1,-0E0,-2.1005763E-1,5.9174623E-2,7.489491E-1,-5.448352E-3,-1.4578076E-1,7.5603616E-1,2.1234766E-2,-4.5976976E-1,-0E0,8.65725E-1,5.0748546E-2,-6.032502E-1,-1.602169E-2,1.0983E-1,-2.7105454E-1,5.4289794E-1,-7.773174E-1,4.892395E-2,-1.605487E-2,1.9345855E-2,-0E0,9.3997635E-2,-2.2518093E-2,7.996934E-2,-8.7973535E-2,2.3286229E-2,2.1811806E-2,-5.4527383E-2,9.4339505E-2,-2.6841431E-3,-1.0383125E-1,-2.860485E-2,4.644579E-2,-2.330852E-2],"categories":[],"categories_nodes":[],"categories_segments":[],"categories_sizes":[],"default_left":[0,0,0,0,0,0,0,0,0,0,0,0,0,0,0,0,0,0,0,0,0,0,0,0,0,0,0,0,0,0,0,0,0,0,0,0,0,0,0],"id":23,"left_children":[1,3,5,7,9,11,-1,13,-1,15,17,19,21,23,25,27,29,-1,-1,31,33,35,37,-1,-1,-1,-1,-1,-1,-1,-1,-1,-1,-1,-1,-1,-1,-1,-1],"loss_changes":[2.95035E0,5.187059E0,2.2006493E0,1.4884734E0,4.5087075E0,3.0291216E0,0E0,1.273696E0,0E0,3.6098685E0,2.6903245E0,4.107968E0,4.342995E0,1.3004085E-1,6.988239E-1,5.81067E0,3.2751226E0,0E0,0E0,2.44617E0,2.7551947E0,1.0518208E0,1.3619971E0,0E0,0E0,0E0,0E0,0E0,0E0,0E0,0E0,0E0,0E0,0E0,0E0,0E0,0E0,0E0,0E0],"parents":[2147483647,0,0,1,1,2,2,3,3,4,4,5,5,7,7,9,9,10,10,11,11,12,12,13,13,14,14,15,15,16,16,19,19,20,20,21,21,22,22],"right_children":[2,4,6,8,10,12,-1,14,-1,16,18,20,22,24,26,28,30,-1,-1,32,34,36,38,-1,-1,-1,-1,-1,-1,-1,-1,-1,-1,-1,-1,-1,-1,-1,-1],"split_conditions":[8.362835E0,-2.224376E-2,2.5243657E0,2.6364627E-1,2.874641E1,-2.297E8,5.9174623E-2,1.2946E1,-5.448352E-3,1.8512E1,-2.2032873E-1,-5.07936E-3,6.643638E1,-8.499994E-1,-1.16615415E-1,1.6344E1,8.469748E-2,-1.602169E-2,1.0983E-1,-4.947725E-2,2.2542145E0,6.2384456E-4,-6.554798E-2,-1.605487E-2,1.9345855E-2,-0E0,9.3997635E-2,-2.2518093E-2,7.996934E-2,-8.7973535E-2,2.3286229E-2,2.1811806E-2,-5.4527383E-2,9.4339505E-2,-2.6841431E-3,-1.0383125E-1,-2.860485E-2,4.644579E-2,-2.330852E-2],"split_indices":[13,14,3,3,1,5,0,0,0,0,12,16,1,10,14,7,18,0,0,14,4,14,16,0,0,0,0,0,0,0,0,0,0,0,0,0,0,0,0],"split_type":[0,0,0,0,0,0,0,0,0,0,0,0,0,0,0,0,0,0,0,0,0,0,0,0,0,0,0,0,0,0,0,0,0,0,0,0,0,0,0],"sum_hessian":[1.0661698E2,5.6685783E1,4.99312E1,1.5425384E1,4.12604E1,4.7480953E1,2.4502468E0,1.4183507E1,1.2418764E0,3.573835E1,5.52205E0,2.408511E1,2.3395842E1,2.1204424E0,1.2063066E1,2.48562E1,1.088215E1,1.2491251E0,4.272925E0,1.5129782E1,8.955327E0,1.46842E1,8.711642E0,1.0747648E0,1.0456775E0,1.191342E0,1.0871723E1,1.818729E1,6.66891E0,8.58808E0,2.294069E0,4.853313E0,1.0276469E1,5.388941E0,3.5663865E0,8.197718E0,6.486482E0,3.9772651E0,4.734377E0],"tree_param":{"num_deleted":"0","num_feature":"19","num_nodes":"39","size_leaf_vector":"1"}},{"base_weights":[5.3476687E-3,6.0047257E-1,-2.6686573E-2,7.7650845E-2,-0E0,6.2012845E-1,-6.92174E-2,8.72589E-2,-0E0,-1.7645503E-3,-4.8285154E-1,-1.0453868E-1,3.680449E-1,-8.372279E-1,6.762201E-2,-1.565801E-2,8.3761364E-2,8.850332E-2,-3.0572716E-2,-1.00699715E-1,7.7921697E-3],"categories":[],"categories_nodes":[],"categories_segments":[],"categories_sizes":[],"default_left":[0,0,0,0,0,0,0,0,0,0,0,0,0,0,0,0,0,0,0,0,0],"id":24,"left_children":[1,3,5,-1,-1,7,9,-1,-1,11,13,15,17,19,-1,-1,-1,-1,-1,-1,-1],"loss_changes":[2.3050036E0,8.760762E-1,2.513288E0,0E0,0E0,1.0765805E0,2.4152267E0,0E0,0E0,3.0979202E0,5.7054806E0,3.1022227E0,6.629238E0,2.1291938E0,0E0,0E0,0E0,0E0,0E0,0E0,0E0],"parents":[2147483647,0,0,1,1,2,2,5,5,6,6,9,9,10,10,11,11,12,12,13,13],"right_children":[2,4,6,-1,-1,8,10,-1,-1,12,14,16,18,20,-1,-1,-1,-1,-1,-1,-1],"split_conditions":[-6.44503E8,5.354838E-2,-6.865375E0,7.7650845E-2,-0E0,-9.61023E7,3.6196E1,8.72589E-2,-0E0,3.0552E1,1.10024E2,2.3458314E0,2.281214E0,6.48548E-2,6.762201E-2,-1.565801E-2,8.3761364E-2,8.850332E-2,-3.0572716E-2,-1.00699715E-1,7.7921697E-3],"split_indices":[5,17,3,0,0,5,7,0,0,7,0,6,4,15,0,0,0,0,0,0,0],"split_type":[0,0,0,0,0,0,0,0,0,0,0,0,0,0,0,0,0,0,0,0,0],"sum_hessian":[1.0401713E2,5.2038965E0,9.8813225E1,4.162815E0,1.0410817E0,4.5332985E0,9.427993E1,3.2085814E0,1.3247169E0,8.296378E1,1.1316147E1,6.654074E1,1.642304E1,9.20948E0,2.106667E0,6.435072E1,2.1900177E0,9.53519E0,6.887852E0,8.144577E0,1.0649029E0],"tree_param":{"num_deleted":"0","num_feature":"19","num_nodes":"21","size_leaf_vector":"1"}},{"base_weights":[1.7576639E-2,2.9840508E-1,-4.439088E-2,-8.003437E-2,8.513397E-1,-8.1434053E-1,-0E0,1.8360542E-1,-5.41206E-1,-0E0,1.0261867E-1,-0E0,-9.879786E-2,1.0697772E-1,-2.8319862E-1,-1.4178367E-1,4.3212545E-1,-8.4453866E-2,-0E0,-6.258806E-2,4.2521277E-1,-4.36869E-1,4.3348554E-1,-0E0,-4.008454E-2,-0E0,7.5204074E-2,1.8313492E-2,-2.8602531E-2,7.349075E-3,-8.9608066E-2,6.704255E-2,-2.06029E-2,-6.7149974E-2,7.917434E-3,7.224252E-2,-0E0],"categories":[],"categories_nodes":[],"categories_segments":[],"categories_sizes":[],"default_left":[0,0,0,0,0,0,0,0,0,0,0,0,0,0,0,0,0,0,0,0,0,0,0,0,0,0,0,0,0,0,0,0,0,0,0,0,0],"id":25,"left_children":[1,3,5,7,9,11,13,15,17,-1,-1,-1,-1,19,21,23,25,-1,27,29,31,33,35,-1,-1,-1,-1,-1,-1,-1,-1,-1,-1,-1,-1,-1,-1],"loss_changes":[1.9643865E0,4.751162E0,3.281843E0,1.806401E0,1.219235E0,5.2846074E-1,2.4073722E0,8.5775876E-1,6.9538856E-1,0E0,0E0,0E0,0E0,3.4851406E0,2.5424619E0,3.102184E-1,7.438593E-1,0E0,2.4952924E-1,4.953587E0,3.816627E0,2.6078694E0,6.5560627E-1,0E0,0E0,0E0,0E0,0E0,0E0,0E0,0E0,0E0,0E0,0E0,0E0,0E0,0E0],"parents":[2147483647,0,0,1,1,2,2,3,3,4,4,5,5,6,6,7,7,8,8,13,13,14,14,15,15,16,16,18,18,19,19,20,20,21,21,22,22],"right_children":[2,4,6,8,10,12,14,16,18,-1,-1,-1,-1,20,22,24,26,-1,28,30,32,34,36,-1,-1,-1,-1,-1,-1,-1,-1,-1,-1,-1,-1,-1,-1],"split_conditions":[-4.051567E-2,1.0100994E0,-7.198224E-2,9.897084E-1,3.1046936E1,6.4468355E0,-1.780883E8,9.477794E-1,-8.786301E-2,-0E0,1.0261867E-1,-0E0,-9.879786E-2,1.9916E1,2.5243657E0,-1.0365337E-1,-6.1561022E-2,-8.4453866E-2,-5.417412E-2,1.4365711E0,1.1638696E1,2.5600004E0,1.0681199E0,-0E0,-4.008454E-2,-0E0,7.5204074E-2,1.8313492E-2,-2.8602531E-2,7.349075E-3,-8.9608066E-2,6.704255E-2,-2.06029E-2,-6.7149974E-2,7.917434E-3,7.224252E-2,-0E0],"split_indices":[14,8,15,8,2,13,5,8,16,0,0,0,0,7,3,15,14,0,17,4,13,10,9,0,0,0,0,0,0,0,0,0,0,0,0,0,0],"split_type":[0,0,0,0,0,0,0,0,0,0,0,0,0,0,0,0,0,0,0,0,0,0,0,0,0,0,0,0,0,0,0,0,0,0,0,0,0],"sum_hessian":[1.03821724E2,1.9536804E1,8.428492E1,1.1569439E1,7.9673643E0,4.20229E0,8.0082634E1,7.054336E0,4.5151033E0,1.6376771E0,6.3296876E0,1.1265248E0,3.0757654E0,5.973216E1,2.0350473E1,2.3695042E0,4.6848316E0,2.2398155E0,2.2752876E0,3.846757E1,2.1264585E1,1.7653355E1,2.6971188E0,1.0172441E0,1.3522601E0,2.4926245E0,2.1922073E0,1.0764401E0,1.1988475E0,3.333683E1,5.1307406E0,1.5840996E1,5.42359E0,1.2594601E1,5.058755E0,1.5873455E0,1.1097733E0],"tree_param":{"num_deleted":"0","num_feature":"19","num_nodes":"37","size_leaf_vector":"1"}},{"base_weights":[-0E0,9.654194E-2,-3.9757684E-1,-1.0552956E-1,3.4902954E-1,-1.08408585E-1,-1.6979043E-1,-8.417505E-1,-2.7706802E-3,5.7944584E-1,1.0530704E-1,1.2799591E-1,-6.838708E-1,-0E0,-1.0179818E-1,5.5008215E-1,-2.0149882E-1,9.642883E-1,5.1784817E-2,-3.9277527E-1,3.7931767E-1,-5.645249E-2,3.2307416E-1,-0E0,-8.849783E-2,9.9353366E-2,-7.2920183E-3,-5.216688E-2,6.045795E-4,-0E0,1.0689306E-1,3.8086515E-2,-4.7937118E-2,6.2390002E-3,-6.441862E-2,6.392542E-4,7.037851E-2,6.948768E-2,-0E0],"categories":[],"categories_nodes":[],"categories_segments":[],"categories_sizes":[],"default_left":[0,0,0,0,0,0,0,0,0,0,0,0,0,0,0,0,0,0,0,0,0,0,0,0,0,0,0,0,0,0,0,0,0,0,0,0,0,0,0],"id":26,"left_children":[1,3,5,7,9,-1,11,13,15,17,19,21,23,-1,-1,25,27,29,31,33,35,-1,37,-1,-1,-1,-1,-1,-1,-1,-1,-1,-1,-1,-1,-1,-1,-1,-1],"loss_changes":[3.7883918E0,4.32297E0,2.1842742E0,2.980194E0,1.7090621E0,0E0,2.8324065E0,4.8066092E-1,4.451239E0,3.1093001E0,2.947888E0,1.4707654E0,1.224539E0,0E0,0E0,3.4248075E0,2.3623667E0,4.8606396E-1,1.7451173E0,1.148061E0,1.384999E0,0E0,1.1475905E0,0E0,0E0,0E0,0E0,0E0,0E0,0E0,0E0,0E0,0E0,0E0,0E0,0E0,0E0,0E0,0E0],"parents":[2147483647,0,0,1,1,2,2,3,3,4,4,6,6,7,7,8,8,9,9,10,10,11,11,12,12,15,15,16,16,17,17,18,18,19,19,20,20,22,22],"right_children":[2,4,6,8,10,-1,12,14,16,18,20,22,24,-1,-1,26,28,30,32,34,36,-1,38,-1,-1,-1,-1,-1,-1,-1,-1,-1,-1,-1,-1,-1,-1,-1,-1],"split_conditions":[6.1343636E-2,-1.5486764E-2,1.4437E1,1.3140821E1,-3.4064382E-2,-1.08408585E-1,-1.780883E8,5.576429E-1,1.1594286E0,2.0255E1,1.0570664E0,-1.728967E-2,2.2182E1,-0E0,-1.0179818E-1,-1.4802373E-2,1.9489294E0,-7.763026E-2,1.059306E0,1.3605003E1,9.103185E-3,-5.645249E-2,1.77325E1,-0E0,-8.849783E-2,9.9353366E-2,-7.2920183E-3,-5.216688E-2,6.045795E-4,-0E0,1.0689306E-1,3.8086515E-2,-4.7937118E-2,6.2390002E-3,-6.441862E-2,6.392542E-4,7.037851E-2,6.948768E-2,-0E0],"split_indices":[16,15,0,1,12,0,5,4,4,0,9,14,7,0,0,14,4,17,9,1,16,0,0,0,0,0,0,0,0,0,0,0,0,0,0,0,0,0,0],"split_type":[0,0,0,0,0,0,0,0,0,0,0,0,0,0,0,0,0,0,0,0,0,0,0,0,0,0,0,0,0,0,0,0,0,0,0,0,0,0,0],"sum_hessian":[9.877592E1,8.062175E1,1.8154171E1,4.400517E1,3.661658E1,3.0394704E0,1.51147E1,3.913003E0,4.0092167E1,1.705948E1,1.95571E1,9.430433E0,5.6842666E0,1.0899891E0,2.823014E0,9.468158E0,3.0624008E1,8.838318E0,8.221163E0,6.139272E0,1.3417828E1,1.0930903E0,8.337343E0,1.1292279E0,4.5550385E0,5.652521E0,3.8156366E0,1.239633E1,1.8227678E1,1.406553E0,7.4317646E0,5.8321304E0,2.389032E0,1.7443286E0,4.3949437E0,7.434132E0,5.983696E0,3.3951066E0,4.942237E0],"tree_param":{"num_deleted":"0","num_feature":"19","num_nodes":"39","size_leaf_vector":"1"}},{"base_weights":[7.1126707E-3,8.5123725E-2,-1.8605543E-2,-4.0204138E-1,4.997088E-2,-6.397352E-1,3.4767675E-1,5.745855E-1,-5.3698424E-2,-1.1084738E-1,1.1302945E-2,6.7991406E-2,-7.895425E-3,-5.8976617E-2,7.5291604E-1,-4.6610597E-1,6.304353E-2,5.504337E-2,-4.8271906E-2,-0E0,8.698188E-2,2.8011538E-3,-8.6220704E-2,2.699985E-2,-2.6802374E-2],"categories":[],"categories_nodes":[],"categories_segments":[],"categories_sizes":[],"default_left":[0,0,0,0,0,0,0,0,0,0,0,0,0,0,0,0,0,0,0,0,0,0,0,0,0],"id":27,"left_children":[1,-1,3,5,7,9,11,13,15,-1,17,-1,-1,-1,19,21,23,-1,-1,-1,-1,-1,-1,-1,-1],"loss_changes":[2.6868534E0,0E0,2.8569193E0,3.321073E0,4.9480042E0,4.6621885E0,9.395646E-1,3.6421533E0,3.678754E0,0E0,1.9425942E0,0E0,0E0,0E0,1.3446851E0,3.7417812E0,3.8931034E0,0E0,0E0,0E0,0E0,0E0,0E0,0E0,0E0],"parents":[2147483647,0,0,2,2,3,3,4,4,5,5,6,6,7,7,8,8,10,10,14,14,15,15,16,16],"right_children":[2,-1,4,6,8,10,12,14,16,-1,18,-1,-1,-1,20,22,24,-1,-1,-1,-1,-1,-1,-1,-1],"split_conditions":[9.864778E0,8.5123725E-2,8.8999987E-1,3.4607668E0,1.7509E1,-1.3319746E-1,4.5022285E1,1.37385E1,2.0198E1,-1.1084738E-1,1.3756406E-1,6.7991406E-2,-7.895425E-3,-5.8976617E-2,1.0407323E0,1.7802E1,3.403279E1,5.504337E-2,-4.8271906E-2,-0E0,8.698188E-2,2.8011538E-3,-8.6220704E-2,2.699985E-2,-2.6802374E-2],"split_indices":[1,0,4,13,0,3,2,0,7,0,3,0,0,0,9,7,1,0,0,0,0,0,0,0,0],"split_type":[0,0,0,0,0,0,0,0,0,0,0,0,0,0,0,0,0,0,0,0,0,0,0,0,0],"sum_hessian":[1.0285835E2,2.666935E0,1.00191414E2,1.5568835E1,8.462258E1,1.2438801E1,3.1300347E0,1.4009349E1,7.0613235E1,7.26993E0,5.1688704E0,2.0847974E0,1.0452373E0,1.1818581E0,1.2827491E1,1.5863499E1,5.4749733E1,2.9009497E0,2.267921E0,1.6897228E0,1.1137768E1,6.9102554E0,8.953243E0,3.4732605E1,2.001713E1],"tree_param":{"num_deleted":"0","num_feature":"19","num_nodes":"25","size_leaf_vector":"1"}},{"base_weights":[-4.6707303E-4,8.324021E-2,-3.23457E-1,-5.0939396E-2,2.7542257E-1,7.3683895E-2,-5.7427615E-1,9.137536E-2,-7.084145E-1,5.101843E-1,-3.7547946E-2,-2.7382982E-1,4.1485015E-1,-0E0,-7.735347E-1,4.3588847E-1,-6.8589814E-2,-9.408979E-1,6.048826E-3,8.917119E-1,2.4676187E-2,1.8400614E-1,-4.200781E-1,-0E0,-4.8716746E-2,-2.6679898E-3,6.528277E-1,-3.9009135E-2,3.549184E-1,1.6378505E-2,-9.9365795E-1,-1.3884512E-2,6.0061842E-2,6.562426E-2,-1.888567E-2,-0E0,-1.0567351E-1,1.0446332E-1,-0E0,-6.1150428E-2,4.440708E-2,5.658645E-2,-3.8132068E-2,6.1134096E-2,-8.928793E-2,7.910136E-2,-0E0,4.8134994E-2,-0E0,-1.0881852E-1,-0E0],"categories":[],"categories_nodes":[],"categories_segments":[],"categories_sizes":[],"default_left":[0,0,0,0,0,0,0,0,0,0,0,0,0,0,0,0,0,0,0,0,0,0,0,0,0,0,0,0,0,0,0,0,0,0,0,0,0,0,0,0,0,0,0,0,0,0,0,0,0,0,0],"id":28,"left_children":[1,3,5,7,9,11,13,15,17,19,21,23,25,27,29,31,33,35,-1,37,39,41,43,-1,-1,-1,45,-1,47,-1,49,-1,-1,-1,-1,-1,-1,-1,-1,-1,-1,-1,-1,-1,-1,-1,-1,-1,-1,-1,-1],"loss_changes":[2.762238E0,2.0960178E0,2.4185898E0,4.5176187E0,2.6869338E0,1.1771985E0,1.6957865E0,2.2345207E0,2.0381484E0,3.2042184E0,1.3990091E0,4.0974337E-1,8.926782E-1,7.479917E-1,2.7507071E0,1.5218961E0,2.062279E0,5.047407E-1,0E0,1.2407494E0,2.95138E0,2.2209733E0,3.7789516E0,0E0,0E0,0E0,1.7450213E-1,0E0,8.4079295E-2,0E0,3.58119E-1,0E0,0E0,0E0,0E0,0E0,0E0,0E0,0E0,0E0,0E0,0E0,0E0,0E0,0E0,0E0,0E0,0E0,0E0,0E0,0E0],"parents":[2147483647,0,0,1,1,2,2,3,3,4,4,5,5,6,6,7,7,8,8,9,9,10,10,11,11,12,12,13,13,14,14,15,15,16,16,17,17,19,19,20,20,21,21,22,22,26,26,28,28,30,30],"right_children":[2,4,6,8,10,12,14,16,18,20,22,24,26,28,30,32,34,36,-1,38,40,42,44,-1,-1,-1,46,-1,48,-1,50,-1,-1,-1,-1,-1,-1,-1,-1,-1,-1,-1,-1,-1,-1,-1,-1,-1,-1,-1,-1],"split_conditions":[4.5390535E-2,1.772929E0,1.059306E0,8.4600824E-1,-2.6697412E-2,5.146689E1,9.5475495E-1,-1.8268732E-2,-3.9999962E-1,3.572975E1,3.3636E1,-3.672142E8,2.517771E-2,6.3414596E-2,3.2939434E1,1.3140821E1,1.0474E1,1.70465E1,6.048826E-3,5.718292E-1,2.6063484E1,2.3042147E0,-5.038605E0,-0E0,-4.8716746E-2,-2.6679898E-3,1.1519828E0,-3.9009135E-2,1.0082961E-1,1.6378505E-2,1.0479921E0,-1.3884512E-2,6.0061842E-2,6.562426E-2,-1.888567E-2,-0E0,-1.0567351E-1,1.0446332E-1,-0E0,-6.1150428E-2,4.440708E-2,5.658645E-2,-3.8132068E-2,6.1134096E-2,-8.928793E-2,7.910136E-2,-0E0,4.8134994E-2,-0E0,-1.0881852E-1,-0E0],"split_indices":[15,4,9,6,17,2,8,14,10,0,7,5,14,17,2,1,7,0,0,3,13,4,3,0,0,0,3,0,16,0,8,0,0,0,0,0,0,0,0,0,0,0,0,0,0,0,0,0,0,0,0],"split_type":[0,0,0,0,0,0,0,0,0,0,0,0,0,0,0,0,0,0,0,0,0,0,0,0,0,0,0,0,0,0,0,0,0,0,0,0,0,0,0,0,0,0,0,0,0,0,0,0,0,0,0],"sum_hessian":[9.57283E1,7.538539E1,2.0342915E1,4.3292377E1,3.2093014E1,7.376269E0,1.2966645E1,3.567157E1,7.6208067E0,1.8890532E1,1.3202481E1,3.0258908E0,4.350378E0,3.4346395E0,9.532005E0,1.1755283E1,2.3916286E1,6.179099E0,1.4417078E0,9.532828E0,9.357703E0,7.8612733E0,5.341208E0,1.0274942E0,1.9983965E0,1.0987221E0,3.2516558E0,1.4196894E0,2.01495E0,1.4294903E0,8.102515E0,1.9775579E0,9.777726E0,2.1776872E0,2.1738598E1,1.0356551E0,5.1434436E0,7.811778E0,1.72105E0,3.0622745E0,6.2954288E0,5.2193074E0,2.6419659E0,1.2543306E0,4.0868773E0,2.1748152E0,1.0768406E0,1.0020208E0,1.0129293E0,6.8922157E0,1.2102997E0],"tree_param":{"num_deleted":"0","num_feature":"19","num_nodes":"51","size_leaf_vector":"1"}},{"base_weights":[-1.7591435E-2,7.9574995E-2,-3.9346448E-1,-4.4664735E-4,6.313985E-1,-7.400311E-1,4.99357E-2,1.8417187E-1,-2.0368905E-1,8.9346766E-1,-4.793237E-2,-8.7163824E-1,1.3139109E-2,7.637957E-2,-3.7978494E-1,-2.3153427E-1,4.7836435E-1,-6.7843777E-1,1.27662355E-2,1.1244064E-1,-0E0,-5.4738194E-2,2.8895622E-2,-0E0,-9.717679E-2,1.4535478E-1,-7.939432E-2,2.833414E-2,-9.750052E-2,6.0946397E-3,6.897063E-2,-8.7070905E-2,9.02223E-3,2.5573615E-2,-4.9325634E-2,3.4869716E-2,-0E0],"categories":[],"categories_nodes":[],"categories_segments":[],"categories_sizes":[],"default_left":[0,0,0,0,0,0,0,0,0,0,0,0,0,0,0,0,0,0,0,0,0,0,0,0,0,0,0,0,0,0,0,0,0,0,0,0,0],"id":29,"left_children":[1,3,5,7,9,11,13,15,17,19,21,23,-1,-1,25,27,29,31,33,-1,-1,-1,-1,-1,-1,35,-1,-1,-1,-1,-1,-1,-1,-1,-1,-1,-1],"loss_changes":[3.7248511E0,3.7034695E0,3.6268144E0,2.569149E0,2.336391E0,1.9237447E0,3.4170315E0,4.4478974E0,3.810263E0,2.1466045E0,8.4991604E-1,6.2489986E-1,0E0,0E0,1.7888056E0,6.0761747E0,1.4534435E0,2.1407008E0,2.8896353E0,0E0,0E0,0E0,0E0,0E0,0E0,1.84439E-1,0E0,0E0,0E0,0E0,0E0,0E0,0E0,0E0,0E0,0E0,0E0],"parents":[2147483647,0,0,1,1,2,2,3,3,4,4,5,5,6,6,7,7,8,8,9,9,10,10,11,11,14,14,15,15,16,16,17,17,18,18,25,25],"right_children":[2,4,6,8,10,12,14,16,18,20,22,24,-1,-1,26,28,30,32,34,-1,-1,-1,-1,-1,-1,36,-1,-1,-1,-1,-1,-1,-1,-1,-1,-1,-1],"split_conditions":[3.3964184E1,3.0552E1,3.178852E1,-3.616441E8,5.2199837E-2,-5.74326E7,-1.119085E8,3.4607668E0,-7.1061605E-1,3.3636E1,8.091079E-2,8.6137676E-1,1.3139109E-2,7.637957E-2,-2.5802213E-1,2.7717452E0,-8.445442E-2,1.18229635E-1,-1.273689E8,1.1244064E-1,-0E0,-5.4738194E-2,2.8895622E-2,-0E0,-9.717679E-2,-4.7268984E-3,-7.939432E-2,2.833414E-2,-9.750052E-2,6.0946397E-3,6.897063E-2,-8.7070905E-2,9.02223E-3,2.5573615E-2,-4.9325634E-2,3.4869716E-2,-0E0],"split_indices":[1,7,13,5,16,5,5,13,3,7,3,6,0,0,12,13,18,17,5,0,0,0,0,0,0,14,0,0,0,0,0,0,0,0,0,0,0],"split_type":[0,0,0,0,0,0,0,0,0,0,0,0,0,0,0,0,0,0,0,0,0,0,0,0,0,0,0,0,0,0,0,0,0,0,0,0,0],"sum_hessian":[9.583405E1,7.571828E1,2.0115772E1,6.621006E1,9.508223E0,1.1548214E1,8.567559E0,3.3454678E1,3.275538E1,7.164958E0,2.3432639E0,1.0531252E1,1.0169623E0,3.3645043E0,5.203055E0,1.324805E1,2.0206627E1,1.0312574E1,2.2442806E1,5.8533063E0,1.311652E0,1.290059E0,1.053205E0,1.5921661E0,8.939086E0,2.0480096E0,3.155045E0,7.795681E0,5.4523687E0,8.020225E0,1.2186401E1,8.663278E0,1.6492971E0,1.6164185E1,6.278621E0,1.0465333E0,1.0014763E0],"tree_param":{"num_deleted":"0","num_feature":"19","num_nodes":"37","size_leaf_vector":"1"}},{"base_weights":[-3.983605E-4,1.5058611E-1,-1.3157104E-1,2.9070178E-1,-5.7444346E-1,-1.2232017E-2,-4.2208084E-1,-5.008844E-2,4.2568806E-1,-0E0,-9.332184E-2,-2.4107738E-1,4.089749E-1,-7.484582E-1,1.1825846E-1,-7.6103546E-2,1.5625498E-1,-4.946224E-2,6.3781434E-1,-3.2665234E-2,3.5127863E-2,-4.6844405E-1,1.8369815E-1,-3.5934458E-3,6.896015E-1,2.6946453E-2,-9.9320203E-1,5.861806E-1,-4.1047364E-2,4.382329E-2,-3.123339E-2,2.9654035E-2,-3.6942426E-2,7.878315E-2,-0E0,5.252102E-4,-6.019139E-2,4.274053E-2,-4.7765747E-2,4.408261E-2,-4.7290366E-2,-0E0,8.3171494E-2,-1.16369836E-1,-0E0,-0E0,7.8495316E-2],"categories":[],"categories_nodes":[],"categories_segments":[],"categories_sizes":[],"default_left":[0,0,0,0,0,0,0,0,0,0,0,0,0,0,0,0,0,0,0,0,0,0,0,0,0,0,0,0,0,0,0,0,0,0,0,0,0,0,0,0,0,0,0,0,0,0,0],"id":30,"left_children":[1,3,5,7,9,11,13,15,17,19,-1,21,23,25,27,-1,29,31,33,-1,-1,35,37,39,41,-1,43,45,-1,-1,-1,-1,-1,-1,-1,-1,-1,-1,-1,-1,-1,-1,-1,-1,-1,-1,-1],"loss_changes":[1.9662293E0,4.5566053E0,1.6897681E0,1.9859087E0,1.5411012E0,3.9997532E0,3.0153112E0,2.0059743E0,3.2307425E0,5.2675843E-1,0E0,2.9507089E0,1.9844484E0,3.107345E0,1.779101E0,0E0,1.3436623E0,1.1530272E0,2.2760124E0,0E0,0E0,1.5285492E0,1.7551541E0,1.4768413E0,1.1269631E0,0E0,1.5570211E0,4.336666E-1,0E0,0E0,0E0,0E0,0E0,0E0,0E0,0E0,0E0,0E0,0E0,0E0,0E0,0E0,0E0,0E0,0E0,0E0,0E0],"parents":[2147483647,0,0,1,1,2,2,3,3,4,4,5,5,6,6,7,7,8,8,9,9,11,11,12,12,13,13,14,14,16,16,17,17,18,18,21,21,22,22,23,23,24,24,26,26,27,27],"right_children":[2,4,6,8,10,12,14,16,18,20,-1,22,24,26,28,-1,30,32,34,-1,-1,36,38,40,42,-1,44,46,-1,-1,-1,-1,-1,-1,-1,-1,-1,-1,-1,-1,-1,-1,-1,-1,-1,-1,-1],"split_conditions":[1.059306E0,2.0745452E-1,4.5390535E-2,1.0377289E0,-2.6461557E-2,2.0653421E-4,1.0958248E0,2.589404E-1,-4.6002198E-2,-4.800005E-1,-9.332184E-2,-1.764811E8,6.2384456E-4,3.3695652E1,1.1098993E0,-7.6103546E-2,8.393274E0,-4.947725E-2,6.1343636E-2,-3.2665234E-2,3.5127863E-2,1.4151999E1,-3.9000034E-1,-3.438302E8,-8.27886E-2,2.6946453E-2,1.4455625E-1,3.9869186E1,-4.1047364E-2,4.382329E-2,-3.123339E-2,2.9654035E-2,-3.6942426E-2,7.878315E-2,-0E0,5.252102E-4,-6.019139E-2,4.274053E-2,-4.7765747E-2,4.408261E-2,-4.7290366E-2,-0E0,8.3171494E-2,-1.16369836E-1,-0E0,-0E0,7.8495316E-2],"split_indices":[9,12,15,9,16,15,9,6,15,10,0,5,14,2,9,0,13,14,16,0,0,7,10,5,12,0,15,2,0,0,0,0,0,0,0,0,0,0,0,0,0,0,0,0,0,0,0],"split_type":[0,0,0,0,0,0,0,0,0,0,0,0,0,0,0,0,0,0,0,0,0,0,0,0,0,0,0,0,0,0,0,0,0,0,0,0,0,0,0,0,0,0,0,0,0,0,0],"sum_hessian":[9.775891E1,4.3606495E1,5.4152416E1,3.762412E1,5.9823785E0,4.0343044E1,1.3809371E1,9.802159E0,2.7821959E1,2.5671768E0,3.4152014E0,2.7186888E1,1.3156157E1,8.945976E0,4.8633943E0,2.145361E0,7.6567984E0,8.096352E0,1.9725607E1,1.2052188E0,1.361958E0,1.8408035E1,8.778852E0,5.004365E0,8.151792E0,1.3184413E0,7.6275353E0,3.0241022E0,1.8392923E0,5.486849E0,2.1699495E0,3.1742628E0,4.9220886E0,1.6251028E1,3.4745798E0,3.434209E0,1.4973825E1,7.225901E0,1.5529517E0,2.0543094E0,2.9500556E0,1.2311542E0,6.920637E0,6.4344273E0,1.193108E0,1.0761595E0,1.9479426E0],"tree_param":{"num_deleted":"0","num_feature":"19","num_nodes":"47","size_leaf_vector":"1"}},{"base_weights":[7.9251334E-2,5.2404153E-1,-0E0,6.9806075E-1,-5.028984E-2,1.3620554E-1,-1.9938678E-1,1.0566658E0,1.3181452E-1,-1.6951726E-1,3.6098766E-1,-3.9877275E-1,9.989962E-2,1.2300368E-1,-0E0,-1.0974291E-1,6.65809E-2,1.7938781E-1,-6.648122E-1,9.544194E-1,7.5794995E-2,2.2251464E-2,-7.3974615E-1,7.586664E-2,-1.0133925E-1,-4.8246656E-2,3.539071E-2,6.278488E-2,-6.540892E-2,1.9293454E-2,-1.0098268E-1,1.08944796E-1,6.943678E-3,-9.3773246E-2,4.144843E-2,3.0379355E-2,-5.337696E-2,-1.0047319E-1,-0E0,3.643798E-2,-4.3328695E-2],"categories":[],"categories_nodes":[],"categories_segments":[],"categories_sizes":[],"default_left":[0,0,0,0,0,0,0,0,0,0,0,0,0,0,0,0,0,0,0,0,0,0,0,0,0,0,0,0,0,0,0,0,0,0,0,0,0,0,0,0,0],"id":31,"left_children":[1,3,5,7,-1,9,11,13,15,17,19,21,23,-1,-1,25,-1,27,29,31,33,35,37,-1,39,-1,-1,-1,-1,-1,-1,-1,-1,-1,-1,-1,-1,-1,-1,-1,-1],"loss_changes":[3.4604259E0,3.0990696E0,2.3026896E0,2.011261E0,0E0,3.6057968E0,2.2481322E0,1.2479563E0,1.2442762E0,3.9914608E0,4.5209374E0,3.52056E0,2.2074423E0,0E0,0E0,1.09589E0,0E0,5.0763874E0,3.410252E0,4.3736458E-1,7.6933627E0,1.6311905E0,2.8198261E0,0E0,1.8484036E0,0E0,0E0,0E0,0E0,0E0,0E0,0E0,0E0,0E0,0E0,0E0,0E0,0E0,0E0,0E0,0E0],"parents":[2147483647,0,0,1,1,2,2,3,3,5,5,6,6,7,7,8,8,9,9,10,10,11,11,12,12,15,15,17,17,18,18,19,19,20,20,21,21,22,22,24,24],"right_children":[2,4,6,8,-1,10,12,14,16,18,20,22,24,-1,-1,26,-1,28,30,32,34,36,38,-1,40,-1,-1,-1,-1,-1,-1,-1,-1,-1,-1,-1,-1,-1,-1,-1,-1],"split_conditions":[2.6251692E1,-4.3592075E-1,8.293573E0,1.0886627E1,-5.028984E-2,1.6344E1,1.6029856E1,-1.4690714E-2,4.0747272E1,1.4078E1,1.8497E1,-2.277361E8,2.95825E1,1.2300368E-1,-0E0,-7.292376E-2,6.65809E-2,-4.458134E8,-6.44503E8,6.641722E-2,2.1738409E1,1.2398713E0,3.5336334E1,7.586664E-2,3.3600006E1,-4.8246656E-2,3.539071E-2,6.278488E-2,-6.540892E-2,1.9293454E-2,-1.0098268E-1,1.08944796E-1,6.943678E-3,-9.3773246E-2,4.144843E-2,3.0379355E-2,-5.337696E-2,-1.0047319E-1,-0E0,3.643798E-2,-4.3328695E-2],"split_indices":[2,3,13,13,0,7,13,18,13,7,0,5,0,0,0,18,0,5,5,15,1,6,1,0,2,0,0,0,0,0,0,0,0,0,0,0,0,0,0,0,0],"split_type":[0,0,0,0,0,0,0,0,0,0,0,0,0,0,0,0,0,0,0,0,0,0,0,0,0,0,0,0,0,0,0,0,0,0,0,0,0,0,0,0,0],"sum_hessian":[9.6519714E1,1.3831154E1,8.268856E1,1.2517199E1,1.3139558E0,4.918651E1,3.3502056E1,6.5928407E0,5.9243574E0,2.0002665E1,2.9183842E1,2.0909967E1,1.2592087E1,5.4281216E0,1.1647193E0,3.9814558E0,1.9429016E0,1.1517562E1,8.485104E0,8.1420355E0,2.1041807E1,9.11875E0,1.1791219E1,2.8797367E0,9.71235E0,2.782471E0,1.1989849E0,8.038806E0,3.4787552E0,2.1447022E0,6.340401E0,6.3735523E0,1.7684834E0,4.4575634E0,1.6584244E1,6.9516478E0,2.1671011E0,8.72722E0,3.063999E0,3.3742917E0,6.3380585E0],"tree_param":{"num_deleted":"0","num_feature":"19","num_nodes":"41","size_leaf_vector":"1"}},{"base_weights":[-2.5067342E-2,4.3058027E-2,-3.178929E-1,-2.0855447E-2,5.7661635E-1,-8.147931E-1,1.358679E-1,2.4230707E-2,-6.2833345E-1,9.154844E-2,-1.2313178E-1,-0E0,-8.844971E-1,6.1171615E-1,-1.4595914E-1,-5.9074055E-2,6.7659795E-1,-0E0,-9.209301E-2,1.1968561E-2,-5.1321942E-2,-2.0000138E-3,-9.766224E-2,7.5551145E-2,-0E0,5.2671945E-1,-7.8018E-2,1.0895989E-3,-9.3301654E-2,8.9749835E-2,-0E0,-0E0,8.68664E-2],"categories":[],"categories_nodes":[],"categories_segments":[],"categories_sizes":[],"default_left":[0,0,0,0,0,0,0,0,0,0,0,0,0,0,0,0,0,0,0,0,0,0,0,0,0,0,0,0,0,0,0,0,0],"id":32,"left_children":[1,3,5,7,9,11,13,15,17,-1,19,-1,21,23,25,27,29,-1,-1,-1,-1,-1,-1,-1,-1,31,-1,-1,-1,-1,-1,-1,-1],"loss_changes":[1.9695064E0,2.7944803E0,4.6684766E0,2.1171665E0,2.5785906E0,2.3218727E-1,1.6779764E0,3.6840358E0,1.2284002E0,0E0,5.658264E-1,0E0,1.5451288E-1,2.6601195E-1,3.3094015E0,3.8138528E0,1.373111E0,0E0,0E0,0E0,0E0,0E0,0E0,0E0,0E0,7.381766E-1,0E0,0E0,0E0,0E0,0E0,0E0,0E0],"parents":[2147483647,0,0,1,1,2,2,3,3,4,4,5,5,6,6,7,7,8,8,10,10,12,12,13,13,14,14,15,15,16,16,25,25],"right_children":[2,4,6,8,10,12,14,16,18,-1,20,-1,22,24,26,28,30,-1,-1,-1,-1,-1,-1,-1,-1,32,-1,-1,-1,-1,-1,-1,-1],"split_conditions":[3.3964184E1,3.101E1,2.6063484E1,2.9048E1,7.0539385E-2,2.057501E0,-1.009984E8,1.8575004E0,-1.2099991E0,9.154844E-2,-1.736606E8,-0E0,-1.405706E-1,-6.857366E0,3.7260174E1,2.3051626E1,6.64194E-2,-0E0,-9.209301E-2,1.1968561E-2,-5.1321942E-2,-2.0000138E-3,-9.766224E-2,7.5551145E-2,-0E0,2.800495E0,-7.8018E-2,1.0895989E-3,-9.3301654E-2,8.9749835E-2,-0E0,-0E0,8.68664E-2],"split_indices":[1,7,13,7,18,4,5,4,10,0,5,0,18,3,13,1,14,0,0,0,0,0,0,0,0,6,0,0,0,0,0,0,0],"split_type":[0,0,0,0,0,0,0,0,0,0,0,0,0,0,0,0,0,0,0,0,0,0,0,0,0,0,0,0,0,0,0,0,0],"sum_hessian":[9.015318E1,7.244454E1,1.7708643E1,6.471618E1,7.7283635E0,8.598707E0,9.109937E0,6.037246E1,4.3437204E0,5.480534E0,2.2478292E0,1.1564779E0,7.4422293E0,3.6130743E0,5.496862E0,5.3662918E1,6.7095394E0,1.4077829E0,2.9359374E0,1.0226691E0,1.2251601E0,1.3565892E0,6.0856404E0,2.4902198E0,1.1228544E0,2.3672256E0,3.1296365E0,5.006963E1,3.5932887E0,5.0861583E0,1.6233809E0,1.1509413E0,1.2162845E0],"tree_param":{"num_deleted":"0","num_feature":"19","num_nodes":"33","size_leaf_vector":"1"}},{"base_weights":[5.9229556E-2,8.01165E-2,1.6958198E-2,-2.4227926E-1,1.1714687E-1,1.6066194E-1,-8.6010396E-1,6.381622E-1,1.4748974E-2,6.43509E-1,-5.1843524E-1,-0E0,-1.2146045E-1,8.8822013E-1,-2.0384757E-2,-5.4765415E-1,1.0316998E-1,-0E0,7.642264E-2,2.8170887E-3,-8.548205E-2,4.9075644E-2,-5.877774E-2,-0E0,1.0472762E-1,5.651551E-2,-1.02144025E-1,3.0464416E-2,-1.8678904E-2],"categories":[],"categories_nodes":[],"categories_segments":[],"categories_sizes":[],"default_left":[0,0,0,0,0,0,0,0,0,0,0,0,0,0,0,0,0,0,0,0,0,0,0,0,0,0,0,0,0],"id":33,"left_children":[1,-1,3,5,7,9,11,13,15,17,19,21,-1,23,-1,25,27,-1,-1,-1,-1,-1,-1,-1,-1,-1,-1,-1,-1],"loss_changes":[2.550736E0,0E0,2.3385594E0,6.5621653E0,3.2896242E0,5.3543005E0,2.8291693E0,2.699562E0,2.7492976E0,1.0298209E0,1.6154649E0,1.5262748E0,0E0,1.5460858E0,0E0,4.682847E0,3.169119E0,0E0,0E0,0E0,0E0,0E0,0E0,0E0,0E0,0E0,0E0,0E0,0E0],"parents":[2147483647,0,0,2,2,3,3,4,4,5,5,6,6,7,7,8,8,9,9,10,10,11,11,13,13,15,15,16,16],"right_children":[2,-1,4,6,8,10,12,14,16,18,20,22,-1,24,-1,26,28,-1,-1,-1,-1,-1,-1,-1,-1,-1,-1,-1,-1],"split_conditions":[-6.600295E8,8.01165E-2,1.6344E1,1.3938E1,1.7802E1,-4.61695E8,-1.094968E0,7.0539385E-2,1.9916E1,9.64045E-1,9.9815E0,-5.7682373E-2,-1.2146045E-1,-1.2051134E-1,-2.0384757E-2,1.8406656E1,-1.68779E8,-0E0,7.642264E-2,2.8170887E-3,-8.548205E-2,4.9075644E-2,-5.877774E-2,-0E0,1.0472762E-1,5.651551E-2,-1.02144025E-1,3.0464416E-2,-1.8678904E-2],"split_indices":[5,0,7,7,7,5,3,18,7,8,0,12,0,16,0,1,5,0,0,0,0,0,0,0,0,0,0,0,0],"split_type":[0,0,0,0,0,0,0,0,0,0,0,0,0,0,0,0,0,0,0,0,0,0,0,0,0,0,0,0,0],"sum_hessian":[9.380662E1,3.4511814E0,9.035544E1,2.3399803E1,6.6955635E1,1.4120906E1,9.278897E0,9.3362665E0,5.7619366E1,8.713891E0,5.407015E0,3.2067528E0,6.072144E0,7.6140122E0,1.722254E0,6.3542957E0,5.126507E1,1.0631769E0,7.6507144E0,1.8426616E0,3.5643535E0,1.6047857E0,1.6019671E0,1.0081788E0,6.605833E0,1.5247794E0,4.829516E0,3.1235342E1,2.002973E1],"tree_param":{"num_deleted":"0","num_feature":"19","num_nodes":"29","size_leaf_vector":"1"}},{"base_weights":[-2.5718896E-2,2.1637687E-2,-4.6640316E-1,3.7118292E-1,-4.519052E-2,-0E0,-8.8517085E-2,5.2951646E-1,-5.592236E-2,-2.0413393E-1,2.4393824E-1,-2.771238E-1,5.545607E-2,9.630001E-4,9.297858E-1,1.1934231E-1,-4.144975E-1,3.5115418E-1,-3.8484216E-2,-5.470531E-2,-0E0,5.642394E-2,-3.2937407E-2,1.103428E-1,6.4922557E-3,8.1079125E-2,-1.5574819E-2,5.090223E-2,-5.2074708E-2,-4.5565404E-2,4.645757E-2],"categories":[],"categories_nodes":[],"categories_segments":[],"categories_sizes":[],"default_left":[0,0,0,0,0,0,0,0,0,0,0,0,0,0,0,0,0,0,0,0,0,0,0,0,0,0,0,0,0,0,0],"id":34,"left_children":[1,3,5,7,9,11,-1,13,-1,15,17,19,-1,21,23,25,27,29,-1,-1,-1,-1,-1,-1,-1,-1,-1,-1,-1,-1,-1],"loss_changes":[2.0760493E0,2.041482E0,2.309067E0,2.3585486E0,3.0903811E0,1.058276E0,0E0,2.288971E0,0E0,3.2342649E0,1.6663909E0,4.6440086E-1,0E0,1.6339867E0,3.7614346E-1,3.7688172E0,3.0385742E0,2.121427E0,0E0,0E0,0E0,0E0,0E0,0E0,0E0,0E0,0E0,0E0,0E0,0E0,0E0],"parents":[2147483647,0,0,1,1,2,2,3,3,4,4,5,5,7,7,9,9,10,10,11,11,13,13,14,14,15,15,16,16,17,17],"right_children":[2,4,6,8,10,12,-1,14,-1,16,18,20,-1,22,24,26,28,30,-1,-1,-1,-1,-1,-1,-1,-1,-1,-1,-1,-1,-1],"split_conditions":[-8.43071E7,2.690453E1,-1.457246E-1,-3.8353452E-1,-1.2714113E-1,3.0592926E0,-8.8517085E-2,-1.5540706E0,-5.592236E-2,-1.0258119E0,-1.439261E8,1.6029856E1,5.545607E-2,-4.262905E0,1.062843E0,8.293573E0,9.668E0,2.3503592E0,-3.8484216E-2,-5.470531E-2,-0E0,5.642394E-2,-3.2937407E-2,1.103428E-1,6.4922557E-3,8.1079125E-2,-1.5574819E-2,5.090223E-2,-5.2074708E-2,-4.5565404E-2,4.645757E-2],"split_indices":[5,2,12,3,3,6,0,3,0,3,5,13,0,3,9,13,7,13,0,0,0,0,0,0,0,0,0,0,0,0,0],"split_type":[0,0,0,0,0,0,0,0,0,0,0,0,0,0,0,0,0,0,0,0,0,0,0,0,0,0,0,0,0,0,0],"sum_hessian":[8.733907E1,7.869833E1,8.640739E0,1.3101014E1,6.559732E1,4.0171514E0,4.623588E0,1.2023218E1,1.077796E0,4.3633747E1,2.1963575E1,2.4334064E0,1.583745E0,6.1516123E0,5.8716054E0,1.6428095E1,2.720565E1,1.9820604E1,2.1429715E0,1.4328711E0,1.0005352E0,2.5718093E0,3.5798032E0,4.178669E0,1.6929361E0,4.6387267E0,1.1789369E1,1.9303513E0,2.52753E1,1.5277162E0,1.8292889E1],"tree_param":{"num_deleted":"0","num_feature":"19","num_nodes":"31","size_leaf_vector":"1"}},{"base_weights":[-0E0,7.661503E-2,-3.2711335E-2,-6.1618763E-1,6.359749E-3,-9.008461E-2,-0E0,5.0723827E-1,-4.1523013E-2,7.3743117E-1,-2.5221324E-2,-2.608685E-1,9.814691E-2,8.849442E-2,-0E0,-4.1907206E-2,2.6317764E-2,2.1095915E-2,-2.5008157E-2],"categories":[],"categories_nodes":[],"categories_segments":[],"categories_sizes":[],"default_left":[0,0,0,0,0,0,0,0,0,0,0,0,0,0,0,0,0,0,0],"id":35,"left_children":[1,-1,3,5,7,-1,-1,9,11,13,-1,15,17,-1,-1,-1,-1,-1,-1],"loss_changes":[2.1418912E0,0E0,2.3792791E0,1.3858137E0,2.299888E0,0E0,0E0,1.9024055E0,2.4928045E0,9.0256715E-1,0E0,2.8381672E0,1.876187E0,0E0,0E0,0E0,0E0,0E0,0E0],"parents":[2147483647,0,0,2,2,3,3,4,4,7,7,8,8,9,9,11,11,12,12],"right_children":[2,-1,4,6,8,-1,-1,10,12,14,-1,16,18,-1,-1,-1,-1,-1,-1],"split_conditions":[9.668E0,7.661503E-2,1.3106097E1,-1.5604784E-1,1.3964E1,-9.008461E-2,-0E0,9.494374E0,-2.975909E8,2.7592218E-1,-2.5221324E-2,1.0999213E0,-8.27385E7,8.849442E-2,-0E0,-4.1907206E-2,2.6317764E-2,2.1095915E-2,-2.5008157E-2],"split_indices":[7,0,1,3,7,0,0,13,5,12,0,9,5,0,0,0,0,0,0],"split_type":[0,0,0,0,0,0,0,0,0,0,0,0,0,0,0,0,0,0,0],"sum_hessian":[9.23042E1,2.4834037E0,8.982079E1,5.513282E0,8.430751E1,3.7550347E0,1.7582473E0,7.430409E0,7.6877106E1,6.229567E0,1.2008421E0,3.0963074E1,4.591403E1,5.172746E0,1.0568206E0,2.4669931E1,6.2931433E0,3.6061546E1,9.852481E0],"tree_param":{"num_deleted":"0","num_feature":"19","num_nodes":"19","size_leaf_vector":"1"}},{"base_weights":[3.8660362E-2,4.171218E-1,-5.2610658E-2,-0E0,7.864032E-1,3.8916968E-2,-3.6196792E-1,3.5342425E-1,-5.3867173E-1,-0E0,9.207E-1,-2.2738793E-1,1.8152015E-1,2.940597E-1,-6.3065016E-1,5.4973364E-1,-0E0,-0E0,-8.50504E-2,1.1027664E-1,2.0045182E-1,-4.8692083E-1,7.287371E-2,6.155199E-1,7.856183E-3,7.572307E-2,-0E0,-7.87829E-1,-0E0,7.919373E-2,-0E0,-0E0,4.6884812E-2,-0E0,-7.327111E-2,4.6369936E-2,-1.3746615E-2,8.371874E-2,-0E0,-2.4248846E-2,2.36959E-2,-5.8244128E-2,6.1202478E-2,-0E0,-8.907067E-2,3.9266225E-2,-5.280402E-2],"categories":[],"categories_nodes":[],"categories_segments":[],"categories_sizes":[],"default_left":[0,0,0,0,0,0,0,0,0,0,0,0,0,0,0,0,0,0,0,0,0,0,0,0,0,0,0,0,0,0,0,0,0,0,0,0,0,0,0,0,0,0,0,0,0,0,0],"id":36,"left_children":[1,3,5,7,9,11,13,15,17,-1,19,21,23,25,27,29,-1,-1,-1,-1,31,33,35,37,39,-1,41,43,45,-1,-1,-1,-1,-1,-1,-1,-1,-1,-1,-1,-1,-1,-1,-1,-1,-1,-1],"loss_changes":[3.2513888E0,2.50675E0,2.1830814E0,2.0410364E0,1.0381327E0,2.0829778E0,3.4438832E0,6.677558E-1,9.121542E-1,0E0,1.6872644E-1,1.6593246E0,2.486175E0,7.907875E-1,1.0905356E0,7.0708716E-1,0E0,0E0,0E0,0E0,3.6671776E-1,1.6075845E0,9.178698E-1,1.6379929E0,1.6832377E0,0E0,1.8030357E0,4.9881744E-1,1.0797659E0,0E0,0E0,0E0,0E0,0E0,0E0,0E0,0E0,0E0,0E0,0E0,0E0,0E0,0E0,0E0,0E0,0E0,0E0],"parents":[2147483647,0,0,1,1,2,2,3,3,4,4,5,5,6,6,7,7,8,8,10,10,11,11,12,12,13,13,14,14,15,15,20,20,21,21,22,22,23,23,24,24,26,26,27,27,28,28],"right_children":[2,4,6,8,10,12,14,16,18,-1,20,22,24,26,28,30,-1,-1,-1,-1,32,34,36,38,40,-1,42,44,46,-1,-1,-1,-1,-1,-1,-1,-1,-1,-1,-1,-1,-1,-1,-1,-1,-1,-1],"split_conditions":[-4.051567E-2,1.0100994E0,-1.742944E8,9.9058473E-1,3.9603145E0,-3.724672E-2,2.16225E1,-6.4111054E-2,5.9817414E0,-0E0,1.0905797E0,2.1678E1,-2.126546E-2,7.614938E0,2.5199995E0,3.3600006E1,-0E0,-0E0,-8.50504E-2,1.1027664E-1,1.1085142E0,-5.869396E8,1.0609051E0,1.0391608E0,-5.928879E-1,7.572307E-2,2.4482515E0,-5.296278E-2,4.0994808E-2,7.919373E-2,-0E0,-0E0,4.6884812E-2,-0E0,-7.327111E-2,4.6369936E-2,-1.3746615E-2,8.371874E-2,-0E0,-2.4248846E-2,2.36959E-2,-5.8244128E-2,6.1202478E-2,-0E0,-8.907067E-2,3.9266225E-2,-5.280402E-2],"split_indices":[14,8,5,8,13,17,0,15,13,0,9,7,18,13,10,2,0,0,0,0,9,5,6,8,3,0,3,15,16,0,0,0,0,0,0,0,0,0,0,0,0,0,0,0,0,0,0],"split_type":[0,0,0,0,0,0,0,0,0,0,0,0,0,0,0,0,0,0,0,0,0,0,0,0,0,0,0,0,0,0,0,0,0,0,0,0,0,0,0,0,0,0,0,0,0,0,0],"sum_hessian":[8.721546E1,1.7317078E1,6.9898384E1,9.110296E0,8.206781E0,5.3366974E1,1.6531412E1,6.1573157E0,2.9529805E0,1.2653244E0,6.941457E0,1.718116E1,3.6185814E1,4.2351875E0,1.2296224E1,4.167869E0,1.9894468E0,1.1062812E0,1.8466994E0,4.5627694E0,2.3786876E0,9.775344E0,7.4058156E0,8.791567E0,2.7394247E1,1.1686152E0,3.0665724E0,9.277055E0,3.019169E0,2.6176362E0,1.5502328E0,1.092818E0,1.2858696E0,3.02232E0,6.753024E0,3.0014677E0,4.404348E0,6.6299105E0,2.161656E0,1.2019489E1,1.5374758E1,1.681995E0,1.3845774E0,1.6081814E0,7.6688733E0,1.565018E0,1.454151E0],"tree_param":{"num_deleted":"0","num_feature":"19","num_nodes":"47","size_leaf_vector":"1"}},{"base_weights":[5.754317E-2,7.220959E-2,2.595559E-2,-5.339766E-1,8.345023E-2,-7.584518E-1,-0E0,7.1498394E-1,1.8924076E-2,-0E0,-8.945929E-2,-0E0,8.522217E-2,-5.0651914E-1,1.0950614E-1,-0E0,-7.982863E-2,7.157473E-2,-0E0],"categories":[],"categories_nodes":[],"categories_segments":[],"categories_sizes":[],"default_left":[0,0,0,0,0,0,0,0,0,0,0,0,0,0,0,0,0,0,0],"id":37,"left_children":[1,-1,3,5,7,9,-1,11,13,-1,-1,-1,-1,15,17,-1,-1,-1,-1],"loss_changes":[1.4621911E0,0E0,2.5915272E0,1.1041601E0,2.8701138E0,3.8757753E-1,0E0,3.7454534E-1,3.3847203E0,0E0,0E0,0E0,0E0,1.8920033E0,4.5270505E0,0E0,0E0,0E0,0E0],"parents":[2147483647,0,0,2,2,3,3,4,4,5,5,7,7,8,8,13,13,14,14],"right_children":[2,-1,4,6,8,10,-1,12,14,-1,-1,-1,-1,16,18,-1,-1,-1,-1],"split_conditions":[9.668E0,7.220959E-2,1.3333602E1,-1.5604784E-1,1.3964E1,-6.016813E8,-0E0,-6.450173E-2,1.6344E1,-0E0,-8.945929E-2,-0E0,8.522217E-2,3.770545E-1,1.1248571E0,-0E0,-7.982863E-2,7.157473E-2,-0E0],"split_indices":[7,0,1,3,7,5,0,16,7,0,0,0,0,6,4,0,0,0,0],"split_type":[0,0,0,0,0,0,0,0,0,0,0,0,0,0,0,0,0,0,0],"sum_hessian":[8.736669E1,2.2541347E0,8.511256E1,6.3441253E0,7.8768425E1,4.5596743E0,1.7844508E0,5.649177E0,7.3119255E1,1.0791156E0,3.4805589E0,1.453373E0,4.195804E0,9.264808E0,6.3854443E1,3.1632276E0,6.1015797E0,9.354908E0,5.4499535E1],"tree_param":{"num_deleted":"0","num_feature":"19","num_nodes":"19","size_leaf_vector":"1"}},{"base_weights":[-3.5042022E-3,6.650029E-2,-4.561024E-2,-2.0746858E-1,1.03411734E-1,1.252701E-2,-5.2552855E-1,2.4048011E-1,-2.1115188E-1,-1.0247624E-1,3.8830042E-1,-6.364547E-1,-0E0,5.064493E-1,-2.7650094E-2,-6.324755E-1,2.1601339E-1,2.1631053E-2,-3.0738799E-2,-2.0018646E-2,6.925408E-2,-8.430738E-2,1.7149703E-3,3.6621284E-2,-3.0356636E-2,6.098031E-2,-6.081299E-3,-3.760002E-2,6.335329E-2,-9.16199E-2,-0E0,-7.276922E-3,6.6020444E-2],"categories":[],"categories_nodes":[],"categories_segments":[],"categories_sizes":[],"default_left":[0,0,0,0,0,0,0,0,0,0,0,0,0,0,0,0,0,0,0,0,0,0,0,0,0,0,0,0,0,0,0,0,0],"id":38,"left_children":[1,-1,3,5,7,9,11,13,15,17,19,21,23,25,27,29,31,-1,-1,-1,-1,-1,-1,-1,-1,-1,-1,-1,-1,-1,-1,-1,-1],"loss_changes":[2.1664388E0,0E0,2.0846753E0,3.195613E0,1.8966544E0,1.2553791E0,1.2003236E0,2.4752657E0,2.5612717E0,1.3386474E0,1.6459917E0,2.493092E0,5.471394E-1,1.28651E0,3.6856685E0,1.2005198E0,1.1462107E0,0E0,0E0,0E0,0E0,0E0,0E0,0E0,0E0,0E0,0E0,0E0,0E0,0E0,0E0,0E0,0E0],"parents":[2147483647,0,0,2,2,3,3,4,4,5,5,6,6,7,7,8,8,9,9,10,10,11,11,12,12,13,13,14,14,15,15,16,16],"right_children":[2,-1,4,6,8,10,12,14,16,18,20,22,24,26,28,30,32,-1,-1,-1,-1,-1,-1,-1,-1,-1,-1,-1,-1,-1,-1,-1,-1],"split_conditions":[-6.44503E8,6.650029E-2,-6.4599114E-3,-9.399996E-1,-1.780883E8,1.0100994E0,1.9249259E-2,6.9000053E-1,6.138211E1,-3.434246E8,-3.262272E8,3.1237999E1,-3.749451E8,1.1638696E1,-2.580145E8,2.5199995E0,1.4847955E1,2.1631053E-2,-3.0738799E-2,-2.0018646E-2,6.925408E-2,-8.430738E-2,1.7149703E-3,3.6621284E-2,-3.0356636E-2,6.098031E-2,-6.081299E-3,-3.760002E-2,6.335329E-2,-9.16199E-2,-0E0,-7.276922E-3,6.6020444E-2],"split_indices":[5,0,15,10,5,8,14,10,2,5,5,7,5,13,5,10,13,0,0,0,0,0,0,0,0,0,0,0,0,0,0,0,0],"split_type":[0,0,0,0,0,0,0,0,0,0,0,0,0,0,0,0,0,0,0,0,0,0,0,0,0,0,0,0,0,0,0,0,0],"sum_hessian":[8.58903E1,3.5090868E0,8.238121E1,4.0910164E1,4.147105E1,2.3821737E1,1.7088427E1,3.0155893E1,1.1315154E1,1.7777683E1,6.0440526E0,1.4295922E1,2.7925043E0,1.5628902E1,1.4526992E1,6.04384E0,5.2713146E0,5.979504E0,1.179818E1,1.6162816E0,4.427771E0,1.1223139E1,3.0727828E0,1.5142921E0,1.2782121E0,1.390236E1,1.7265424E0,1.0292068E1,4.234925E0,3.7869132E0,2.2569268E0,3.0190613E0,2.2522533E0],"tree_param":{"num_deleted":"0","num_feature":"19","num_nodes":"33","size_leaf_vector":"1"}},{"base_weights":[7.776421E-2,2.3325223E-2,4.684795E-1,2.0349586E-1,-1.485278E-1,7.3555344E-1,-5.6700166E-2,2.619861E-1,-5.4475546E-2,5.9385326E-2,-4.857811E-1,-3.2303405E-3,9.9504195E-2,2.5777189E-2,-5.6278575E-2,-1.1805644E-1,3.4429547E-1,-2.9160142E-1,2.9998207E-1,-0E0,-6.997516E-1,3.8150605E-2,-6.752546E-2,-3.59308E-2,4.106309E-2,6.50211E-2,-7.24714E-2,7.514357E-2,-1.1133279E-2,5.1291116E-2,-2.4510566E-2,-0E0,-8.5221194E-2],"categories":[],"categories_nodes":[],"categories_segments":[],"categories_sizes":[],"default_left":[0,0,0,0,0,0,0,0,0,0,0,0,0,0,0,0,0,0,0,0,0,0,0,0,0,0,0,0,0,0,0,0,0],"id":39,"left_children":[1,3,5,7,9,11,13,15,-1,17,19,-1,-1,-1,-1,21,23,25,27,29,31,-1,-1,-1,-1,-1,-1,-1,-1,-1,-1,-1,-1],"loss_changes":[1.4919769E0,2.3594792E0,1.6265364E0,1.6702782E0,2.850895E0,1.8262904E0,8.212654E-1,1.3006594E0,0E0,2.0331144E0,1.7981765E0,0E0,0E0,0E0,0E0,2.127591E0,1.6422093E0,4.184584E0,3.1850224E0,8.636363E-1,1.5720282E0,0E0,0E0,0E0,0E0,0E0,0E0,0E0,0E0,0E0,0E0,0E0,0E0],"parents":[2147483647,0,0,1,1,2,2,3,3,4,4,5,5,6,6,7,7,9,9,10,10,15,15,16,16,17,17,18,18,19,19,20,20],"right_children":[2,4,6,8,10,12,14,16,-1,18,20,-1,-1,-1,-1,22,24,26,28,30,32,-1,-1,-1,-1,-1,-1,-1,-1,-1,-1,-1,-1],"split_conditions":[2.5600004E0,7.500467E-1,5.08E0,1.3228393E0,-2.7048238E-2,9.990986E-1,1.0321577E0,2.5331792E-1,-5.4475546E-2,1.8575004E0,-1.3466154E0,-3.2303405E-3,9.9504195E-2,2.5777189E-2,-5.6278575E-2,-4.725649E8,-7.3845595E-2,1.1248571E0,3.572975E1,2.8994999E1,9.454237E-1,3.8150605E-2,-6.752546E-2,-3.59308E-2,4.106309E-2,6.50211E-2,-7.24714E-2,7.514357E-2,-1.1133279E-2,5.1291116E-2,-2.4510566E-2,-0E0,-8.5221194E-2],"split_indices":[10,6,10,12,17,8,8,6,0,4,3,0,0,0,0,5,15,4,0,0,8,0,0,0,0,0,0,0,0,0,0,0,0],"split_type":[0,0,0,0,0,0,0,0,0,0,0,0,0,0,0,0,0,0,0,0,0,0,0,0,0,0,0,0,0,0,0,0,0],"sum_hessian":[8.1218834E1,7.33397E1,7.879135E0,3.7133884E1,3.6205814E1,5.588599E0,2.290536E0,3.5664143E1,1.4697452E0,2.1990345E1,1.4215468E1,1.1460236E0,4.4425755E0,1.1059806E0,1.1845552E0,5.1903014E0,3.0473839E1,8.012057E0,1.3978288E1,4.2101655E0,1.0005302E1,2.4298012E0,2.7605E0,1.5956101E0,2.887823E1,2.0023088E0,6.0097485E0,6.8492966E0,7.128991E0,1.4164878E0,2.7936776E0,1.4209225E0,8.58438E0],"tree_param":{"num_deleted":"0","num_feature":"19","num_nodes":"33","size_leaf_vector":"1"}},{"base_weights":[-1.5444709E-3,9.1950975E-2,-1.6872148E-1,2.1551445E-1,-2.454842E-1,-5.90042E-1,-2.3968512E-2,-1.7864268E-1,3.2679817E-1,2.6243681E-2,-4.0409452E-1,-0E0,-7.056248E-1,1.6641212E-1,-2.475958E-1,2.5472745E-1,-4.487446E-1,-1.5941817E-2,4.630359E-1,-7.3080075E-1,-0E0,-0E0,-7.8249955E-1,-3.5899088E-2,3.3549294E-1,-7.54522E-2,-0E0,4.4793792E-2,-0E0,7.973066E-3,-6.6858046E-2,1.7338028E-2,-7.146454E-2,5.7345808E-2,-0E0,-0E0,-8.724481E-2,2.7219458E-2,-4.8019737E-2,-0E0,-9.322006E-2,5.4004665E-2,-0E0,3.1422567E-2,-4.361879E-2],"categories":[],"categories_nodes":[],"categories_segments":[],"categories_sizes":[],"default_left":[0,0,0,0,0,0,0,0,0,0,0,0,0,0,0,0,0,0,0,0,0,0,0,0,0,0,0,0,0,0,0,0,0,0,0,0,0,0,0,0,0,0,0,0,0],"id":40,"left_children":[1,3,5,7,9,11,13,15,17,-1,19,-1,21,23,25,27,29,31,33,35,37,-1,39,-1,41,-1,43,-1,-1,-1,-1,-1,-1,-1,-1,-1,-1,-1,-1,-1,-1,-1,-1,-1,-1],"loss_changes":[1.3855948E0,2.263174E0,1.6810348E0,1.9169159E0,1.2795997E0,4.251883E-1,1.2040582E0,1.2196679E0,1.7750041E0,0E0,1.7283485E0,0E0,8.140588E-2,1.3194132E0,1.5664289E0,2.1821281E-1,1.088913E0,1.6285076E0,1.1079583E0,4.4205737E-1,8.31738E-1,0E0,2.3194718E-1,