{"learner":{"attributes":{"scikit_learn":"{\"_estimator_type\": \"classifier\"}"},"feature_names":["SMA20","EMA20","RSI","MACD","ATR","OBV","rolling_std","rolling_mean","Close/Open","High/Low","Momentum","Volatility","VolumeChange","BB_Width","return_lag_1","return_lag_2","return_lag_3","return_lag_4","return_lag_5"],"feature_types":["float","float","float","float","float","float","float","float","float","float","float","float","float","float","float","float","float","float","float"],"gradient_booster":{"model":{"gbtree_model_param":{"num_parallel_tree":"1","num_trees":"200"},"iteration_indptr":[0,1,2,3,4,5,6,7,8,9,10,11,12,13,14,15,16,17,18,19,20,21,22,23,24,25,26,27,28,29,30,31,32,33,34,35,36,37,38,39,40,41,42,43,44,45,46,47,48,49,50,51,52,53,54,55,56,57,58,59,60,61,62,63,64,65,66,67,68,69,70,71,72,73,74,75,76,77,78,79,80,81,82,83,84,85,86,87,88,89,90,91,92,93,94,95,96,97,98,99,100,101,102,103,104,105,106,107,108,109,110,111,112,113,114,115,116,117,118,119,120,121,122,123,124,125,126,127,128,129,130,131,132,133,134,135,136,137,138,139,140,141,142,143,144,145,146,147,148,149,150,151,152,153,154,155,156,157,158,159,160,161,162,163,164,165,166,167,168,169,170,171,172,173,174,175,176,177,178,179,180,181,182,183,184,185,186,187,188,189,190,191,192,193,194,195,196,197,198,199,200],"tree_info":[0,0,0,0,0,0,0,0,0,0,0,0,0,0,0,0,0,0,0,0,0,0,0,0,0,0,0,0,0,0,0,0,0,0,0,0,0,0,0,0,0,0,0,0,0,0,0,0,0,0,0,0,0,0,0,0,0,0,0,0,0,0,0,0,0,0,0,0,0,0,0,0,0,0,0,0,0,0,0,0,0,0,0,0,0,0,0,0,0,0,0,0,0,0,0,0,0,0,0,0,0,0,0,0,0,0,0,0,0,0,0,0,0,0,0,0,0,0,0,0,0,0,0,0,0,0,0,0,0,0,0,0,0,0,0,0,0,0,0,0,0,0,0,0,0,0,0,0,0,0,0,0,0,0,0,0,0,0,0,0,0,0,0,0,0,0,0,0,0,0,0,0,0,0,0,0,0,0,0,0,0,0,0,0,0,0,0,0,0,0,0,0,0,0,0,0,0,0,0,0],"trees":[{"base_weights":[-0E0,3.506213E-2,-8.7192494E-1,-7.8647956E-2,3.5447738E-1,8.67139E-2,-1.017982E0,8.316529E-2,-5.8092093E-1,1.3447931E0,2.3649617E-1,-1.2812264E0,-0E0,-3.7859343E-2,5.320783E-1,-4.871168E-1,-1.6537328E-1,1.5948259E0,-2.8990258E-2,-4.8345262E-1,4.17612E-1,-2.5237492E-1,-1.6345685E0,6.747903E-1,-1.0330794E-1,7.469339E-2,-1.4631243E-2,9.342442E-2,-1.5028735E-2,-7.2369725E-2,-1.12723475E-2,1.6992454E-1,2.0625388E-2,9.9368505E-2,-7.395818E-2,8.000766E-2,5.9739808E-3,-1.0954143E-1,8.5232444E-2,-1.7206718E-1,-3.0262848E-2,-0E0,1.10294E-1],"categories":[],"categories_nodes":[],"categories_segments":[],"categories_sizes":[],"default_left":[0,0,0,0,0,0,0,0,0,0,0,0,0,0,0,0,0,0,0,0,0,0,0,0,0,0,0,0,0,0,0,0,0,0,0,0,0,0,0,0,0,0,0],"id":0,"left_children":[1,3,5,7,9,-1,11,13,15,17,19,21,23,25,27,29,-1,31,-1,33,35,37,39,41,-1,-1,-1,-1,-1,-1,-1,-1,-1,-1,-1,-1,-1,-1,-1,-1,-1,-1,-1],"loss_changes":[2.0324198E1,2.3387548E1,7.48592E0,3.859084E1,1.8658981E1,0E0,6.9416103E0,1.9634716E1,9.765736E0,8.204571E0,2.0098639E1,5.788742E0,4.616427E0,2.371216E1,2.156466E1,9.0864105E0,0E0,9.389496E-1,0E0,1.219638E1,1.6386702E1,7.172478E0,8.294678E-2,1.5769985E0,0E0,0E0,0E0,0E0,0E0,0E0,0E0,0E0,0E0,0E0,0E0,0E0,0E0,0E0,0E0,0E0,0E0,0E0,0E0],"parents":[2147483647,0,0,1,1,2,2,3,3,4,4,6,6,7,7,8,8,9,9,10,10,11,11,12,12,13,13,14,14,15,15,17,17,19,19,20,20,21,21,22,22,23,23],"right_children":[2,4,6,8,10,-1,12,14,16,18,20,22,24,26,28,30,-1,32,-1,34,36,38,40,42,-1,-1,-1,-1,-1,-1,-1,-1,-1,-1,-1,-1,-1,-1,-1,-1,-1,-1,-1],"split_conditions":[2.6093634E2,4.236092E0,9.667379E0,6.1385727E-1,1.4534801E1,8.67139E-2,1.1233398E2,2.4097726E-1,2.37644E1,7.793684E-1,4.9225357E-1,-1.813323E0,1.6711468E10,6.9285855E-2,4.140114E9,7.158097E-1,-1.6537328E-1,1.5057166E1,-2.8990258E-2,-6.0899204E-1,2.3552746E1,1.6523457E10,1.6383572E1,3.3046042E2,-1.0330794E-1,7.469339E-2,-1.4631243E-2,9.342442E-2,-1.5028735E-2,-7.2369725E-2,-1.12723475E-2,1.6992454E-1,2.0625388E-2,9.9368505E-2,-7.395818E-2,8.000766E-2,5.9739808E-3,-1.0954143E-1,8.5232444E-2,-1.7206718E-1,-3.0262848E-2,-0E0,1.10294E-1],"split_indices":[0,13,4,4,7,0,13,3,7,3,6,3,5,4,5,4,0,1,0,3,13,5,3,1,0,0,0,0,0,0,0,0,0,0,0,0,0,0,0,0,0,0,0],"split_type":[0,0,0,0,0,0,0,0,0,0,0,0,0,0,0,0,0,0,0,0,0,0,0,0,0,0,0,0,0,0,0,0,0,0,0,0,0,0,0,0,0,0,0],"sum_hessian":[6.630522E2,6.383526E2,2.4699612E1,4.7016486E2,1.6818771E2,1.2659506E0,2.343366E1,3.5548126E2,1.146836E2,1.634596E1,1.5184175E2,1.8653421E1,4.780238E0,2.7983978E2,7.5641495E1,1.0722797E2,7.455634E0,1.446391E1,1.8820516E0,2.9630068E1,1.2221168E2,5.5685077E0,1.3084914E1,3.2813468E0,1.4988916E0,3.2702072E1,2.471377E2,4.7820908E1,2.782059E1,6.4317215E1,4.291075E1,1.2909321E1,1.5545893E0,3.664507E0,2.596556E1,5.7803368E1,6.440831E1,3.4197667E0,2.148741E0,1.166367E1,1.4212445E0,1.382421E0,1.8989258E0],"tree_param":{"num_deleted":"0","num_feature":"19","num_nodes":"43","size_leaf_vector":"1"}},{"base_weights":[-0E0,1.8811564E-1,-1.3973631E-1,7.5499676E-2,7.8753257E-1,-3.4795994E-1,1.3629021E-1,9.287925E-3,1.5848228E-1,1.5495039E0,1.2272063E-1,6.6209877E-1,-4.2093053E-1,4.6105012E-1,-4.3265423E-1,6.768082E-1,-1.0101815E-1,1.627762E-1,1.7825982E-2,1.0349861E0,-4.9782392E-1,-4.5448112E-1,1.0705624E0,-4.58522E-1,1.2001938E-1,-1.4082168E-1,5.626941E-1,4.141942E-1,-1.0397731E0,-9.231097E-3,9.132434E-2,-6.5853484E-2,6.897826E-4,-2.0104172E-2,1.4133842E-1,-1.02778055E-1,2.3022024E-2,-1.0795184E-1,2.0168103E-2,1.4160405E-1,-5.3710938E-3,-1.6624248E-2,-7.492196E-2,1.1781795E-1,3.7567493E-2,-3.5631575E-2,1.1120836E-1,-1.7795603E-1,-5.8645524E-2],"categories":[],"categories_nodes":[],"categories_segments":[],"categories_sizes":[],"default_left":[0,0,0,0,0,0,0,0,0,0,0,0,0,0,0,0,0,0,0,0,0,0,0,0,0,0,0,0,0,0,0,0,0,0,0,0,0,0,0,0,0,0,0,0,0,0,0,0,0],"id":1,"left_children":[1,3,5,7,9,11,13,15,-1,17,19,21,23,25,27,29,31,-1,-1,33,35,37,39,41,-1,-1,43,45,47,-1,-1,-1,-1,-1,-1,-1,-1,-1,-1,-1,-1,-1,-1,-1,-1,-1,-1,-1,-1],"loss_changes":[1.7464699E1,1.8623564E1,2.206548E1,2.319109E1,2.125105E1,1.6271965E1,3.0445583E1,1.7395668E1,0E0,9.589081E-1,1.48923645E1,7.479535E0,1.2670448E1,2.0358652E1,3.1290049E1,6.6030636E0,1.2292604E1,0E0,0E0,5.913786E0,6.492996E0,2.42014E0,5.1685743E0,1.6525402E1,0E0,0E0,1.0377325E1,1.4314116E1,9.589188E0,0E0,0E0,0E0,0E0,0E0,0E0,0E0,0E0,0E0,0E0,0E0,0E0,0E0,0E0,0E0,0E0,0E0,0E0,0E0,0E0],"parents":[2147483647,0,0,1,1,2,2,3,3,4,4,5,5,6,6,7,7,9,9,10,10,11,11,12,12,13,13,14,14,15,15,16,16,19,19,20,20,21,21,22,22,23,23,26,26,27,27,28,28],"right_children":[2,4,6,8,10,12,14,16,-1,18,20,22,24,26,28,30,32,-1,-1,34,36,38,40,42,-1,-1,44,46,48,-1,-1,-1,-1,-1,-1,-1,-1,-1,-1,-1,-1,-1,-1,-1,-1,-1,-1,-1,-1],"split_conditions":[1.4662184E1,2.4097726E-1,6.488892E-1,4.0520844E0,5.0915045E-1,-5.735807E-1,8.084283E0,6.9285855E-2,1.5848228E-1,1.46262665E1,7.2381195E1,3.0432195E9,2.5209496E1,1.6183962E1,2.2869565E2,-2.3171164E-2,7.8380905E-2,1.627762E-1,1.7825982E-2,4.830002E-1,1.16855E1,3.8938992E0,1.0186203E0,6.1385727E-1,1.2001938E-1,-1.4082168E-1,-2.944054E-1,1.0580714E1,6.924073E1,-9.231097E-3,9.132434E-2,-6.5853484E-2,6.897826E-4,-2.0104172E-2,1.4133842E-1,-1.02778055E-1,2.3022024E-2,-1.0795184E-1,2.0168103E-2,1.4160405E-1,-5.3710938E-3,-1.6624248E-2,-7.492196E-2,1.1781795E-1,3.7567493E-2,-3.5631575E-2,1.1120836E-1,-1.7795603E-1,-5.8645524E-2],"split_indices":[1,3,6,13,3,3,4,4,0,7,2,5,1,1,1,15,4,0,0,4,0,13,8,4,0,0,3,4,13,0,0,0,0,0,0,0,0,0,0,0,0,0,0,0,0,0,0,0,0],"split_type":[0,0,0,0,0,0,0,0,0,0,0,0,0,0,0,0,0,0,0,0,0,0,0,0,0,0,0,0,0,0,0,0,0,0,0,0,0,0,0,0,0,0,0,0,0,0,0,0,0],"sum_hessian":[6.6240826E2,2.8216193E2,3.802463E2,2.3918495E2,4.2976982E1,2.1762747E2,1.6261884E2,2.3041444E2,8.77051E0,1.9054693E1,2.3922289E1,1.3657321E1,2.0397014E2,1.04205574E2,5.841326E1,3.2590324E1,1.9782413E2,1.7504023E1,1.5506711E0,9.740544E0,1.4181744E1,3.299907E0,1.0357414E1,2.0034991E2,3.6202314E0,4.4574776E0,9.974809E1,2.4179853E1,3.4233406E1,7.3090267E0,2.5281298E1,3.2005894E1,1.6581824E2,2.0831926E0,7.657352E0,8.366608E0,5.815136E0,1.7498584E0,1.5500486E0,8.064492E0,2.292922E0,1.015446E2,9.880531E1,2.1387592E1,7.8360504E1,1.1384121E1,1.27957325E1,1.1476251E1,2.2757156E1],"tree_param":{"num_deleted":"0","num_feature":"19","num_nodes":"49","size_leaf_vector":"1"}},{"base_weights":[-0E0,1.6419247E-2,-1.489297E-1,7.424681E-1,-9.656529E-3,-1.6807827E-1,1.060211E0,-1.0843288E-1,2.2471963E-1,9.217088E-2,-7.684661E-1,1.482141E-1,-6.497386E-2,2.199689E-2,-4.8810768E-1,9.402275E-1,8.180944E-2,-1.2484767E-1,2.669757E-2,9.395746E-2,-8.745959E-2,-1.0132789E-2,4.5986727E-2,-4.0288102E-2,-1.4668642E-1,4.4058118E-2,1.5639178E-1,-5.34711E-2,2.7204404E-2],"categories":[],"categories_nodes":[],"categories_segments":[],"categories_sizes":[],"default_left":[0,0,0,0,0,0,0,0,0,0,0,0,0,0,0,0,0,0,0,0,0,0,0,0,0,0,0,0,0],"id":2,"left_children":[1,3,-1,5,7,9,11,13,15,-1,17,-1,19,21,23,25,27,-1,-1,-1,-1,-1,-1,-1,-1,-1,-1,-1,-1],"loss_changes":[1.5565809E1,1.2791458E1,0E0,7.3994637E0,1.4632099E1,4.8937254E0,9.304674E0,2.2421421E1,1.8497536E1,0E0,3.3296611E0,0E0,5.2767005E0,1.8224714E1,8.111515E0,7.7807617E0,1.8457333E1,0E0,0E0,0E0,0E0,0E0,0E0,0E0,0E0,0E0,0E0,0E0,0E0],"parents":[2147483647,0,0,1,1,3,3,4,4,5,5,6,6,7,7,8,8,10,10,12,12,13,13,14,14,15,15,16,16],"right_children":[2,4,-1,6,8,10,12,14,16,-1,18,-1,20,22,24,26,28,-1,-1,-1,-1,-1,-1,-1,-1,-1,-1,-1,-1],"split_conditions":[3.5308548E2,6.576178E-2,-1.489297E-1,-2.4536895E-2,4.236092E0,3.5727787E1,1.6849974E-2,6.1385727E-1,4.1751764E9,9.217088E-2,1.6062666E0,1.482141E-1,-2.133298E-2,2.4962434E-1,2.37644E1,8.604766E-1,2.2657232E1,-1.2484767E-1,2.669757E-2,9.395746E-2,-8.745959E-2,-1.0132789E-2,4.5986727E-2,-4.0288102E-2,-1.4668642E-1,4.4058118E-2,1.5639178E-1,-5.34711E-2,2.7204404E-2],"split_indices":[1,4,0,15,13,2,3,4,5,0,0,0,10,3,7,4,0,0,0,0,0,0,0,0,0,0,0,0,0],"split_type":[0,0,0,0,0,0,0,0,0,0,0,0,0,0,0,0,0,0,0,0,0,0,0,0,0,0,0,0,0],"sum_hessian":[6.608486E2,6.5491034E2,5.938206E0,2.2417698E1,6.324926E2,5.513951E0,1.6903746E1,4.468438E2,1.8564883E2,1.47274E0,4.0412107E0,1.2386205E1,4.517542E0,3.3231033E2,1.1453349E2,2.9395693E1,1.5625314E2,2.9505405E0,1.0906702E0,1.6688337E0,2.8487082E0,2.5899258E2,7.3317726E1,1.0712767E2,7.405821E0,1.7713373E1,1.168232E1,3.5798073E1,1.2045506E2],"tree_param":{"num_deleted":"0","num_feature":"19","num_nodes":"29","size_leaf_vector":"1"}},{"base_weights":[-0E0,1.6816661E-1,-1.2352865E-1,3.9172523E-2,6.1185336E-1,-3.0094472E-1,1.11840345E-1,1.3839793E-1,-5.8384633E-1,7.093938E-1,-8.200278E-1,5.9886533E-1,-3.6570463E-1,4.070777E-1,-4.044632E-1,-2.9308284E-2,8.0873114E-1,-1.071555E0,2.6849025E-1,4.8478037E-1,1.401666E-1,-0E0,-1.1983289E-1,-4.0163136E-1,9.722784E-1,1.2350221E-1,-4.0147755E-1,-1.2828963E-1,4.996437E-1,3.494692E-1,-9.470329E-1,5.7586927E-2,-1.9832043E-2,1.3721272E-1,4.062656E-2,-1.18756734E-1,7.0996615E-3,1.367347E-1,-3.512919E-2,8.159467E-2,-4.1108176E-2,-9.8970175E-2,1.9224947E-2,1.2957072E-1,-4.7742496E-3,-4.5632493E-2,6.1747134E-2,1.0622354E-1,3.2962203E-2,-3.4849055E-2,9.923765E-2,-1.6405335E-1,-5.237925E-2],"categories":[],"categories_nodes":[],"categories_segments":[],"categories_sizes":[],"default_left":[0,0,0,0,0,0,0,0,0,0,0,0,0,0,0,0,0,0,0,0,0,0,0,0,0,0,0,0,0,0,0,0,0,0,0,0,0,0,0,0,0,0,0,0,0,0,0,0,0,0,0,0,0],"id":3,"left_children":[1,3,5,7,9,11,13,15,17,19,21,23,25,27,29,31,33,35,37,39,-1,-1,-1,41,43,-1,45,-1,47,49,51,-1,-1,-1,-1,-1,-1,-1,-1,-1,-1,-1,-1,-1,-1,-1,-1,-1,-1,-1,-1,-1,-1],"loss_changes":[1.3764885E1,1.5782341E1,1.5983395E1,1.347783E1,9.262104E0,1.2804499E1,2.4968102E1,2.1947075E1,1.3063282E1,7.6168613E0,1.5260186E0,6.0913863E0,1.1788406E1,1.661715E1,2.4796635E1,1.5634412E1,7.388281E0,3.2282543E0,8.65723E0,1.4463514E1,0E0,0E0,0E0,2.0849843E0,4.384782E0,0E0,1.1438606E1,0E0,8.538086E0,1.1916642E1,8.334692E0,0E0,0E0,0E0,0E0,0E0,0E0,0E0,0E0,0E0,0E0,0E0,0E0,0E0,0E0,0E0,0E0,0E0,0E0,0E0,0E0,0E0,0E0],"parents":[2147483647,0,0,1,1,2,2,3,3,4,4,5,5,6,6,7,7,8,8,9,9,10,10,11,11,12,12,13,13,14,14,15,15,16,16,17,17,18,18,19,19,23,23,24,24,26,26,28,28,29,29,30,30],"right_children":[2,4,6,8,10,12,14,16,18,20,22,24,26,28,30,32,34,36,38,40,-1,-1,-1,42,44,-1,46,-1,48,50,52,-1,-1,-1,-1,-1,-1,-1,-1,-1,-1,-1,-1,-1,-1,-1,-1,-1,-1,-1,-1,-1,-1],"split_conditions":[1.4662184E1,2.528432E0,6.488892E-1,3.640647E9,8.241119E-1,-5.735807E-1,8.084283E0,2.5252666E0,2.9218802E-2,4.0520844E0,1.24437265E-1,3.0432195E9,1.550202E9,1.6183962E1,2.2869565E2,6.9285855E-2,1.356396E0,2.374524E0,4.2542845E-1,6.187619E-1,1.401666E-1,-0E0,-1.1983289E-1,3.8938992E0,1.0186203E0,1.2350221E-1,7.585803E0,-1.2828963E-1,-2.944054E-1,1.0580714E1,6.924073E1,5.7586927E-2,-1.9832043E-2,1.3721272E-1,4.062656E-2,-1.18756734E-1,7.0996615E-3,1.367347E-1,-3.512919E-2,8.159467E-2,-4.1108176E-2,-9.8970175E-2,1.9224947E-2,1.2957072E-1,-4.7742496E-3,-4.5632493E-2,6.1747134E-2,1.0622354E-1,3.2962203E-2,-3.4849055E-2,9.923765E-2,-1.6405335E-1,-5.237925E-2],"split_indices":[1,13,6,5,3,3,4,0,3,13,18,5,5,1,1,4,13,13,4,4,0,0,0,13,8,0,13,0,3,4,13,0,0,0,0,0,0,0,0,0,0,0,0,0,0,0,0,0,0,0,0,0,0],"split_type":[0,0,0,0,0,0,0,0,0,0,0,0,0,0,0,0,0,0,0,0,0,0,0,0,0,0,0,0,0,0,0,0,0,0,0,0,0,0,0,0,0,0,0,0,0,0,0,0,0,0,0,0,0],"sum_hessian":[6.595523E2,2.808624E2,3.7868994E2,2.1931549E2,6.15469E1,2.1698045E2,1.6170947E2,1.9054816E2,2.8767345E1,5.8420998E1,3.1259046E0,1.3495678E1,2.0348479E2,1.03630516E2,5.807896E1,1.5258444E2,3.796371E1,1.8507017E1,1.0260327E1,4.5938427E1,1.2482571E1,1.1311346E0,1.9947699E0,3.2835085E0,1.0212169E1,3.4097137E0,2.0007507E2,4.433186E0,9.919733E1,2.4068596E1,3.4010365E1,3.2139107E1,1.20445335E2,1.4297519E1,2.3666191E1,1.7162582E1,1.3444347E0,3.556072E0,6.704255E0,3.401259E1,1.19258375E1,1.7379665E0,1.5455419E0,7.920609E0,2.29156E0,1.9084523E2,9.229837E0,2.112094E1,7.8076385E1,1.138688E1,1.2681716E1,1.1352022E1,2.2658344E1],"tree_param":{"num_deleted":"0","num_feature":"19","num_nodes":"53","size_leaf_vector":"1"}},{"base_weights":[6.655991E-4,1.5273705E-2,-1.3406427E-1,1.5335111E-1,-8.748331E-2,3.6592267E-2,5.5706716E-1,-2.7008387E-1,1.6454203E-1,1.2634358E-1,-5.253309E-1,8.142309E-1,2.598579E-2,-5.8972407E-2,-5.2086216E-1,3.6859524E-1,-2.3057629E-1,-2.580171E-3,7.382438E-2,-9.6942715E-2,2.4727484E-2,1.2279673E-1,2.3719711E-2,-7.9484336E-2,4.6585154E-2,1.9523531E-2,-4.250458E-2,-6.030879E-2,9.6253864E-2,-1.19115435E-1,4.5403767E-2,3.1725377E-2,-7.1105465E-2],"categories":[],"categories_nodes":[],"categories_segments":[],"categories_sizes":[],"default_left":[0,0,0,0,0,0,0,0,0,0,0,0,0,0,0,0,0,0,0,0,0,0,0,0,0,0,0,0,0,0,0,0,0],"id":4,"left_children":[1,3,-1,5,7,9,11,13,15,17,19,21,23,25,27,29,31,-1,-1,-1,-1,-1,-1,-1,-1,-1,-1,-1,-1,-1,-1,-1,-1],"loss_changes":[1.2249436E1,9.300156E0,0E0,1.2915089E1,1.7239222E1,1.0950856E1,8.018564E0,1.1195567E1,1.27288265E1,1.8164375E1,1.0789452E1,8.780426E0,8.104225E0,1.139403E1,1.2379993E1,1.4041557E1,1.4345923E1,0E0,0E0,0E0,0E0,0E0,0E0,0E0,0E0,0E0,0E0,0E0,0E0,0E0,0E0,0E0,0E0],"parents":[2147483647,0,0,1,1,3,3,4,4,5,5,6,6,7,7,8,8,9,9,10,10,11,11,12,12,13,13,14,14,15,15,16,16],"right_children":[2,4,-1,6,8,10,12,14,16,18,20,22,24,26,28,30,32,-1,-1,-1,-1,-1,-1,-1,-1,-1,-1,-1,-1,-1,-1,-1,-1],"split_conditions":[3.5308548E2,1.4662184E1,-1.3406427E-1,2.528432E0,6.488892E-1,3.640647E9,7.33441E1,3.647235E-1,8.084283E0,2.5252666E0,2.9218802E-2,6.1385727E-1,1.1846291E1,6.1385727E-1,1.2898678E0,1.6183962E1,2.2869565E2,-2.580171E-3,7.382438E-2,-9.6942715E-2,2.4727484E-2,1.2279673E-1,2.3719711E-2,-7.9484336E-2,4.6585154E-2,1.9523531E-2,-4.250458E-2,-6.030879E-2,9.6253864E-2,-1.19115435E-1,4.5403767E-2,3.1725377E-2,-7.1105465E-2],"split_indices":[1,1,0,13,6,5,2,6,4,0,3,4,1,4,3,1,1,0,0,0,0,0,0,0,0,0,0,0,0,0,0,0,0],"split_type":[0,0,0,0,0,0,0,0,0,0,0,0,0,0,0,0,0,0,0,0,0,0,0,0,0,0,0,0,0,0,0,0,0],"sum_hessian":[6.569392E2,6.512083E2,5.730887E0,2.7971762E2,3.7149072E2,2.1877481E2,6.0942802E1,2.1652417E2,1.5496655E2,1.900799E2,2.869492E1,4.006677E1,2.0876032E1,1.1931269E2,9.721148E1,1.0307005E2,5.1896492E1,1.5234175E2,3.7738148E1,1.8470455E1,1.0224464E1,2.2173605E1,1.7893166E1,6.605622E0,1.427041E1,6.988451E1,4.9428185E1,9.2987625E1,4.2238507E0,4.3769E0,9.869315E1,2.3921194E1,2.7975298E1],"tree_param":{"num_deleted":"0","num_feature":"19","num_nodes":"33","size_leaf_vector":"1"}},{"base_weights":[4.3705793E-4,1.392995E-2,-1.2617855E-1,6.3772756E-1,-8.123222E-3,-1.8363808E-1,9.349624E-1,2.4873914E-1,-7.219779E-2,8.416521E-2,-7.449027E-1,1.2905644E0,-2.244558E-1,8.2523376E-1,1.0775147E-1,-2.887365E-1,6.1332975E-2,-1.20223396E-1,2.4030587E-2,1.4047815E-1,7.85698E-4,7.062172E-2,-9.142342E-2,-5.790458E-3,1.1384441E-1,-2.4228375E-2,3.5689715E-2,5.616769E-2,-3.5716135E-2,3.8529262E-2,-9.224859E-3],"categories":[],"categories_nodes":[],"categories_segments":[],"categories_sizes":[],"default_left":[0,0,0,0,0,0,0,0,0,0,0,0,0,0,0,0,0,0,0,0,0,0,0,0,0,0,0,0,0,0,0],"id":5,"left_children":[1,3,-1,5,7,9,11,13,15,-1,17,19,21,23,25,27,29,-1,-1,-1,-1,-1,-1,-1,-1,-1,-1,-1,-1,-1,-1],"loss_changes":[1.0557099E1,9.26082E0,0E0,6.157427E0,1.0264643E1,4.316092E0,8.031319E0,9.526026E0,1.4730692E1,0E0,3.0420063E0,1.3130169E0,3.719143E0,7.1137657E0,8.99637E0,1.13985615E1,1.5691138E1,0E0,0E0,0E0,0E0,0E0,0E0,0E0,0E0,0E0,0E0,0E0,0E0,0E0,0E0],"parents":[2147483647,0,0,1,1,3,3,4,4,5,5,6,6,7,7,8,8,10,10,11,11,12,12,13,13,14,14,15,15,16,16],"right_children":[2,4,-1,6,8,10,12,14,16,-1,18,20,22,24,26,28,30,-1,-1,-1,-1,-1,-1,-1,-1,-1,-1,-1,-1,-1,-1],"split_conditions":[3.5308548E2,6.576178E-2,-1.2617855E-1,-2.4536895E-2,-2.5778502E-1,3.5727787E1,1.9763654E-2,5.927621E-1,5.1543925E-2,8.416521E-2,1.5149666E-2,6.2693185E-1,-2.133298E-2,4.5180947E-1,4.0520844E0,-8.0778025E-2,1.4938575E1,-1.20223396E-1,2.4030587E-2,1.4047815E-1,7.85698E-4,7.062172E-2,-9.142342E-2,-5.790458E-3,1.1384441E-1,-2.4228375E-2,3.5689715E-2,5.616769E-2,-3.5716135E-2,3.8529262E-2,-9.224859E-3],"split_indices":[1,4,0,15,3,2,3,4,3,0,3,12,10,4,13,17,1,0,0,0,0,0,0,0,0,0,0,0,0,0,0],"split_type":[0,0,0,0,0,0,0,0,0,0,0,0,0,0,0,0,0,0,0,0,0,0,0,0,0,0,0,0,0,0,0],"sum_hessian":[6.5447705E2,6.489253E2,5.551784E0,2.197905E1,6.269462E2,5.4948454E0,1.6484205E1,1.2303553E2,5.039107E2,1.4519981E0,4.042847E0,1.2858536E1,3.6256697E0,2.2526335E1,1.0050919E2,1.9319702E2,3.1071368E2,2.9572997E0,1.0855478E0,1.1361863E1,1.4966724E0,1.2246403E0,2.4010293E0,5.6929765E0,1.6833357E1,4.0969753E1,5.953944E1,1.3306182E1,1.7989084E2,1.0049014E2,2.1022354E2],"tree_param":{"num_deleted":"0","num_feature":"19","num_nodes":"31","size_leaf_vector":"1"}},{"base_weights":[7.5216073E-4,1.3213444E-2,-1.19397216E-1,4.1531262E-1,-1.8239556E-2,-0E0,9.723413E-1,-6.55325E-2,2.875125E-1,4.3357885E-1,-6.2573916E-1,1.2581686E0,-0E0,7.129303E-2,-3.3648854E-1,1.3908017E-1,3.548513E-2,6.293544E-2,-3.966196E-2,-9.354265E-2,3.5635155E-2,1.3374333E-1,-0E0,8.707084E-2,-4.5089364E-2,-5.6955456E-3,6.660108E-2,1.1242448E-2,-5.511142E-2,-2.8812349E-2,2.7062638E-2],"categories":[],"categories_nodes":[],"categories_segments":[],"categories_sizes":[],"default_left":[0,0,0,0,0,0,0,0,0,0,0,0,0,0,0,0,0,0,0,0,0,0,0,0,0,0,0,0,0,0,0],"id":6,"left_children":[1,3,-1,5,7,9,11,13,15,17,19,21,23,25,27,-1,29,-1,-1,-1,-1,-1,-1,-1,-1,-1,-1,-1,-1,-1,-1],"loss_changes":[9.1619625E0,8.409718E0,0E0,1.0884899E1,8.603983E0,8.067158E0,5.224415E0,1.9548544E1,2.1296124E1,3.2840295E0,4.2674856E0,1.2145042E0,2.8425598E0,2.6820679E1,1.7326113E1,0E0,5.0894237E0,0E0,0E0,0E0,0E0,0E0,0E0,0E0,0E0,0E0,0E0,0E0,0E0,0E0,0E0],"parents":[2147483647,0,0,1,1,3,3,4,4,5,5,6,6,7,7,8,8,9,9,10,10,11,11,12,12,13,13,14,14,16,16],"right_children":[2,4,-1,6,8,10,12,14,16,18,20,22,24,26,28,-1,30,-1,-1,-1,-1,-1,-1,-1,-1,-1,-1,-1,-1,-1,-1],"split_conditions":[3.5308548E2,2.8368784E1,-1.19397216E-1,-3.2266617E-1,1.6667974E0,-4.0904793E-1,7.0831277E-3,4.199841E9,1.8023605E1,-5.5200005E-1,-2.7363233E-2,4.1684832E-2,-8.1901807E-1,2.9330546E-1,-1.6866109E-1,1.3908017E-1,4.1491385E0,6.293544E-2,-3.966196E-2,-9.354265E-2,3.5635155E-2,1.3374333E-1,-0E0,8.707084E-2,-4.5089364E-2,-5.6955456E-3,6.660108E-2,1.1242448E-2,-5.511142E-2,-2.8812349E-2,2.7062638E-2],"split_indices":[1,2,0,10,3,3,14,5,13,10,17,18,3,3,3,0,6,0,0,0,0,0,0,0,0,0,0,0,0,0,0],"split_type":[0,0,0,0,0,0,0,0,0,0,0,0,0,0,0,0,0,0,0,0,0,0,0,0,0,0,0,0,0,0,0],"sum_hessian":[6.529964E2,6.476487E2,5.3476963E0,4.7252983E1,6.003957E2,2.7936897E1,1.9316088E1,5.22065E2,7.833069E1,1.6953619E1,1.0983278E1,1.4434232E1,4.881855E0,3.461567E2,1.759083E2,1.335681E1,6.497388E1,1.4401644E1,2.5519748E0,8.773364E0,2.2099135E0,1.3337964E1,1.0962677E0,1.6016064E0,3.2802484E0,2.848035E2,6.1353233E1,5.629911E1,1.19609184E2,2.6353577E1,3.8620304E1],"tree_param":{"num_deleted":"0","num_feature":"19","num_nodes":"31","size_leaf_vector":"1"}},{"base_weights":[1.0398522E-3,5.049161E-1,-2.4570325E-2,1.140143E0,2.0317593E-1,-5.487006E-1,3.962162E-3,-0E0,1.2752464E-1,-0E0,1.0826067E-1,-9.934563E-1,3.697313E-1,6.298191E-1,-2.2907814E-2,6.270655E-1,-3.808331E-1,-0E0,-1.1522712E0,8.9018327E-1,-1.1700077E-1,1.1350421E0,-1.08800806E-1,2.1172592E-1,-8.940592E-2,-4.5995347E-2,9.8075196E-2,-8.582451E-2,4.150952E-2,8.363086E-2,-5.1832493E-2,-6.1369315E-3,-1.280434E-1,1.2634043E-1,-8.297723E-3,1.6884315E-1,-1.0565398E-2,-7.000204E-2,7.4986055E-2,3.0960584E-2,-6.0505625E-2,-3.2581083E-2,3.0884193E-3],"categories":[],"categories_nodes":[],"categories_segments":[],"categories_sizes":[],"default_left":[0,0,0,0,0,0,0,0,0,0,0,0,0,0,0,0,0,0,0,0,0,0,0,0,0,0,0,0,0,0,0,0,0,0,0,0,0,0,0,0,0,0,0],"id":7,"left_children":[1,3,5,7,9,11,13,-1,-1,15,-1,17,19,21,23,25,27,29,31,33,-1,35,37,39,41,-1,-1,-1,-1,-1,-1,-1,-1,-1,-1,-1,-1,-1,-1,-1,-1,-1,-1],"loss_changes":[8.668795E0,5.333028E0,9.5563965E0,1.3630152E0,4.595367E0,1.4140578E1,1.0218044E1,0E0,0E0,4.949135E0,0E0,3.8400002E0,9.807886E0,9.979133E0,8.76818E0,3.6490943E0,5.672916E0,2.2196772E0,2.0287266E0,4.0063486E0,0E0,1.1513145E1,5.9215393E0,9.899535E0,1.2736446E1,0E0,0E0,0E0,0E0,0E0,0E0,0E0,0E0,0E0,0E0,0E0,0E0,0E0,0E0,0E0,0E0,0E0,0E0],"parents":[2147483647,0,0,1,1,2,2,3,3,4,4,5,5,6,6,9,9,11,11,12,12,13,13,14,14,15,15,16,16,17,17,18,18,19,19,21,21,22,22,23,23,24,24],"right_children":[2,4,6,8,10,12,14,-1,-1,16,-1,18,20,22,24,26,28,30,32,34,-1,36,38,40,42,-1,-1,-1,-1,-1,-1,-1,-1,-1,-1,-1,-1,-1,-1,-1,-1,-1,-1],"split_conditions":[6.9285855E-2,4.424784E1,7.8380905E-2,-8.0667496E-2,-1.207545E8,2.9218802E-2,1.858617E0,-0E0,1.2752464E-1,2.3364795E-2,1.0826067E-1,-3.1455317E-1,2.3928335E0,4.3303183E-1,-2.5778502E-1,-2.4536895E-2,1.0431255E0,7.309522E-2,9.6531665E-1,6.876563E-2,-1.1700077E-1,3.947811E-2,1.0404755E-1,2.2869565E2,6.426578E-2,-4.5995347E-2,9.8075196E-2,-8.582451E-2,4.150952E-2,8.363086E-2,-5.1832493E-2,-6.1369315E-3,-1.280434E-1,1.2634043E-1,-8.297723E-3,1.6884315E-1,-1.0565398E-2,-7.000204E-2,7.4986055E-2,3.0960584E-2,-6.0505625E-2,-3.2581083E-2,3.0884193E-3],"split_indices":[4,2,4,10,5,3,1,0,0,6,0,12,0,13,3,15,9,4,8,3,0,18,4,1,3,0,0,0,0,0,0,0,0,0,0,0,0,0,0,0,0,0,0],"split_type":[0,0,0,0,0,0,0,0,0,0,0,0,0,0,0,0,0,0,0,0,0,0,0,0,0,0,0,0,0,0,0,0,0,0,0,0,0,0,0,0,0,0,0],"sum_hessian":[6.511993E2,3.1536264E1,6.19663E2,8.727472E0,2.2808792E1,3.195504E1,5.87708E2,1.1138029E0,7.6136694E0,1.9049383E1,3.759409E0,2.184109E1,1.0113951E1,2.4035704E1,5.636723E2,6.640756E0,1.2408627E1,2.9702137E0,1.8870876E1,8.116918E0,1.9970331E0,1.4356175E1,9.679527E0,1.223315E2,4.413408E2,1.209462E0,5.431294E0,8.100002E0,4.308624E0,1.0531008E0,1.9171128E0,2.5495594E0,1.6321318E1,6.022675E0,2.094242E0,9.957115E0,4.3990607E0,6.1867676E0,3.4927597E0,1.1034169E2,1.1989807E1,1.4966122E2,2.9167957E2],"tree_param":{"num_deleted":"0","num_feature":"19","num_nodes":"43","size_leaf_vector":"1"}},{"base_weights":[1.2104027E-3,1.2773621E-2,-1.1356306E-1,4.705042E-1,-1.035767E-2,1.0684463E0,1.8958844E-1,-5.030169E-1,1.6498707E-2,-0E0,1.2173655E-1,-0E0,1.1403146E-1,-9.079878E-1,3.2412612E-1,1.7371815E-1,-7.34683E-2,3.2855596E-2,-8.4707946E-2,-3.979943E-2,-1.3265267E-1,8.0899134E-2,-1.09447874E-1,3.6696002E-2,-4.1035223E-3,-2.2960892E-2,1.5524852E-2],"categories":[],"categories_nodes":[],"categories_segments":[],"categories_sizes":[],"default_left":[0,0,0,0,0,0,0,0,0,0,0,0,0,0,0,0,0,0,0,0,0,0,0,0,0,0,0],"id":8,"left_children":[1,3,-1,5,7,9,11,13,15,-1,-1,17,-1,19,21,23,25,-1,-1,-1,-1,-1,-1,-1,-1,-1,-1],"loss_changes":[8.01092E0,7.073422E0,0E0,4.5654154E0,8.38529E0,1.3575954E0,4.374259E0,1.1564335E1,8.30878E0,0E0,0E0,6.0702667E0,0E0,3.4488335E0,8.379761E0,9.079674E0,1.3267385E1,0E0,0E0,0E0,0E0,0E0,0E0,0E0,0E0,0E0,0E0],"parents":[2147483647,0,0,1,1,3,3,4,4,5,5,6,6,7,7,8,8,11,11,13,13,14,14,15,15,16,16],"right_children":[2,4,-1,6,8,10,12,14,16,-1,-1,18,-1,20,22,24,26,-1,-1,-1,-1,-1,-1,-1,-1,-1,-1],"split_conditions":[3.5308548E2,6.9285855E-2,-1.1356306E-1,4.424784E1,7.8380905E-2,-4.4699818E-2,5.2445006E-2,2.9218802E-2,1.4662184E1,-0E0,1.2173655E-1,1.6989393E-2,1.1403146E-1,-1.8597214E-2,2.3928335E0,4.5220763E-3,2.24769E1,3.2855596E-2,-8.4707946E-2,-3.979943E-2,-1.3265267E-1,8.0899134E-2,-1.09447874E-1,3.6696002E-2,-4.1035223E-3,-2.2960892E-2,1.5524852E-2],"split_indices":[1,4,0,2,4,3,18,3,1,0,0,14,0,3,0,14,0,0,0,0,0,0,0,0,0,0,0],"split_type":[0,0,0,0,0,0,0,0,0,0,0,0,0,0,0,0,0,0,0,0,0,0,0,0,0,0,0],"sum_hessian":[6.500072E2,6.4487646E2,5.130691E0,3.1130465E1,6.1374603E2,8.485454E0,2.264501E1,3.1773512E1,5.8197253E2,1.262681E0,7.222773E0,1.9627415E1,3.017596E0,2.1670395E1,1.0103118E1,2.1350108E2,3.6847144E2,1.44993925E1,5.1280212E0,1.1185863E1,1.0484531E1,8.112523E0,1.9905944E0,1.132314E2,1.00269684E2,2.2027567E2,1.4819577E2],"tree_param":{"num_deleted":"0","num_feature":"19","num_nodes":"27","size_leaf_vector":"1"}},{"base_weights":[7.971269E-4,2.142911E-2,-5.7688504E-1,4.8154005E-1,-1.047494E-2,4.720465E-1,-9.42507E-1,6.3967085E-1,-1.19257174E-1,-5.4557286E-2,2.896139E-1,1.05217375E-1,-1.4163825E-1,3.1442653E-2,-1.1212825E0,-1.851177E-1,8.649572E-1,6.9954395E-2,-3.390415E-1,1.2787555E-1,5.005326E-2,-0E0,-3.973958E-2,-0E0,-1.1935776E0,7.130304E-2,-6.1151642E-2,1.11617066E-1,-1.99702E-2,-1.4443052E-3,3.7656374E-2,-4.3282382E-2,8.96763E-3,-1.1573675E-2,7.269879E-2,-1.2922707E-1,-1.6380602E-2],"categories":[],"categories_nodes":[],"categories_segments":[],"categories_sizes":[],"default_left":[0,0,0,0,0,0,0,0,0,0,0,0,0,0,0,0,0,0,0,0,0,0,0,0,0,0,0,0,0,0,0,0,0,0,0,0,0],"id":9,"left_children":[1,3,5,7,9,11,13,15,-1,17,19,-1,21,-1,23,25,27,29,31,-1,33,-1,-1,-1,35,-1,-1,-1,-1,-1,-1,-1,-1,-1,-1,-1,-1],"loss_changes":[7.477417E0,9.4743595E0,8.964667E0,1.155897E1,7.6793966E0,2.7034535E0,4.5098543E0,7.7728043E0,0E0,1.8406033E1,1.6817112E1,0E0,2.8102088E-1,0E0,1.064024E0,3.7342596E0,9.07802E0,9.448786E0,6.5719967E0,0E0,7.241976E0,0E0,0E0,0E0,4.9884224E-1,0E0,0E0,0E0,0E0,0E0,0E0,0E0,0E0,0E0,0E0,0E0,0E0],"parents":[2147483647,0,0,1,1,2,2,3,3,4,4,5,5,6,6,7,7,9,9,10,10,12,12,14,14,15,15,16,16,17,17,18,18,20,20,24,24],"right_children":[2,4,6,8,10,12,14,16,-1,18,20,-1,22,-1,24,26,28,30,32,-1,34,-1,-1,-1,36,-1,-1,-1,-1,-1,-1,-1,-1,-1,-1,-1,-1],"split_conditions":[1.4726426E1,-5.9240645E-1,3.609799E1,2.288135E2,1.6667974E0,2.0416191E1,-1.1742172E-1,4.236092E0,-1.19257174E-1,6.1385727E-1,1.8023605E1,1.05217375E-1,9.844288E-1,3.1442653E-2,9.447851E-1,6.329046E-1,3.3353329E0,2.4962434E-1,8.571923E-1,1.2787555E-1,1.1938032E-1,-0E0,-3.973958E-2,-0E0,1.0354644E0,7.130304E-2,-6.1151642E-2,1.11617066E-1,-1.99702E-2,-1.4443052E-3,3.7656374E-2,-4.3282382E-2,8.96763E-3,-1.1573675E-2,7.269879E-2,-1.2922707E-1,-1.6380602E-2],"split_indices":[4,3,2,0,3,4,18,13,0,4,13,0,8,0,8,4,10,3,6,0,18,0,0,0,8,0,0,0,0,0,0,0,0,0,0,0,0],"split_type":[0,0,0,0,0,0,0,0,0,0,0,0,0,0,0,0,0,0,0,0,0,0,0,0,0,0,0,0,0,0,0,0,0,0,0,0,0],"sum_hessian":[6.486316E2,6.280299E2,2.0601725E1,4.0826115E1,5.8720374E2,4.8962584E0,1.5705467E1,3.8140106E1,2.6860116E0,5.1415936E2,7.3044426E1,2.56847E0,2.3277884E0,1.5129108E0,1.4192556E1,7.744796E0,3.039531E1,3.569345E2,1.5722484E2,1.2988807E1,6.0055622E1,1.1255755E0,1.2022127E0,1.0378175E0,1.3154738E1,1.8993206E0,5.845475E0,2.4933367E1,5.461942E0,2.793599E2,7.75746E1,1.2995401E2,2.7270832E1,4.8313442E1,1.1742181E1,1.1328559E1,1.8261794E0],"tree_param":{"num_deleted":"0","num_feature":"19","num_nodes":"37","size_leaf_vector":"1"}},{"base_weights":[8.6384185E-4,5.9881933E-2,-1.7462172E-1,1.9861741E-1,-5.3907905E-2,-1.19847625E-1,-1.1290753E0,-7.79095E-2,3.3498418E-1,-2.1529987E-1,2.1041034E-1,-3.6389723E-1,7.781744E-2,-0E0,-1.24345794E-1,-1.0534135E0,8.657329E-2,4.021239E-1,-5.747014E-1,1.0626527E-1,-3.5674167E-1,6.0022354E-1,-8.9379996E-2,5.34982E-1,-4.865651E-1,9.5640695E-1,-3.5273712E-3,2.8995449E-2,-1.2806836E-1,1.2870601E-1,-1.4137267E-2,2.0940838E-2,7.892193E-2,-9.6268035E-2,-4.651546E-3,-7.260443E-2,2.8064623E-2,-0E0,-5.5450596E-2,-8.26518E-2,7.118716E-2,9.8870255E-2,-1.8334692E-2,-4.6950962E-2,8.369925E-2,1.2785191E-2,-7.855055E-2,-7.235788E-3,1.369289E-1,4.3088593E-2,-1.2764612E-2],"categories":[],"categories_nodes":[],"categories_segments":[],"categories_sizes":[],"default_left":[0,0,0,0,0,0,0,0,0,0,0,0,0,0,0,0,0,0,0,0,0,0,0,0,0,0,0,0,0,0,0,0,0,0,0,0,0,0,0,0,0,0,0,0,0,0,0,0,0,0,0],"id":10,"left_children":[1,3,5,7,9,11,13,15,17,19,21,23,25,-1,-1,27,29,31,33,35,37,39,41,43,45,47,49,-1,-1,-1,-1,-1,-1,-1,-1,-1,-1,-1,-1,-1,-1,-1,-1,-1,-1,-1,-1,-1,-1,-1,-1],"loss_changes":[6.655768E0,7.7739587E0,7.6571603E0,8.515444E0,1.1414508E1,7.5943284E0,4.3963432E-1,1.2260065E1,9.29957E0,7.7637186E0,1.2036017E1,7.972925E0,6.5338492E0,0E0,0E0,4.231942E0,1.7941177E1,9.830708E0,1.5413096E0,7.3453956E0,8.12705E0,7.6162434E0,5.5397077E0,3.1287901E0,1.19555645E1,4.0193653E0,4.1093817E0,0E0,0E0,0E0,0E0,0E0,0E0,0E0,0E0,0E0,0E0,0E0,0E0,0E0,0E0,0E0,0E0,0E0,0E0,0E0,0E0,0E0,0E0,0E0,0E0],"parents":[2147483647,0,0,1,1,2,2,3,3,4,4,5,5,6,6,7,7,8,8,9,9,10,10,11,11,12,12,15,15,16,16,17,17,18,18,19,19,20,20,21,21,22,22,23,23,24,24,25,25,26,26],"right_children":[2,4,6,8,10,12,14,16,18,20,22,24,26,-1,-1,28,30,32,34,36,38,40,42,44,46,48,50,-1,-1,-1,-1,-1,-1,-1,-1,-1,-1,-1,-1,-1,-1,-1,-1,-1,-1,-1,-1,-1,-1,-1,-1],"split_conditions":[4.0027358E-2,1.4964057E1,1.3154523E1,-5.609748E-2,6.721411E-1,8.239882E-2,1.0374796E0,1.0519051E-1,8.722539E-2,1.0226995E0,2.3552746E1,7.309522E-2,-4.329464E-1,-0E0,-1.24345794E-1,-1.10000014E-1,2.8980014E9,2.6097333E0,1.0168019E-1,1.55967E1,-1.3574363E-1,1.629498E1,-1.15072094E-1,1.8241939E-1,-2.2380239E-1,-5.656777E-1,2.2126071E0,2.8995449E-2,-1.2806836E-1,1.2870601E-1,-1.4137267E-2,2.0940838E-2,7.892193E-2,-9.6268035E-2,-4.651546E-3,-7.260443E-2,2.8064623E-2,-0E0,-5.5450596E-2,-8.26518E-2,7.118716E-2,9.8870255E-2,-1.8334692E-2,-4.6950962E-2,8.369925E-2,1.2785191E-2,-7.855055E-2,-7.235788E-3,1.369289E-1,4.3088593E-2,-1.2764612E-2],"split_indices":[16,1,4,3,6,3,9,4,18,9,13,4,12,0,0,10,5,0,18,0,3,1,16,13,3,12,13,0,0,0,0,0,0,0,0,0,0,0,0,0,0,0,0,0,0,0,0,0,0,0,0],"split_type":[0,0,0,0,0,0,0,0,0,0,0,0,0,0,0,0,0,0,0,0,0,0,0,0,0,0,0,0,0,0,0,0,0,0,0,0,0,0,0,0,0,0,0,0,0,0,0,0,0,0,0],"sum_hessian":[6.461754E2,4.8617606E2,1.5999937E2,2.2071872E2,2.6545734E2,1.528756E2,7.123784E0,7.182758E1,1.4889114E2,1.6610886E2,9.934849E1,6.9166664E1,8.370892E1,1.1414987E0,5.982285E0,1.0022459E1,6.1805126E1,1.3968893E2,9.202204E0,4.9739883E1,1.1636897E2,4.3479015E1,5.5869473E1,7.412495E0,6.175417E1,6.702776E0,7.700615E1,1.0919894E0,8.9304695E0,9.471299E0,5.2333828E1,9.515076E1,4.453818E1,4.2852335E0,4.9169703E0,7.571369E0,4.2168514E1,4.235855E1,7.401042E1,2.3657706E0,4.1113243E1,3.289235E0,5.258024E1,1.2025632E0,6.209932E0,1.9851925E1,4.1902245E1,1.8090285E0,4.8937473E0,1.5668106E1,6.1338043E1],"tree_param":{"num_deleted":"0","num_feature":"19","num_nodes":"51","size_leaf_vector":"1"}},{"base_weights":[4.668788E-4,3.5807508E-1,-2.6715036E-2,-0E0,8.7795067E-1,-4.56179E-3,-6.780286E-1,3.3773258E-1,-5.3486586E-1,1.136351E0,-0E0,-5.9761684E-2,2.597039E-1,-9.6655674E-2,-1.2602995E-1,-1.9459848E-1,6.4297324E-1,-8.335625E-1,3.7671778E-1,1.2239375E0,-0E0,-3.546431E-1,7.946148E-2,-2.2310914E-2,-1.0361859E0,7.355016E-1,-2.8422493E-2,-4.1197106E-1,9.539297E-2,8.361109E-2,-9.0312734E-2,9.453525E-2,-2.9084926E-2,4.6708513E-2,-1.1005665E-1,8.2109086E-2,-0E0,1.3014151E-1,-0E0,8.78491E-4,-8.425396E-2,-6.4270024E-4,-1.2032554E-1,3.952364E-2,-1.18723266E-1,-5.686565E-2,8.8190004E-2,-2.1399362E-2,6.027775E-2,3.581375E-2,-7.62447E-2],"categories":[],"categories_nodes":[],"categories_segments":[],"categories_sizes":[],"default_left":[0,0,0,0,0,0,0,0,0,0,0,0,0,0,0,0,0,0,0,0,0,0,0,0,0,0,0,0,0,0,0,0,0,0,0,0,0,0,0,0,0,0,0,0,0,0,0,0,0,0,0],"id":11,"left_children":[1,3,5,7,9,11,13,15,17,19,21,23,25,27,-1,29,31,33,35,37,-1,39,-1,41,43,45,47,49,-1,-1,-1,-1,-1,-1,-1,-1,-1,-1,-1,-1,-1,-1,-1,-1,-1,-1,-1,-1,-1,-1,-1],"loss_changes":[6.442489E0,9.111995E0,8.295988E0,5.3758163E0,4.0682E0,8.389148E0,5.614254E0,3.1861284E0,3.763686E0,8.977089E-1,2.0537539E0,1.7105932E1,1.39452095E1,3.7641315E0,0E0,5.559736E0,3.969542E0,4.1768265E0,9.2575777E-1,8.210926E-1,0E0,1.2009168E0,0E0,8.139346E0,4.6104584E0,7.9186954E0,7.1925592E0,3.0449584E0,0E0,0E0,0E0,0E0,0E0,0E0,0E0,0E0,0E0,0E0,0E0,0E0,0E0,0E0,0E0,0E0,0E0,0E0,0E0,0E0,0E0,0E0,0E0],"parents":[2147483647,0,0,1,1,2,2,3,3,4,4,5,5,6,6,7,7,8,8,9,9,10,10,11,11,12,12,13,13,15,15,16,16,17,17,18,18,19,19,21,21,23,23,24,24,25,25,26,26,27,27],"right_children":[2,4,6,8,10,12,14,16,18,20,22,24,26,28,-1,30,32,34,36,38,-1,40,-1,42,44,46,48,50,-1,-1,-1,-1,-1,-1,-1,-1,-1,-1,-1,-1,-1,-1,-1,-1,-1,-1,-1,-1,-1,-1,-1],"split_conditions":[2.8368784E1,-3.2266617E-1,1.4726426E1,-4.0904793E-1,7.0831277E-3,7.585803E0,8.4884595E-3,-9.744242E-2,-2.7363233E-2,1.0205578E0,5.3333044E-2,5.9840205E9,2.3552746E1,1.4608256E1,-1.2602995E-1,-1.2243414E-1,-5.5200005E-1,-3.0317467E-1,-1.4295783E-2,4.1684832E-2,-0E0,-1.1903063E-2,7.946148E-2,7.094555E0,5.809049E-1,-5.5945333E-2,1.1938032E-1,3.609799E1,9.539297E-2,8.361109E-2,-9.0312734E-2,9.453525E-2,-2.9084926E-2,4.6708513E-2,-1.1005665E-1,8.2109086E-2,-0E0,1.3014151E-1,-0E0,8.78491E-4,-8.425396E-2,-6.4270024E-4,-1.2032554E-1,3.952364E-2,-1.18723266E-1,-5.686565E-2,8.8190004E-2,-2.1399362E-2,6.027775E-2,3.581375E-2,-7.62447E-2],"split_indices":[2,10,4,3,14,13,17,17,17,8,10,5,13,3,0,16,10,12,15,18,0,17,0,13,4,17,18,2,0,0,0,0,0,0,0,0,0,0,0,0,0,0,0,0,0,0,0,0,0,0,0],"split_type":[0,0,0,0,0,0,0,0,0,0,0,0,0,0,0,0,0,0,0,0,0,0,0,0,0,0,0,0,0,0,0,0,0,0,0,0,0,0,0,0,0,0,0,0,0,0,0,0,0,0,0],"sum_hessian":[6.437465E2,4.5914303E1,5.978322E2,2.7288857E1,1.8625446E1,5.7988324E2,1.794899E1,1.6458523E1,1.0830335E1,1.3865282E1,4.760163E0,4.818915E2,9.7991745E1,9.9945545E0,7.9544353E0,5.5332003E0,1.0925322E1,8.635006E0,2.1953292E0,1.2413115E1,1.4521679E0,3.379983E0,1.3801801E0,4.655695E2,1.6322006E1,3.702807E1,6.096368E1,8.520932E0,1.473623E0,1.8932713E0,3.6399288E0,8.648088E0,2.2772334E0,1.0241432E0,7.6108623E0,1.0457538E0,1.1495752E0,1.1348394E1,1.0647204E0,1.9125413E0,1.4674416E0,4.6080048E2,4.7690153E0,1.087666E0,1.5234341E1,3.101288E0,3.392678E1,4.823564E1,1.2728037E1,2.211988E0,6.3089437E0],"tree_param":{"num_deleted":"0","num_feature":"19","num_nodes":"51","size_leaf_vector":"1"}},{"base_weights":[5.075484E-4,4.1896093E-1,-2.025525E-2,7.049649E-1,-0E0,-1.2887834E-1,-1.0154563E-2,-7.918287E-3,8.951351E-1,7.879169E-2,-3.3525473E-1,4.5098498E-1,-3.9020617E-2,4.546681E-2,-5.9291948E-2,1.029117E0,-1.1815669E-2,-7.074187E-1,6.29228E-2,-3.714647E-1,7.288642E-1,-6.165246E-1,-0E0,4.9544754E-3,1.1617752E-1,-1.16201535E-1,-0E0,9.718134E-2,-9.253648E-2,1.545497E-1,5.8580707E-3,-1.3615683E-1,-3.5374116E-2,1.593283E-2,-7.599288E-3],"categories":[],"categories_nodes":[],"categories_segments":[],"categories_sizes":[],"default_left":[0,0,0,0,0,0,0,0,0,0,0,0,0,0,0,0,0,0,0,0,0,0,0,0,0,0,0,0,0,0,0,0,0,0,0],"id":12,"left_children":[1,3,5,7,9,-1,11,13,15,-1,17,19,21,-1,-1,23,-1,25,-1,27,29,31,33,-1,-1,-1,-1,-1,-1,-1,-1,-1,-1,-1,-1],"loss_changes":[5.7934E0,4.059815E0,7.1829805E0,3.070056E0,3.5878167E0,0E0,7.916486E0,1.5581803E0,2.7241478E0,0E0,4.198721E0,8.43188E0,1.2848507E1,0E0,0E0,1.2219133E0,0E0,3.0075822E0,0E0,7.5937915E0,1.3831269E1,5.7296886E0,6.5338316E0,0E0,0E0,0E0,0E0,0E0,0E0,0E0,0E0,0E0,0E0,0E0,0E0],"parents":[2147483647,0,0,1,1,2,2,3,3,4,4,6,6,7,7,8,8,10,10,11,11,12,12,15,15,17,17,19,19,20,20,21,21,22,22],"right_children":[2,4,6,8,10,-1,12,14,16,-1,18,20,22,-1,-1,24,-1,26,-1,28,30,32,34,-1,-1,-1,-1,-1,-1,-1,-1,-1,-1,-1,-1],"split_conditions":[6.9285855E-2,3.537923E-2,1.3838667E0,-2.3171164E-2,1.3690666E0,-1.2887834E-1,1.858617E0,-4.6665907E-2,2.4550343E-2,7.879169E-2,3.5434276E-2,-5.609748E-2,3.8078898E-1,4.546681E-2,-5.9291948E-2,-2.4390502E-2,-1.1815669E-2,1.8509334E0,6.29228E-2,-5.8076933E-2,2.1198362E-2,-2.849551E-2,1.4698646E1,4.9544754E-3,1.1617752E-1,-1.16201535E-1,-0E0,9.718134E-2,-9.253648E-2,1.545497E-1,5.8580707E-3,-1.3615683E-1,-3.5374116E-2,1.593283E-2,-7.599288E-3],"split_indices":[4,6,0,15,7,0,1,10,14,0,18,3,13,0,0,16,0,7,0,15,18,17,1,0,0,0,0,0,0,0,0,0,0,0,0],"split_type":[0,0,0,0,0,0,0,0,0,0,0,0,0,0,0,0,0,0,0,0,0,0,0,0,0,0,0,0,0,0,0,0,0,0,0],"sum_hessian":[6.4188574E2,3.0575253E1,6.113105E2,1.8321203E1,1.2254048E1,3.4380372E0,6.0787244E2,3.5063257E0,1.4814878E1,2.9056935E0,9.348355E0,3.3927692E1,5.7394476E2,1.6051525E0,1.9011732E0,1.3506777E1,1.3081015E0,7.3118734E0,2.0364819E0,8.028704E0,2.5898989E1,3.510584E1,5.388389E2,2.2243485E0,1.1282428E1,4.3079276E0,3.0039458E0,1.8602291E0,6.168474E0,1.0750068E1,1.5148921E1,7.567219E0,2.753862E1,1.7291272E2,3.6592618E2],"tree_param":{"num_deleted":"0","num_feature":"19","num_nodes":"35","size_leaf_vector":"1"}},{"base_weights":[5.362659E-4,3.268625E-1,-2.5272299E-2,3.373172E-2,8.852403E-1,3.3580534E-2,-1.973023E-1,6.4305496E-1,-1.7549129E-1,1.1154683E0,-5.0805505E-2,1.6434148E-1,-8.06181E-2,-5.9059125E-1,-9.5158E-2,8.900318E-1,-1.4408456E-2,-4.1698167E-1,1.0376278E-1,1.2507596E0,-0E0,2.0703644E-1,-4.4231424E-1,-2.5746244E-1,1.7456058E-1,2.2471383E-1,-8.042354E-1,-3.4117777E-2,-1.0212051E0,-0E0,1.0557901E-1,-7.485195E-2,2.4444211E-2,-0E0,1.3541408E-1,1.16067445E-2,9.669726E-2,9.408749E-2,-7.048252E-2,-0E0,-3.9794423E-2,4.0794805E-2,-2.2719951E-2,6.1051138E-2,-1.6241074E-2,-9.513333E-2,2.7095646E-2,-4.3709498E-2,8.206116E-3,-0E0,-1.1483438E-1],"categories":[],"categories_nodes":[],"categories_segments":[],"categories_sizes":[],"default_left":[0,0,0,0,0,0,0,0,0,0,0,0,0,0,0,0,0,0,0,0,0,0,0,0,0,0,0,0,0,0,0,0,0,0,0,0,0,0,0,0,0,0,0,0,0,0,0,0,0,0,0],"id":13,"left_children":[1,3,5,7,9,11,13,15,17,19,-1,21,23,25,27,29,-1,31,-1,33,-1,35,37,39,41,43,45,47,49,-1,-1,-1,-1,-1,-1,-1,-1,-1,-1,-1,-1,-1,-1,-1,-1,-1,-1,-1,-1,-1,-1],"loss_changes":[5.5635223E0,7.4528728E0,6.1042733E0,4.610498E0,6.027646E0,6.6466126E0,5.778231E0,2.323603E0,7.4673514E0,2.2067127E0,0E0,5.3653708E0,1.0657772E1,5.783453E0,6.461927E0,1.3542185E0,0E0,5.252013E0,0E0,1.4249859E0,0E0,1.2890274E1,5.350799E0,4.983341E0,9.121765E0,1.3132378E0,4.531828E0,5.743708E0,4.9527216E-1,0E0,0E0,0E0,0E0,0E0,0E0,0E0,0E0,0E0,0E0,0E0,0E0,0E0,0E0,0E0,0E0,0E0,0E0,0E0,0E0,0E0,0E0],"parents":[2147483647,0,0,1,1,2,2,3,3,4,4,5,5,6,6,7,7,8,8,9,9,11,11,12,12,13,13,14,14,15,15,17,17,19,19,21,21,22,22,23,23,24,24,25,25,26,26,27,27,28,28],"right_children":[2,4,6,8,10,12,14,16,18,20,-1,22,24,26,28,30,-1,32,-1,34,-1,36,38,40,42,44,46,48,50,-1,-1,-1,-1,-1,-1,-1,-1,-1,-1,-1,-1,-1,-1,-1,-1,-1,-1,-1,-1,-1,-1],"split_conditions":[1.0184487E0,4.6302164E-1,4.0027358E-2,3.4049654E9,3.3673523E1,1.5001075E1,4.888714E-2,6.607151E1,6.890305E1,6.618238E-2,-5.0805505E-2,4.214502E9,6.721411E-1,-1.0712744E-3,1.3154523E1,1.5581334E0,-1.4408456E-2,2.655169E0,1.0376278E-1,-1.1029338E-2,-0E0,1.40844E1,9.766879E-1,-1.3574363E-1,2.1849733E2,6.9780266E1,4.124035E-2,6.686432E-1,1.0374796E0,-0E0,1.0557901E-1,-7.485195E-2,2.4444211E-2,-0E0,1.3541408E-1,1.16067445E-2,9.669726E-2,9.408749E-2,-7.048252E-2,-0E0,-3.9794423E-2,4.0794805E-2,-2.2719951E-2,6.1051138E-2,-1.6241074E-2,-9.513333E-2,2.7095646E-2,-4.3709498E-2,8.206116E-3,-0E0,-1.1483438E-1],"split_indices":[9,3,16,5,13,1,16,2,2,18,0,5,6,14,4,0,0,13,0,14,0,7,8,3,7,2,14,13,9,0,0,0,0,0,0,0,0,0,0,0,0,0,0,0,0,0,0,0,0,0,0],"split_type":[0,0,0,0,0,0,0,0,0,0,0,0,0,0,0,0,0,0,0,0,0,0,0,0,0,0,0,0,0,0,0,0,0,0,0,0,0,0,0,0,0,0,0,0,0,0,0,0,0,0,0],"sum_hessian":[6.407074E2,4.7523514E1,5.931839E2,3.2446163E1,1.5077353E1,4.404133E2,1.5277057E2,8.374178E0,2.4071983E1,1.3418368E1,1.6589847E0,2.071544E2,2.3325891E2,2.9501842E1,1.2326873E2,6.758189E0,1.6159887E0,2.0966673E1,3.1053114E0,1.1878453E1,1.5399152E0,1.9491937E2,1.2235033E1,1.3892874E2,9.433016E1,5.628875E0,2.3872969E1,1.1712521E2,6.143516E0,1.0299486E0,5.7282405E0,1.4381987E1,6.5846863E0,1.114225E0,1.0764228E1,1.7569794E2,1.922143E1,1.235624E0,1.0999409E1,4.98882E1,8.904054E1,6.044565E1,3.3884514E1,3.1771495E0,2.4517255E0,2.151035E1,2.3626187E0,2.6555723E1,9.056949E1,1.118645E0,5.0248713E0],"tree_param":{"num_deleted":"0","num_feature":"19","num_nodes":"51","size_leaf_vector":"1"}},{"base_weights":[6.593549E-4,3.2286504E-1,-2.348331E-2,-4.008163E-3,8.0894154E-1,-4.690289E-3,-5.86704E-1,2.9859567E-1,-4.902475E-1,1.0520113E0,-0E0,-5.477252E-2,2.3532204E-1,-4.895103E-2,-1.13737024E-1,-1.8175931E-1,5.791129E-1,-7.728642E-1,3.524533E-1,1.1359639E0,-0E0,7.318214E-2,-3.5938784E-1,-2.3993136E-2,-1.0114342E0,8.5590744E-1,3.1280916E-2,-3.53512E-1,9.169448E-2,7.80833E-2,-8.375864E-2,8.671736E-2,-2.7838355E-2,4.42233E-2,-1.02969825E-1,7.852092E-2,-0E0,1.2019285E-1,-0E0,-8.60257E-2,3.60441E-3,-9.513774E-4,-1.0984971E-1,-4.149435E-2,-1.3769828E-1,-0E0,1.2238115E-1,-4.534229E-2,2.1958688E-2,3.6168233E-2,-6.97198E-2],"categories":[],"categories_nodes":[],"categories_segments":[],"categories_sizes":[],"default_left":[0,0,0,0,0,0,0,0,0,0,0,0,0,0,0,0,0,0,0,0,0,0,0,0,0,0,0,0,0,0,0,0,0,0,0,0,0,0,0,0,0,0,0,0,0,0,0,0,0,0,0],"id":14,"left_children":[1,3,5,7,9,11,13,15,17,19,21,23,25,27,-1,29,31,33,35,37,-1,-1,39,41,43,45,47,49,-1,-1,-1,-1,-1,-1,-1,-1,-1,-1,-1,-1,-1,-1,-1,-1,-1,-1,-1,-1,-1,-1,-1],"loss_changes":[5.133899E0,7.731389E0,5.9957237E0,4.354422E0,3.4560862E0,6.8621893E0,4.7802663E0,2.6235747E0,3.277033E0,7.9751015E-1,1.8743124E0,1.3597271E1,1.1955862E1,3.2136633E0,0E0,4.75465E0,3.4416423E0,3.7276087E0,8.639876E-1,4.8900986E-1,0E0,0E0,1.280426E0,6.6972623E0,1.6806259E0,7.3446884E0,6.873423E0,2.708622E0,0E0,0E0,0E0,0E0,0E0,0E0,0E0,0E0,0E0,0E0,0E0,0E0,0E0,0E0,0E0,0E0,0E0,0E0,0E0,0E0,0E0,0E0,0E0],"parents":[2147483647,0,0,1,1,2,2,3,3,4,4,5,5,6,6,7,7,8,8,9,9,10,10,11,11,12,12,13,13,15,15,16,16,17,17,18,18,19,19,22,22,23,23,24,24,25,25,26,26,27,27],"right_children":[2,4,6,8,10,12,14,16,18,20,22,24,26,28,-1,30,32,34,36,38,-1,-1,40,42,44,46,48,50,-1,-1,-1,-1,-1,-1,-1,-1,-1,-1,-1,-1,-1,-1,-1,-1,-1,-1,-1,-1,-1,-1,-1],"split_conditions":[2.8368784E1,-3.2266617E-1,1.4726426E1,-4.0904793E-1,7.0831277E-3,7.585803E0,8.4884595E-3,-9.744242E-2,-2.7363233E-2,1.0205578E0,-8.1901807E-1,6.003357E9,1.8023605E1,1.4608256E1,-1.13737024E-1,-1.2243414E-1,-5.5200005E-1,-3.0317467E-1,-1.4295783E-2,4.1684832E-2,-0E0,7.318214E-2,1.7273078E-2,7.094555E0,1.5136157E-1,2.1788866E1,-1.3149987E-2,3.609799E1,9.169448E-2,7.80833E-2,-8.375864E-2,8.671736E-2,-2.7838355E-2,4.42233E-2,-1.02969825E-1,7.852092E-2,-0E0,1.2019285E-1,-0E0,-8.60257E-2,3.60441E-3,-9.513774E-4,-1.0984971E-1,-4.149435E-2,-1.3769828E-1,-0E0,1.2238115E-1,-4.534229E-2,2.1958688E-2,3.6168233E-2,-6.97198E-2],"split_indices":[2,10,4,3,14,13,17,17,17,8,3,5,13,3,0,16,10,12,15,18,0,0,14,13,3,0,18,2,0,0,0,0,0,0,0,0,0,0,0,0,0,0,0,0,0,0,0,0,0,0,0],"split_type":[0,0,0,0,0,0,0,0,0,0,0,0,0,0,0,0,0,0,0,0,0,0,0,0,0,0,0,0,0,0,0,0,0,0,0,0,0,0,0,0,0,0,0,0,0,0,0,0,0,0,0],"sum_hessian":[6.387594E2,4.51067E1,5.936527E2,2.6948008E1,1.8158693E1,5.763187E2,1.7333982E1,1.621466E1,1.0733346E1,1.3450957E1,4.707736E0,4.7918457E2,9.713414E1,9.780107E0,7.5538764E0,5.4506526E0,1.07640085E1,8.544109E0,2.1892369E0,1.2011937E1,1.4390202E0,1.4801586E0,3.2275774E0,4.6574747E2,1.3437107E1,2.2637514E1,7.449663E1,8.311143E0,1.4689636E0,1.8225679E0,3.6280844E0,8.485323E0,2.2786858E0,1.0251963E0,7.518913E0,1.0438863E0,1.1453505E0,1.0961379E1,1.0505575E0,1.4631938E0,1.7643836E0,4.6100937E2,4.738097E0,6.436751E0,7.000356E0,7.17176E0,1.5465754E1,1.9707058E1,5.478957E1,2.208396E0,6.102747E0],"tree_param":{"num_deleted":"0","num_feature":"19","num_nodes":"51","size_leaf_vector":"1"}},{"base_weights":[5.250971E-4,3.8132203E-1,-1.8060848E-2,9.454269E-1,1.2631518E-1,-5.4765505E-1,7.705173E-4,-0E0,1.0834183E-1,-2.4646416E-2,1.0144504E-1,-0E0,-1.1145427E0,6.418736E-1,-2.4409762E-2,2.43108E-1,-7.603474E-1,-1.2049985E-1,6.2152874E-1,-2.0612586E-1,-1.3422583E-1,9.573404E-1,-4.0520284E-1,-6.432319E-1,-3.180273E-3,-3.1744685E-2,8.1775084E-2,-0E0,-1.18397735E-1,1.1988791E-1,-0E0,3.0269494E-2,-9.1218814E-2,4.222382E-3,1.2349943E-1,3.632717E-2,-1.1504131E-1,-1.1567519E-1,-0E0,1.7865287E-2,-5.5143307E-3],"categories":[],"categories_nodes":[],"categories_segments":[],"categories_sizes":[],"default_left":[0,0,0,0,0,0,0,0,0,0,0,0,0,0,0,0,0,0,0,0,0,0,0,0,0,0,0,0,0,0,0,0,0,0,0,0,0,0,0,0,0],"id":15,"left_children":[1,3,5,7,9,11,13,-1,-1,15,-1,17,19,21,23,25,27,-1,29,31,-1,33,35,37,39,-1,-1,-1,-1,-1,-1,-1,-1,-1,-1,-1,-1,-1,-1,-1,-1],"loss_changes":[4.701029E0,3.7995276E0,6.333645E0,1.2403884E0,3.615934E0,6.8663106E0,9.797894E0,0E0,0E0,4.4289427E0,0E0,9.674695E0,1.1802282E0,8.249774E0,7.0957036E0,5.371488E0,1.9877794E0,0E0,3.5498073E0,1.9400321E0,0E0,3.962162E0,4.048653E0,6.2860665E0,5.125247E0,0E0,0E0,0E0,0E0,0E0,0E0,0E0,0E0,0E0,0E0,0E0,0E0,0E0,0E0,0E0,0E0],"parents":[2147483647,0,0,1,1,2,2,3,3,4,4,5,5,6,6,9,9,11,11,12,12,13,13,14,14,15,15,16,16,18,18,19,19,21,21,22,22,23,23,24,24],"right_children":[2,4,6,8,10,12,14,-1,-1,16,-1,18,20,22,24,26,28,-1,30,32,-1,34,36,38,40,-1,-1,-1,-1,-1,-1,-1,-1,-1,-1,-1,-1,-1,-1,-1,-1],"split_conditions":[6.9285855E-2,4.424784E1,-2.88369E8,-8.0667496E-2,5.2445006E-2,-3.520725E8,-2.102175E8,-0E0,1.0834183E-1,1.6989393E-2,1.0144504E-1,1.3838667E0,9.8349243E-1,5.0251085E-2,7.714289E-2,-1.0684776E-2,7.401926E-3,-1.2049985E-1,1.6968E0,5.5774033E-1,-1.3422583E-1,1.0308901E0,-2.5494197E-1,2.9218802E-2,-2.5778502E-1,-3.1744685E-2,8.1775084E-2,-0E0,-1.18397735E-1,1.1988791E-1,-0E0,3.0269494E-2,-9.1218814E-2,4.222382E-3,1.2349943E-1,3.632717E-2,-1.1504131E-1,-1.1567519E-1,-0E0,1.7865287E-2,-5.5143307E-3],"split_indices":[4,2,5,10,18,5,5,0,0,14,0,0,8,18,4,15,3,0,0,13,0,9,12,3,3,0,0,0,0,0,0,0,0,0,0,0,0,0,0,0,0],"split_type":[0,0,0,0,0,0,0,0,0,0,0,0,0,0,0,0,0,0,0,0,0,0,0,0,0,0,0,0,0,0,0,0,0,0,0,0,0,0,0,0,0],"sum_hessian":[6.3658813E2,2.9968376E1,6.0661975E2,7.876485E0,2.209189E1,2.077703E1,5.858427E2,1.0604059E0,6.816079E0,1.9232159E1,2.8597317E0,1.0991529E1,9.7855015E0,2.1965115E1,5.638776E2,1.4093014E1,5.1391444E0,3.3689508E0,7.622579E0,2.78326E0,7.0022416E0,1.7312397E1,4.652718E0,1.694993E1,5.469277E2,6.9200687E0,7.1729455E0,2.189236E0,2.9499087E0,3.7871976E0,3.8353813E0,1.5380265E0,1.2452337E0,4.7173634E0,1.2595034E1,2.212608E0,2.4401097E0,9.2481575E0,7.7017736E0,1.1887847E2,4.2804922E2],"tree_param":{"num_deleted":"0","num_feature":"19","num_nodes":"41","size_leaf_vector":"1"}},{"base_weights":[2.9782645E-4,3.010502E-1,-2.337996E-2,-0E0,7.044458E-1,2.870662E-2,-1.7591174E-1,6.1082697E-1,-2.6550087E-1,1.087574E0,9.292914E-3,1.4704774E-1,-7.227297E-2,-5.249753E-1,-8.4716134E-2,-7.185243E-3,8.0651057E-1,-7.2888505E-1,5.430222E-1,-0E0,1.1936545E0,-5.9248227E-1,8.216479E-1,1.0685792E-1,8.596923E-1,-2.2644642E-1,1.5499516E-1,2.1073698E-1,-7.2025955E-1,-5.039201E-1,1.6374914E-2,1.0450353E-1,-0E0,-9.727251E-2,3.2114383E-2,9.089167E-2,-3.151415E-2,1.483107E-1,5.024448E-2,-0E0,-8.126857E-2,1.0489762E-1,-0E0,1.5049698E-2,-6.30924E-2,1.1157811E-1,-3.622111E-2,-2.7030999E-2,5.080945E-2,4.587213E-2,-9.9511845E-3,5.710422E-2,-1.4115664E-2,4.2061653E-2,-8.538468E-2,-2.0698968E-2,-1.2395928E-1,-2.5938874E-2,1.8049821E-2],"categories":[],"categories_nodes":[],"categories_segments":[],"categories_sizes":[],"default_left":[0,0,0,0,0,0,0,0,0,0,0,0,0,0,0,0,0,0,0,0,0,0,0,0,0,0,0,0,0,0,0,0,0,0,0,0,0,0,0,0,0,0,0,0,0,0,0,0,0,0,0,0,0,0,0,0,0,0,0],"id":16,"left_children":[1,3,5,7,9,11,13,15,17,19,21,23,25,27,29,-1,31,33,35,-1,37,39,41,43,45,47,49,51,53,55,57,-1,-1,-1,-1,-1,-1,-1,-1,-1,-1,-1,-1,-1,-1,-1,-1,-1,-1,-1,-1,-1,-1,-1,-1,-1,-1,-1,-1],"loss_changes":[4.677149E0,6.0057926E0,4.7602334E0,4.6479597E0,5.002124E0,5.2782674E0,4.5078526E0,1.569252E0,8.210783E0,1.5778961E0,4.9477024E0,5.271195E0,8.289236E0,4.756671E0,5.4774003E0,0E0,1.7357006E0,4.202749E0,2.9976509E0,0E0,6.407852E-1,9.420965E-1,7.0437217E-1,6.13405E0,3.93857E0,4.5764465E0,7.498117E0,1.1307895E0,4.338723E0,4.470298E0,4.5040894E0,0E0,0E0,0E0,0E0,0E0,0E0,0E0,0E0,0E0,0E0,0E0,0E0,0E0,0E0,0E0,0E0,0E0,0E0,0E0,0E0,0E0,0E0,0E0,0E0,0E0,0E0,0E0,0E0],"parents":[2147483647,0,0,1,1,2,2,3,3,4,4,5,5,6,6,7,7,8,8,9,9,10,10,11,11,12,12,13,13,14,14,16,16,17,17,18,18,20,20,21,21,22,22,23,23,24,24,25,25,26,26,27,27,28,28,29,29,30,30],"right_children":[2,4,6,8,10,12,14,16,18,20,22,24,26,28,30,-1,32,34,36,-1,38,40,42,44,46,48,50,52,54,56,58,-1,-1,-1,-1,-1,-1,-1,-1,-1,-1,-1,-1,-1,-1,-1,-1,-1,-1,-1,-1,-1,-1,-1,-1,-1,-1,-1,-1],"split_conditions":[1.0184487E0,2.621313E-1,4.0027358E-2,3.4049654E9,5.037366E9,1.4964057E1,4.888714E-2,1.5581334E0,2.5920663E0,2.6208586E9,2.288135E2,4.0520844E0,6.721411E-1,-1.0712744E-3,4.8253933E1,-7.185243E-3,6.152031E-2,2.0528225E1,3.4829006E-2,-0E0,7.4362904E-3,2.8290265E-4,3.033447E1,3.571674E-2,4.214502E9,7.585803E0,2.7339091E0,6.9780266E1,7.309522E-2,1.0613645E0,4.830002E-1,1.0450353E-1,-0E0,-9.727251E-2,3.2114383E-2,9.089167E-2,-3.151415E-2,1.483107E-1,5.024448E-2,-0E0,-8.126857E-2,1.0489762E-1,-0E0,1.5049698E-2,-6.30924E-2,1.1157811E-1,-3.622111E-2,-2.7030999E-2,5.080945E-2,4.587213E-2,-9.9511845E-3,5.710422E-2,-1.4115664E-2,4.2061653E-2,-8.538468E-2,-2.0698968E-2,-1.2395928E-1,-2.5938874E-2,1.8049821E-2],"split_indices":[9,3,16,5,5,1,16,0,13,5,0,13,6,14,2,0,18,1,17,0,14,15,13,14,5,13,6,2,4,6,4,0,0,0,0,0,0,0,0,0,0,0,0,0,0,0,0,0,0,0,0,0,0,0,0,0,0,0,0],"split_type":[0,0,0,0,0,0,0,0,0,0,0,0,0,0,0,0,0,0,0,0,0,0,0,0,0,0,0,0,0,0,0,0,0,0,0,0,0,0,0,0,0,0,0,0,0,0,0,0,0,0,0,0,0,0,0,0,0,0,0],"sum_hessian":[6.3531226E2,4.7053005E1,5.882592E2,2.7174368E1,1.9878637E1,4.3667664E2,1.5158261E2,7.56337E0,1.9610998E1,1.1987848E1,7.890789E0,2.0312425E2,2.3355237E2,2.9277956E1,1.2230466E2,1.2567227E0,6.3066473E0,1.2921997E1,6.6890006E0,1.0984504E0,1.0889398E1,4.3348165E0,3.5559728E0,1.9403325E2,9.091013E0,1.4046667E2,9.3085686E1,5.5876365E0,2.369032E1,2.3950022E1,9.835463E1,4.9412007E0,1.3654466E0,1.0932928E1,1.9890697E0,5.056545E0,1.6324561E0,6.357909E0,4.531489E0,1.0729176E0,3.2618988E0,2.4353888E0,1.1205839E0,1.8458873E2,9.444515E0,7.9259295E0,1.1650833E0,1.3379002E2,6.6766534E0,4.2969048E1,5.0116642E1,3.1551657E0,2.4324708E0,1.8656445E0,2.1824675E1,1.846018E1,5.489841E0,3.5343216E1,6.3011414E1],"tree_param":{"num_deleted":"0","num_feature":"19","num_nodes":"59","size_leaf_vector":"1"}},{"base_weights":[6.394752E-4,8.632425E-3,-9.145616E-2,2.955646E-1,-1.1820713E-2,6.30914E-1,6.859635E-2,3.694026E-1,-3.2769814E-2,9.206159E-1,-1.1421495E-1,-7.5315684E-2,7.097061E-1,7.943483E-1,4.0566526E-2,-6.180985E-1,-1.1612803E-2,-0E0,1.04391694E-1,-9.2680626E-2,3.36567E-2,5.6380894E-2,-2.5215492E-2,1.0125542E-1,-5.9017516E-3,1.0023779E-1,-0E0,-1.3741115E-2,9.452895E-2,-1.1560145E-2,-1.1909347E-1,5.0993305E-2,-3.5230417E-3],"categories":[],"categories_nodes":[],"categories_segments":[],"categories_sizes":[],"default_left":[0,0,0,0,0,0,0,0,0,0,0,0,0,0,0,0,0,0,0,0,0,0,0,0,0,0,0,0,0,0,0,0,0],"id":17,"left_children":[1,3,-1,5,7,9,11,13,15,17,19,21,23,25,27,29,31,-1,-1,-1,-1,-1,-1,-1,-1,-1,-1,-1,-1,-1,-1,-1,-1],"loss_changes":[4.1938944E0,3.8437953E0,0E0,2.9253693E0,4.5365443E0,4.0887523E0,2.9551024E0,3.665073E0,6.602439E0,1.3313484E0,2.4568038E0,2.6020906E0,1.9026437E0,2.5034704E0,3.4833336E0,4.580985E0,6.450546E0,0E0,0E0,0E0,0E0,0E0,0E0,0E0,0E0,0E0,0E0,0E0,0E0,0E0,0E0,0E0,0E0],"parents":[2147483647,0,0,1,1,3,3,4,4,5,5,6,6,7,7,8,8,9,9,10,10,11,11,12,12,13,13,14,14,15,15,16,16],"right_children":[2,4,-1,6,8,10,12,14,16,18,20,22,24,26,28,30,32,-1,-1,-1,-1,-1,-1,-1,-1,-1,-1,-1,-1,-1,-1,-1,-1],"split_conditions":[3.5308548E2,-7.2571285E-2,-9.145616E-2,2.9515698E0,6.9285855E-2,1.6865512E-2,-1.3393831E-3,4.9270668E1,-2.88369E8,1.027947E0,-3.101835E8,-8.794666E0,1.0278969E0,1.31106395E-2,5.2445006E-2,-3.40413E8,1.858617E0,-0E0,1.04391694E-1,-9.2680626E-2,3.36567E-2,5.6380894E-2,-2.5215492E-2,1.0125542E-1,-5.9017516E-3,1.0023779E-1,-0E0,-1.3741115E-2,9.452895E-2,-1.1560145E-2,-1.1909347E-1,5.0993305E-2,-3.5230417E-3],"split_indices":[1,16,0,13,4,12,14,2,5,9,5,10,8,3,18,5,1,0,0,0,0,0,0,0,0,0,0,0,0,0,0,0,0],"split_type":[0,0,0,0,0,0,0,0,0,0,0,0,0,0,0,0,0,0,0,0,0,0,0,0,0,0,0,0,0,0,0,0,0],"sum_hessian":[6.331579E2,6.2919965E2,3.9582481E0,4.2597992E1,5.866017E2,1.5586289E1,2.7011703E1,2.8446321E1,5.5815533E2,1.1536483E1,4.0498066E0,2.2143665E1,4.868037E0,1.112877E1,1.7317553E1,1.7662344E1,5.4049304E2,1.5648819E0,9.971601E0,1.4639817E0,2.585825E0,3.7120507E0,1.8431616E1,3.7312899E0,1.1367472E0,9.108465E0,2.020305E0,1.4717732E1,2.5998192E0,1.0514012E1,7.1483316E0,2.1606068E1,5.1888696E2],"tree_param":{"num_deleted":"0","num_feature":"19","num_nodes":"33","size_leaf_vector":"1"}},{"base_weights":[6.632702E-4,2.785908E-1,-2.1842055E-2,6.58295E-1,-2.2825646E-1,5.5208255E-2,-1.3912034E-1,-1.99295E-1,9.9908364E-1,-4.064669E-1,6.40731E-1,-1.6312495E-2,3.357376E-1,-3.7014243E-1,9.375362E-2,-6.5246403E-1,5.6450474E-1,1.0640162E0,-0E0,2.937627E-1,-6.7391086E-1,-0E0,1.0049231E-1,-7.428545E-2,4.162897E-1,5.4023343E-1,-6.2720394E-1,-4.8657137E-1,1.5005116E-1,7.141076E-1,-3.6503457E-2,2.5177717E-2,-1.1474379E-1,7.876054E-2,-0E0,4.4895667E-3,1.1326251E-1,8.610009E-2,-8.064977E-3,-9.0207286E-2,4.8694607E-2,7.056068E-3,-4.5117732E-2,7.977183E-2,-2.5593365E-2,7.290273E-2,-6.341807E-3,4.5018848E-2,-8.646212E-2,-7.524471E-4,-7.833446E-2,7.5673275E-2,-3.303567E-2,1.1298926E-1,1.0676884E-2,-6.2249046E-2,9.985774E-3],"categories":[],"categories_nodes":[],"categories_segments":[],"categories_sizes":[],"default_left":[0,0,0,0,0,0,0,0,0,0,0,0,0,0,0,0,0,0,0,0,0,0,0,0,0,0,0,0,0,0,0,0,0,0,0,0,0,0,0,0,0,0,0,0,0,0,0,0,0,0,0,0,0,0,0,0,0],"id":18,"left_children":[1,3,5,7,9,11,13,15,17,19,21,23,25,27,29,31,33,35,-1,37,39,-1,-1,41,43,45,47,49,51,53,55,-1,-1,-1,-1,-1,-1,-1,-1,-1,-1,-1,-1,-1,-1,-1,-1,-1,-1,-1,-1,-1,-1,-1,-1,-1,-1],"loss_changes":[4.0947256E0,9.827397E0,5.335754E0,9.05401E0,3.4319787E0,7.2112365E0,1.2804949E1,3.4040558E0,1.6749859E0,3.8921824E0,1.0347639E0,6.8663793E0,1.4633207E1,7.457594E0,9.790974E0,3.556257E0,3.2138193E-1,7.7609825E-1,0E0,1.5961013E0,4.4503446E0,0E0,0E0,1.3773145E1,8.7176285E0,7.333555E0,3.867672E0,1.3585108E1,6.808001E0,4.5533686E0,8.049888E0,0E0,0E0,0E0,0E0,0E0,0E0,0E0,0E0,0E0,0E0,0E0,0E0,0E0,0E0,0E0,0E0,0E0,0E0,0E0,0E0,0E0,0E0,0E0,0E0,0E0,0E0],"parents":[2147483647,0,0,1,1,2,2,3,3,4,4,5,5,6,6,7,7,8,8,9,9,10,10,11,11,12,12,13,13,14,14,15,15,16,16,17,17,19,19,20,20,23,23,24,24,25,25,26,26,27,27,28,28,29,29,30,30],"right_children":[2,4,6,8,10,12,14,16,18,20,22,24,26,28,30,32,34,36,-1,38,40,-1,-1,42,44,46,48,50,52,54,56,-1,-1,-1,-1,-1,-1,-1,-1,-1,-1,-1,-1,-1,-1,-1,-1,-1,-1,-1,-1,-1,-1,-1,-1,-1,-1],"split_conditions":[-5.9240645E-1,3.29726E0,6.1385727E-1,4.236092E0,1.6523457E10,2.9330546E-1,2.24769E1,1.74079E1,1.1954754E-1,9.6477616E-1,1.0481951E0,2.5920663E0,8.099388E1,6.995643E1,5.89329E9,6.43143E-1,1.0027803E0,-1.580433E-1,-0E0,-1.15576815E-2,5.25516E1,-0E0,1.0049231E-1,3.567387E9,4.0377192E-2,1.7049717E1,4.9936247E-1,3.1110911E0,8.5797375E-1,2.3448E1,4.9743465E1,2.5177717E-2,-1.1474379E-1,7.876054E-2,-0E0,4.4895667E-3,1.1326251E-1,8.610009E-2,-8.064977E-3,-9.0207286E-2,4.8694607E-2,7.056068E-3,-4.5117732E-2,7.977183E-2,-2.5593365E-2,7.290273E-2,-6.341807E-3,4.5018848E-2,-8.646212E-2,-7.524471E-4,-7.833446E-2,7.5673275E-2,-3.303567E-2,1.1298926E-1,1.0676884E-2,-6.2249046E-2,9.985774E-3],"split_indices":[3,6,4,13,5,3,0,0,15,8,9,13,2,2,5,4,8,18,0,14,2,0,0,5,18,1,3,13,3,7,7,0,0,0,0,0,0,0,0,0,0,0,0,0,0,0,0,0,0,0,0,0,0,0,0,0,0],"split_type":[0,0,0,0,0,0,0,0,0,0,0,0,0,0,0,0,0,0,0,0,0,0,0,0,0,0,0,0,0,0,0,0,0,0,0,0,0,0,0,0,0,0,0,0,0,0,0,0,0,0,0,0,0,0,0,0,0],"sum_hessian":[6.3215125E2,4.8166115E1,5.839851E2,2.793004E1,2.0236076E1,3.501844E2,2.3380072E2,7.6434393E0,2.02866E1,1.7711472E1,2.5246036E0,2.7837292E2,7.181147E1,1.1814895E2,1.1565178E2,5.299555E0,2.3438845E0,1.9247307E1,1.0392944E0,4.351165E0,1.3360307E1,1.0671186E0,1.457485E0,2.4722626E2,3.1146673E1,6.002288E1,1.1788589E1,9.737945E1,2.07695E1,1.995789E1,9.5693886E1,1.6911896E0,3.608365E0,1.2358745E0,1.10801E0,1.7780545E0,1.7469252E1,1.7443224E0,2.6068428E0,1.1712E1,1.6483071E0,1.7821953E2,6.900673E1,2.0226818E1,1.0919855E1,4.6195644E1,1.3827235E1,1.5865742E0,1.0202015E1,3.828711E1,5.909234E1,9.384238E0,1.13852625E1,1.0847803E1,9.1100855E0,1.8083803E1,7.7610085E1],"tree_param":{"num_deleted":"0","num_feature":"19","num_nodes":"57","size_leaf_vector":"1"}},{"base_weights":[1.361179E-3,1.7281166E-1,-3.709249E-2,7.636127E-1,7.350583E-2,-2.6808608E-1,6.1248695E-3,-1.4031355E-1,1.2927246E0,-3.2821923E-1,2.657098E-1,-1.0295314E0,-1.3605426E-1,4.198956E-1,-3.0416753E-2,7.629857E-2,-6.7277294E-1,1.4150527E-1,3.1196375E-3,-6.4772433E-1,9.5731837E-1,8.950745E-1,-1.8669097E-2,1.4019829E-2,-1.205719E0,1.2652715E-1,-2.743832E-1,6.2131387E-1,-4.5101058E-2,3.498417E-1,-8.029641E-2,-1.02338456E-1,-0E0,3.517842E-2,-8.8623405E-2,-0E0,1.04262054E-1,1.2898134E-1,-0E0,-1.0965097E-1,6.776376E-3,-1.3348226E-1,-0E0,-4.678354E-2,2.1508237E-2,1.9184355E-2,1.0720452E-1,-5.8624595E-2,7.7105634E-2,7.945208E-2,-6.761055E-3,-3.614384E-2,-1.6090235E-3],"categories":[],"categories_nodes":[],"categories_segments":[],"categories_sizes":[],"default_left":[0,0,0,0,0,0,0,0,0,0,0,0,0,0,0,0,0,0,0,0,0,0,0,0,0,0,0,0,0,0,0,0,0,0,0,0,0,0,0,0,0,0,0,0,0,0,0,0,0,0,0,0,0],"id":19,"left_children":[1,3,5,7,9,11,13,15,17,19,21,23,25,27,29,-1,31,-1,-1,33,35,37,39,-1,41,-1,43,45,47,49,51,-1,-1,-1,-1,-1,-1,-1,-1,-1,-1,-1,-1,-1,-1,-1,-1,-1,-1,-1,-1,-1,-1],"loss_changes":[4.229851E0,6.450101E0,5.256683E0,8.483371E0,7.9993525E0,7.5956235E0,6.7323313E0,3.6028688E0,8.74073E-1,1.3977561E1,1.3158497E1,3.0749846E0,1.3852493E1,3.7062187E0,7.410834E0,0E0,1.3378868E0,0E0,0E0,7.076846E0,3.3059597E-2,7.539236E0,5.183429E0,0E0,1.1827374E0,0E0,6.5601616E0,4.209714E0,5.271771E0,8.767851E0,6.165865E0,0E0,0E0,0E0,0E0,0E0,0E0,0E0,0E0,0E0,0E0,0E0,0E0,0E0,0E0,0E0,0E0,0E0,0E0,0E0,0E0,0E0,0E0],"parents":[2147483647,0,0,1,1,2,2,3,3,4,4,5,5,6,6,7,7,8,8,9,9,10,10,11,11,12,12,13,13,14,14,16,16,19,19,20,20,21,21,22,22,24,24,26,26,27,27,28,28,29,29,30,30],"right_children":[2,4,6,8,10,12,14,16,18,20,22,24,26,28,30,-1,32,-1,-1,34,36,38,40,-1,42,-1,44,46,48,50,52,-1,-1,-1,-1,-1,-1,-1,-1,-1,-1,-1,-1,-1,-1,-1,-1,-1,-1,-1,-1,-1,-1],"split_conditions":[-2.5778502E-1,5.651906E-1,-5.609748E-2,4.5180947E-1,3.787476E9,1.0519051E-1,1.0184487E0,-3.781889E-1,4.322532E9,4.650695E0,1.9683334E1,-5.158045E-2,1.2671451E-1,5.037366E9,1.858617E0,7.629857E-2,9.9725E-1,1.4150527E-1,3.1196375E-3,-6.2353104E-2,-2.84791E-2,4.284595E1,2.0528225E1,1.4019829E-2,6.039859E-1,1.2652715E-1,4.748121E9,2.0858126E0,2.288135E2,5.699107E1,2.2495873E0,-1.02338456E-1,-0E0,3.517842E-2,-8.8623405E-2,-0E0,1.04262054E-1,1.2898134E-1,-0E0,-1.0965097E-1,6.776376E-3,-1.3348226E-1,-0E0,-4.678354E-2,2.1508237E-2,1.9184355E-2,1.0720452E-1,-5.8624595E-2,7.7105634E-2,7.945208E-2,-6.761055E-3,-3.614384E-2,-1.6090235E-3],"split_indices":[3,4,3,4,5,4,9,3,5,13,7,15,4,5,1,0,8,0,0,15,14,2,1,0,12,0,5,13,0,2,1,0,0,0,0,0,0,0,0,0,0,0,0,0,0,0,0,0,0,0,0,0,0],"split_type":[0,0,0,0,0,0,0,0,0,0,0,0,0,0,0,0,0,0,0,0,0,0,0,0,0,0,0,0,0,0,0,0,0,0,0,0,0,0,0,0,0,0,0,0,0,0,0,0,0,0,0,0,0],"sum_hessian":[6.293116E2,1.1702952E2,5.122821E2,1.5153315E1,1.01876205E2,8.174221E1,4.3053986E2,5.5173674E0,9.635947E0,3.1897743E1,6.997846E1,1.0515181E1,7.1227036E1,3.519617E1,3.953437E2,1.537339E0,3.9800284E0,8.311914E0,1.3240325E0,2.6256973E1,5.6407704E0,2.165783E1,4.8320633E1,1.031738E0,9.483442E0,5.3426375E0,6.588439E1,2.5074146E1,1.0122026E1,4.3985046E1,3.5135864E2,2.429685E0,1.5503432E0,4.563155E0,2.1693817E1,1.0117673E0,4.6290035E0,1.4443289E1,7.2145395E0,3.1491E0,4.5171535E1,8.217406E0,1.2660357E0,4.7984947E1,1.7899448E1,1.4137985E1,1.093616E1,6.6242266E0,3.4977994E0,2.144057E1,2.2544476E1,6.301514E1,2.883435E2],"tree_param":{"num_deleted":"0","num_feature":"19","num_nodes":"53","size_leaf_vector":"1"}},{"base_weights":[2.3044522E-3,9.872709E-3,-8.837419E-2,1.6104996E-1,-2.3954976E-2,7.152711E-1,6.88481E-2,-7.5792946E-2,1.5922529E-1,-1.2081655E-1,1.2182767E0,-2.926815E-1,2.4115184E-1,1.25729395E-2,-4.3656373E-1,1.2960465E0,7.921432E-2,7.268321E-2,-6.2408675E-2,1.334196E-1,2.94214E-3,-5.8052093E-2,1.01949885E-1,8.218848E-2,-1.7930198E-3,-1.5702831E-3,9.973639E-2,-6.583633E-2,1.5466704E-2,1.4873864E-1,-0E0,-1.2702611E-2,2.9397992E-2],"categories":[],"categories_nodes":[],"categories_segments":[],"categories_sizes":[],"default_left":[0,0,0,0,0,0,0,0,0,0,0,0,0,0,0,0,0,0,0,0,0,0,0,0,0,0,0,0,0,0,0,0,0],"id":20,"left_children":[1,3,-1,5,7,9,11,13,15,17,19,21,23,25,27,29,31,-1,-1,-1,-1,-1,-1,-1,-1,-1,-1,-1,-1,-1,-1,-1,-1],"loss_changes":[3.784235E0,3.2655985E0,0E0,5.537575E0,4.7979827E0,7.3443365E0,6.410801E0,1.2939731E1,9.245415E0,3.1642745E0,7.030802E-1,1.2647545E1,1.1053203E1,9.428606E0,1.0799405E1,1.2801466E0,4.751887E0,0E0,0E0,0E0,0E0,0E0,0E0,0E0,0E0,0E0,0E0,0E0,0E0,0E0,0E0,0E0,0E0],"parents":[2147483647,0,0,1,1,3,3,4,4,5,5,6,6,7,7,8,8,9,9,10,10,11,11,12,12,13,13,14,14,15,15,16,16],"right_children":[2,4,-1,6,8,10,12,14,16,18,20,22,24,26,28,30,32,-1,-1,-1,-1,-1,-1,-1,-1,-1,-1,-1,-1,-1,-1,-1,-1],"split_conditions":[3.5308548E2,-2.5778502E-1,-8.837419E-2,5.651906E-1,2.25581E1,4.5180947E-1,3.787476E9,6.1385727E-1,2.2627623E1,-3.781889E-1,4.322532E9,8.400477E-1,1.9683334E1,1.8556467E1,6.995643E1,4.3394675E0,2.8321503E-3,7.268321E-2,-6.2408675E-2,1.334196E-1,2.94214E-3,-5.8052093E-2,1.01949885E-1,8.218848E-2,-1.7930198E-3,-1.5702831E-3,9.973639E-2,-6.583633E-2,1.5466704E-2,1.4873864E-1,-0E0,-1.2702611E-2,2.9397992E-2],"split_indices":[1,3,0,4,0,4,5,4,1,3,5,4,7,0,2,13,14,0,0,0,0,0,0,0,0,0,0,0,0,0,0,0,0],"split_type":[0,0,0,0,0,0,0,0,0,0,0,0,0,0,0,0,0,0,0,0,0,0,0,0,0,0,0,0,0,0,0,0,0],"sum_hessian":[6.271768E2,6.234051E2,3.7717178E0,1.1600301E2,5.074021E2,1.4808608E1,1.01194405E2,3.9806885E2,1.09333244E2,5.4746013E0,9.334006E0,3.150009E1,6.969432E1,3.1941238E2,7.865648E1,5.778795E0,1.0355445E2,1.5038964E0,3.970705E0,8.010152E0,1.3238547E0,2.660308E1,4.8970075E0,2.1425842E1,4.826848E1,3.1096027E2,8.452101E0,5.773093E1,2.0925549E1,4.725549E0,1.0532458E0,5.1846462E1,5.170799E1],"tree_param":{"num_deleted":"0","num_feature":"19","num_nodes":"33","size_leaf_vector":"1"}},{"base_weights":[2.8510161E-3,2.7177183E-2,-2.4225613E-1,3.1003563E-3,1.2457522E0,2.7445886E-1,-6.1293995E-1,5.1049775E-1,-2.415578E-2,1.4691818E-1,2.3644947E-1,-3.9255676E-1,9.118211E-1,-1.4300597E-1,-1.8336982E-1,-1.06622085E-1,7.2248185E-1,4.736309E-2,-1.6001269E-1,-7.769572E-3,6.8841554E-2,1.1133663E-1,-9.5650804E-1,1.1624645E0,-5.7341464E-2,5.554349E-1,-3.9648888E-1,-6.9221936E-2,4.5283362E-2,8.768162E-2,-3.9456088E-2,1.7086748E-3,5.929221E-2,-2.259188E-2,4.135401E-2,-6.578688E-2,5.5957794E-2,-1.3012122E-1,-0E0,1.3789417E-1,-1.8652199E-2,1.0085636E-1,-1.8571457E-2,7.821285E-3,-8.532984E-2],"categories":[],"categories_nodes":[],"categories_segments":[],"categories_sizes":[],"default_left":[0,0,0,0,0,0,0,0,0,0,0,0,0,0,0,0,0,0,0,0,0,0,0,0,0,0,0,0,0,0,0,0,0,0,0,0,0,0,0,0,0,0,0,0,0],"id":21,"left_children":[1,3,5,7,9,11,13,15,17,-1,19,21,23,-1,25,27,29,31,33,-1,-1,35,37,39,-1,41,43,-1,-1,-1,-1,-1,-1,-1,-1,-1,-1,-1,-1,-1,-1,-1,-1,-1,-1],"loss_changes":[3.633441E0,1.61691E1,1.0832324E1,8.039289E0,1.2100086E0,1.0402042E1,1.0436253E1,4.2667723E0,5.253966E0,0E0,8.606953E-1,3.814588E0,5.5970926E0,0E0,3.767134E0,3.0066037E0,4.5208473E0,5.437933E0,7.06296E0,0E0,0E0,2.5716631E0,2.4516802E0,4.1456127E0,0E0,2.2938972E0,4.570901E0,0E0,0E0,0E0,0E0,0E0,0E0,0E0,0E0,0E0,0E0,0E0,0E0,0E0,0E0,0E0,0E0,0E0,0E0],"parents":[2147483647,0,0,1,1,2,2,3,3,4,4,5,5,6,6,7,7,8,8,10,10,11,11,12,12,14,14,15,15,16,16,17,17,18,18,21,21,22,22,23,23,25,25,26,26],"right_children":[2,4,6,8,10,12,14,16,18,-1,20,22,24,-1,26,28,30,32,34,-1,-1,36,38,40,-1,42,44,-1,-1,-1,-1,-1,-1,-1,-1,-1,-1,-1,-1,-1,-1,-1,-1,-1,-1],"split_conditions":[8.084283E0,2.288135E2,2.2272667E2,-5.9240645E-1,2.5804322E-2,1.0580714E1,6.440005E1,4.121189E0,6.1385727E-1,1.4691818E-1,3.490398E-2,4.2599945E0,1.9769989E1,-1.4300597E-1,1.3154523E1,-6.3466454E-1,7.6923005E-2,1.8556467E1,8.00745E1,-7.769572E-3,6.8841554E-2,-5.034096E-2,9.956458E-2,1.3141057E-1,-5.7341464E-2,1.0150526E0,-7.7025252E-3,-6.9221936E-2,4.5283362E-2,8.768162E-2,-3.9456088E-2,1.7086748E-3,5.929221E-2,-2.259188E-2,4.135401E-2,-6.578688E-2,5.5957794E-2,-1.3012122E-1,-0E0,1.3789417E-1,-1.8652199E-2,1.0085636E-1,-1.8571457E-2,7.821285E-3,-8.532984E-2],"split_indices":[4,0,0,3,15,4,13,13,4,0,18,10,10,0,4,3,15,0,2,0,0,18,17,18,0,8,17,0,0,0,0,0,0,0,0,0,0,0,0,0,0,0,0,0,0],"split_type":[0,0,0,0,0,0,0,0,0,0,0,0,0,0,0,0,0,0,0,0,0,0,0,0,0,0,0,0,0,0,0,0,0,0,0,0,0,0,0,0,0,0,0,0,0],"sum_hessian":[6.253121E2,5.715195E2,5.379259E1,5.618316E2,9.687911E0,2.2015205E1,3.1777384E1,2.8672995E1,5.3315857E2,7.1533422E0,2.5345683E0,1.0561715E1,1.1453491E1,9.74591E0,2.2031475E1,6.855089E0,2.1817905E1,3.4730078E2,1.858578E2,1.3311502E0,1.203418E0,5.5334897E0,5.028225E0,1.0273703E1,1.1797888E0,4.047605E0,1.798387E1,3.6700094E0,3.18508E0,1.9751621E1,2.0662835E0,3.3088574E2,1.6415026E1,1.6802783E2,1.782997E1,1.4544466E0,4.079043E0,3.7053933E0,1.322832E0,9.153282E0,1.1204201E0,2.7066278E0,1.3409774E0,8.68889E0,9.294979E0],"tree_param":{"num_deleted":"0","num_feature":"19","num_nodes":"45","size_leaf_vector":"1"}},{"base_weights":[2.7461092E-3,4.5640316E-2,-1.2297505E-1,4.218108E-1,2.3600973E-2,-4.437294E-1,-4.1246053E-2,6.236882E-1,-2.5415793E-1,-1.0007551E-1,8.226898E-2,5.439249E-1,-6.339787E-1,2.528516E-1,-1.5010332E-1,7.496607E-1,-4.5029376E-2,-6.6273636E-1,1.815156E-2,-2.7669227E-2,-5.318267E-1,7.4538696E-1,5.863625E-2,9.2139155E-2,-6.0067233E-3,-1.7027313E-1,-1.0109531E0,4.264866E-1,-3.411166E-1,-4.3128312E-1,-9.777244E-3,1.0728697E-1,2.237418E-2,5.375895E-3,-3.6163684E-2,-1.08306065E-1,-0E0,1.2505355E-2,-2.0856533E-2,-6.83075E-2,3.946948E-2,9.89367E-2,-0E0,-9.930193E-2,8.84651E-3,5.14795E-2,-7.444036E-2,-0E0,-1.0797441E-1,3.7971481E-3,7.231806E-2,2.5052717E-2,-6.4585716E-2,-7.047898E-2,8.774207E-3,4.2195097E-3,-8.198057E-2],"categories":[],"categories_nodes":[],"categories_segments":[],"categories_sizes":[],"default_left":[0,0,0,0,0,0,0,0,0,0,0,0,0,0,0,0,0,0,0,0,0,0,0,0,0,0,0,0,0,0,0,0,0,0,0,0,0,0,0,0,0,0,0,0,0,0,0,0,0,0,0,0,0,0,0,0,0],"id":22,"left_children":[1,3,5,7,9,11,13,15,17,19,21,23,25,27,29,31,33,35,-1,37,39,41,43,-1,-1,45,47,49,51,53,55,-1,-1,-1,-1,-1,-1,-1,-1,-1,-1,-1,-1,-1,-1,-1,-1,-1,-1,-1,-1,-1,-1,-1,-1,-1,-1],"loss_changes":[3.3317244E0,3.6549208E0,3.8295891E0,3.7054286E0,3.230212E0,6.0906663E0,4.042613E0,2.0566359E0,1.3945639E0,4.112611E0,4.3388014E0,1.6291398E0,3.8390703E0,3.6284442E0,3.4974356E0,2.064786E0,2.8152782E-1,1.4571961E0,0E0,3.4597259E0,3.1043706E0,1.8729534E0,8.940194E0,0E0,0E0,5.8479557E0,6.684246E-1,2.6936088E0,1.702657E0,4.6569476E0,3.1656938E0,0E0,0E0,0E0,0E0,0E0,0E0,0E0,0E0,0E0,0E0,0E0,0E0,0E0,0E0,0E0,0E0,0E0,0E0,0E0,0E0,0E0,0E0,0E0,0E0,0E0,0E0],"parents":[2147483647,0,0,1,1,2,2,3,3,4,4,5,5,6,6,7,7,8,8,9,9,10,10,11,11,12,12,13,13,14,14,15,15,16,16,17,17,19,19,20,20,21,21,22,22,25,25,26,26,27,27,28,28,29,29,30,30],"right_children":[2,4,6,8,10,12,14,16,18,20,22,24,26,28,30,32,34,36,-1,38,40,42,44,-1,-1,46,48,50,52,54,56,-1,-1,-1,-1,-1,-1,-1,-1,-1,-1,-1,-1,-1,-1,-1,-1,-1,-1,-1,-1,-1,-1,-1,-1,-1,-1],"split_conditions":[4.0027358E-2,9.5797974E-1,4.8253933E1,4.8087847E-1,-2.194424E-2,3.878827E-1,-2.7550656E-1,2.8051857E-2,5.3386005E1,-3.9333105E-2,6.333334E-2,-5.6453487E-3,-2.4005327E-1,1.043611E0,5.284788E-2,3.0719796E-1,-7.7620614E-3,1.0042623E2,1.815156E-2,4.0451835E9,-3.947215E-3,1.6849974E-2,1.6426666E0,9.2139155E-2,-6.0067233E-3,1.7060534E1,-4.5034084E-1,4.830002E-1,-1.70934E8,1.0416902E0,1.2445953E1,1.0728697E-1,2.237418E-2,5.375895E-3,-3.6163684E-2,-1.08306065E-1,-0E0,1.2505355E-2,-2.0856533E-2,-6.83075E-2,3.946948E-2,9.89367E-2,-0E0,-9.930193E-2,8.84651E-3,5.14795E-2,-7.444036E-2,-0E0,-1.0797441E-1,3.7971481E-3,7.231806E-2,2.5052717E-2,-6.4585716E-2,-7.047898E-2,8.774207E-3,4.2195097E-3,-8.198057E-2],"split_indices":[16,8,2,3,15,13,12,14,2,10,4,3,3,9,16,12,16,0,0,5,16,3,0,0,0,0,12,4,5,9,4,0,0,0,0,0,0,0,0,0,0,0,0,0,0,0,0,0,0,0,0,0,0,0,0,0,0],"split_type":[0,0,0,0,0,0,0,0,0,0,0,0,0,0,0,0,0,0,0,0,0,0,0,0,0,0,0,0,0,0,0,0,0,0,0,0,0,0,0,0,0,0,0,0,0,0,0,0,0,0,0,0,0,0,0,0,0],"sum_hessian":[6.2294965E2,4.679172E2,1.5503242E2,2.363783E1,4.4427936E2,2.9339462E1,1.2569296E2,1.8830994E1,4.8068376E0,1.399745E2,3.0430487E2,4.0140276E0,2.5325434E1,3.235746E1,9.33355E1,1.6373268E1,2.457725E0,2.803842E0,2.0029955E0,1.217746E2,1.8199898E1,8.692821E0,2.9561206E2,2.6562927E0,1.3577348E0,1.2602045E1,1.2723389E1,2.5907635E1,6.449824E0,2.9196386E1,6.413912E1,8.908035E0,7.4652333E0,1.3023303E0,1.1553947E0,1.6665502E0,1.1372919E0,6.4697754E1,5.7076843E1,1.6335625E1,1.8642734E0,6.415153E0,2.2776678E0,6.8004475E0,2.888116E2,5.3959346E0,7.2061105E0,1.1196061E0,1.1603783E1,1.2436066E1,1.347157E1,1.6954069E0,4.754417E0,1.9517063E1,9.679323E0,6.058271E1,3.5564084E0],"tree_param":{"num_deleted":"0","num_feature":"19","num_nodes":"57","size_leaf_vector":"1"}},{"base_weights":[2.4623564E-3,9.068235E-3,-8.211167E-2,2.6728076E-1,-9.044105E-3,3.961523E-1,-1.1655459E-1,-1.781877E-1,2.4694495E-2,6.435177E-1,-1.0739584E-3,2.4675621E-1,-5.516071E-1,-3.506459E-1,1.7892657E-1,1.0109404E-1,-9.371254E-2,1.2478019E-1,3.842462E-2,-2.251067E-2,8.099505E-2,-5.8010347E-2,9.8300755E-2,-1.0650524E-1,2.4909606E-2,-5.0192033E-3,-5.5788744E-2,-3.504002E-2,3.9908085E-2,1.5010138E-2,-1.9969154E-2,-2.317621E-2,7.7622645E-3],"categories":[],"categories_nodes":[],"categories_segments":[],"categories_sizes":[],"default_left":[0,0,0,0,0,0,0,0,0,0,0,0,0,0,0,0,0,0,0,0,0,0,0,0,0,0,0,0,0,0,0,0,0],"id":23,"left_children":[1,3,-1,5,7,9,11,13,15,17,19,21,23,25,27,29,31,-1,-1,-1,-1,-1,-1,-1,-1,-1,-1,-1,-1,-1,-1,-1,-1],"loss_changes":[2.987809E0,3.0268836E0,0E0,2.2843661E0,3.3776708E0,3.5606728E0,1.9418838E0,6.2241435E0,4.355473E0,2.0086765E0,2.2286308E0,4.281156E0,3.014804E0,3.8899813E0,3.8750346E0,4.3508573E0,4.499303E0,0E0,0E0,0E0,0E0,0E0,0E0,0E0,0E0,0E0,0E0,0E0,0E0,0E0,0E0,0E0,0E0],"parents":[2147483647,0,0,1,1,3,3,4,4,5,5,6,6,7,7,8,8,9,9,10,10,11,11,12,12,13,13,14,14,15,15,16,16],"right_children":[2,4,-1,6,8,10,12,14,16,18,20,22,24,26,28,30,32,-1,-1,-1,-1,-1,-1,-1,-1,-1,-1,-1,-1,-1,-1,-1,-1],"split_conditions":[3.5308548E2,-7.2571285E-2,-8.211167E-2,1.0302364E0,-2.9463802E-2,-5.115805E-3,5.037366E9,3.6274931E0,3.1141136E-2,-1.622835E8,3.8555516E-3,1.8727875E9,3.0657039E0,-1.8474065E-2,-4.9299927E0,6.773497E-1,6.607151E1,1.2478019E-1,3.842462E-2,-2.251067E-2,8.099505E-2,-5.8010347E-2,9.8300755E-2,-1.0650524E-1,2.4909606E-2,-5.0192033E-3,-5.5788744E-2,-3.504002E-2,3.9908085E-2,1.5010138E-2,-1.9969154E-2,-2.317621E-2,7.7622645E-3],"split_indices":[1,16,0,8,16,12,5,13,16,5,14,5,3,14,10,12,2,0,0,0,0,0,0,0,0,0,0,0,0,0,0,0,0],"split_type":[0,0,0,0,0,0,0,0,0,0,0,0,0,0,0,0,0,0,0,0,0,0,0,0,0,0,0,0,0,0,0,0,0],"sum_hessian":[6.2144464E2,6.180831E2,3.3615122E0,4.1421402E1,5.7666174E2,3.1961111E1,9.46029E0,9.764932E1,4.790124E2,2.0089464E1,1.1871647E1,4.764772E0,4.695518E0,6.680566E1,3.084367E1,2.938081E2,1.852043E2,4.3078814E0,1.5781582E1,1.0351229E1,1.5204182E0,2.0243077E0,2.7404642E0,3.0402703E0,1.6552474E0,2.8762009E1,3.8043648E1,8.21918E0,2.262449E1,2.5450464E2,3.9303455E1,1.0398569E2,8.121861E1],"tree_param":{"num_deleted":"0","num_feature":"19","num_nodes":"33","size_leaf_vector":"1"}},{"base_weights":[2.1019378E-3,1.324058E-1,-3.3760753E-2,-1.5081151E-1,3.0806407E-1,1.02947585E-1,-1.350406E-1,3.717984E-1,-4.3391767E-1,7.1398926E-1,2.2136116E-2,-4.9504705E-2,4.8219362E-1,-5.906361E-1,-3.6921106E-2,-3.007441E-1,7.813255E-1,-8.393346E-1,5.4408294E-1,-3.1917477E-1,8.5019094E-1,-1.11067414E-1,1.3874972E-1,7.927087E-2,-5.102866E-1,1.1035105E0,-0E0,-8.863829E-1,5.5790145E-2,8.6157185E-1,-9.1742374E-2,6.8967335E-2,-7.6380216E-2,9.774991E-2,-7.160275E-3,-1.0733553E-1,6.5110596E-3,8.737775E-2,-4.8428576E-2,3.120028E-2,-8.222353E-2,9.854237E-2,-1.3178929E-2,4.16321E-2,-1.966106E-2,2.012786E-2,-3.6139995E-2,5.0428446E-2,-8.266346E-2,-1.3704172E-2,1.18626714E-1,4.2243715E-2,-6.435557E-2,-1.0103617E-1,7.587452E-2,7.8700244E-2,-5.028596E-2,1.1394302E-1,-7.869657E-2,-2.1508224E-2,1.2425215E-2],"categories":[],"categories_nodes":[],"categories_segments":[],"categories_sizes":[],"default_left":[0,0,0,0,0,0,0,0,0,0,0,0,0,0,0,0,0,0,0,0,0,0,0,0,0,0,0,0,0,0,0,0,0,0,0,0,0,0,0,0,0,0,0,0,0,0,0,0,0,0,0,0,0,0,0,0,0,0,0,0,0],"id":24,"left_children":[1,3,5,7,9,11,13,15,17,19,21,23,25,27,29,31,33,35,37,39,41,-1,43,45,47,49,51,53,55,57,59,-1,-1,-1,-1,-1,-1,-1,-1,-1,-1,-1,-1,-1,-1,-1,-1,-1,-1,-1,-1,-1,-1,-1,-1,-1,-1,-1,-1,-1,-1],"loss_changes":[2.9581416E0,6.958124E0,6.7474008E0,7.9095454E0,9.619791E0,1.2088938E1,1.2236029E1,5.500456E0,1.44475765E1,5.443125E0,6.58022E0,8.927608E0,1.8059036E1,9.806549E0,1.1188744E1,3.8499498E0,2.544197E0,5.957962E0,4.1700926E0,1.896188E0,4.7404537E0,0E0,4.727777E0,6.1346836E0,1.1138761E1,3.3817844E0,9.692955E0,7.850706E0,6.9709644E0,7.023798E0,5.9696217E0,0E0,0E0,0E0,0E0,0E0,0E0,0E0,0E0,0E0,0E0,0E0,0E0,0E0,0E0,0E0,0E0,0E0,0E0,0E0,0E0,0E0,0E0,0E0,0E0,0E0,0E0,0E0,0E0,0E0,0E0],"parents":[2147483647,0,0,1,1,2,2,3,3,4,4,5,5,6,6,7,7,8,8,9,9,10,10,11,11,12,12,13,13,14,14,15,15,16,16,17,17,18,18,19,19,20,20,22,22,23,23,24,24,25,25,26,26,27,27,28,28,29,29,30,30],"right_children":[2,4,6,8,10,12,14,16,18,20,22,24,26,28,30,32,34,36,38,40,42,-1,44,46,48,50,52,54,56,58,60,-1,-1,-1,-1,-1,-1,-1,-1,-1,-1,-1,-1,-1,-1,-1,-1,-1,-1,-1,-1,-1,-1,-1,-1,-1,-1,-1,-1,-1,-1],"split_conditions":[-1.918302E-1,3.787476E9,3.567387E9,5.748095E-1,1.9683334E1,2.5252666E0,1.9761875E0,4.1819033E-1,4.07689E0,-3.9430407E-1,2.0528225E1,-8.93895E7,2.131199E0,1.6558E1,4.2166656E-1,-3.781889E-1,3.0552838E-2,7.7033067E-1,3.5082104E9,1.0060997E0,1.0013342E0,-1.11067414E-1,2.8667197E0,2.553345E-2,7.309522E-2,1.1676175E-1,7.496491E1,3.6670562E-2,5.2333343E-1,4.8193738E-1,1.5482837E0,6.8967335E-2,-7.6380216E-2,9.774991E-2,-7.160275E-3,-1.0733553E-1,6.5110596E-3,8.737775E-2,-4.8428576E-2,3.120028E-2,-8.222353E-2,9.854237E-2,-1.3178929E-2,4.16321E-2,-1.966106E-2,2.012786E-2,-3.6139995E-2,5.0428446E-2,-8.266346E-2,-1.3704172E-2,1.18626714E-1,4.2243715E-2,-6.435557E-2,-1.0103617E-1,7.587452E-2,7.8700244E-2,-5.028596E-2,1.1394302E-1,-7.869657E-2,-2.1508224E-2,1.2425215E-2],"split_indices":[3,5,5,4,7,0,13,4,13,12,1,5,13,7,4,3,14,6,5,8,10,0,6,14,4,4,2,14,4,6,3,0,0,0,0,0,0,0,0,0,0,0,0,0,0,0,0,0,0,0,0,0,0,0,0,0,0,0,0,0,0],"split_type":[0,0,0,0,0,0,0,0,0,0,0,0,0,0,0,0,0,0,0,0,0,0,0,0,0,0,0,0,0,0,0,0,0,0,0,0,0,0,0,0,0,0,0,0,0,0,0,0,0,0,0,0,0,0,0,0,0,0,0,0,0],"sum_hessian":[6.2051074E2,1.36349E2,4.8416174E2,5.1159126E1,8.5189865E1,2.0393517E2,2.802266E2,1.7245247E1,3.3913883E1,3.3865715E1,5.132415E1,1.4514122E2,5.879394E1,4.786429E1,2.323623E2,6.1652036E0,1.1080043E1,2.443692E1,9.476962E0,3.360449E0,3.0505266E1,3.5944836E0,4.7729664E1,1.1323741E2,3.1903814E1,2.5246887E1,3.3547054E1,3.311576E1,1.474853E1,1.1991477E1,2.2037082E2,1.4642366E0,4.700967E0,9.366022E0,1.7140204E0,1.9704536E1,4.7323823E0,7.658261E0,1.8187015E0,1.2180572E0,2.142392E0,2.7257225E1,3.2480419E0,2.6798544E1,2.0931122E1,8.999777E1,2.3239641E1,7.066373E0,2.4837442E1,1.1600167E0,2.4086872E1,2.0336964E1,1.3210093E1,3.1436445E1,1.6793141E0,6.5983105E0,8.150221E0,1.0785689E1,1.2057878E0,1.417475E2,7.8623314E1],"tree_param":{"num_deleted":"0","num_feature":"19","num_nodes":"61","size_leaf_vector":"1"}},{"base_weights":[1.8448023E-3,2.3012362E-2,-2.1366276E-1,8.801494E-4,1.1529064E0,2.4242955E-1,-5.484586E-1,4.5133102E-1,-2.212752E-2,1.3611944E-1,2.1301262E-1,-3.6314815E-1,8.370895E-1,-1.347011E-1,-1.3253021E-1,-3.3931408E-2,6.4891326E-1,9.212092E-3,-2.9884064E-1,-8.158918E-3,6.579203E-2,8.8156074E-2,-8.740366E-1,1.0768882E0,-5.2511465E-2,3.6464432E-1,-3.8221827E-1,6.103717E-2,-4.5529295E-2,8.605813E-2,-1.6787624E-2,-2.6495827E-3,6.435286E-2,-9.2252396E-2,7.010059E-3,-5.9914585E-2,5.0374527E-2,-1.1881892E-1,-0E0,1.286143E-1,-1.712997E-2,7.0823565E-2,-5.799023E-2,4.784898E-2,-6.405039E-2],"categories":[],"categories_nodes":[],"categories_segments":[],"categories_sizes":[],"default_left":[0,0,0,0,0,0,0,0,0,0,0,0,0,0,0,0,0,0,0,0,0,0,0,0,0,0,0,0,0,0,0,0,0,0,0,0,0,0,0,0,0,0,0,0,0],"id":25,"left_children":[1,3,5,7,9,11,13,15,17,-1,19,21,23,-1,25,27,29,31,33,-1,-1,35,37,39,-1,41,43,-1,-1,-1,-1,-1,-1,-1,-1,-1,-1,-1,-1,-1,-1,-1,-1,-1,-1],"loss_changes":[2.7298725E0,1.35751915E1,8.421493E0,5.9923263E0,9.664297E-1,8.684888E0,9.598472E0,3.028234E0,4.738384E0,0E0,8.0250096E-1,3.1181514E0,4.803528E0,0E0,2.9214716E0,2.4706461E0,4.084241E0,1.1081425E1,1.3263672E1,0E0,0E0,2.1070573E0,2.02457E0,3.6387405E0,0E0,2.8475928E0,3.9509504E0,0E0,0E0,0E0,0E0,0E0,0E0,0E0,0E0,0E0,0E0,0E0,0E0,0E0,0E0,0E0,0E0,0E0,0E0],"parents":[2147483647,0,0,1,1,2,2,3,3,4,4,5,5,6,6,7,7,8,8,10,10,11,11,12,12,14,14,15,15,16,16,17,17,18,18,21,21,22,22,23,23,25,25,26,26],"right_children":[2,4,6,8,10,12,14,16,18,-1,20,22,24,-1,26,28,30,32,34,-1,-1,36,38,40,-1,42,44,-1,-1,-1,-1,-1,-1,-1,-1,-1,-1,-1,-1,-1,-1,-1,-1,-1,-1],"split_conditions":[8.084283E0,2.288135E2,2.2272667E2,-5.9240645E-1,2.5804322E-2,1.0580714E1,6.440005E1,4.236092E0,5.9840205E9,1.3611944E-1,3.490398E-2,4.2599945E0,1.9769989E1,-1.347011E-1,3.609799E1,6.43143E-1,2.8667197E0,2.25581E1,4.78636E1,-8.158918E-3,6.579203E-2,-5.034096E-2,9.956458E-2,1.3141057E-1,-5.2511465E-2,1.024093E0,1.3154523E1,6.103717E-2,-4.5529295E-2,8.605813E-2,-1.6787624E-2,-2.6495827E-3,6.435286E-2,-9.2252396E-2,7.010059E-3,-5.9914585E-2,5.0374527E-2,-1.1881892E-1,-0E0,1.286143E-1,-1.712997E-2,7.0823565E-2,-5.799023E-2,4.784898E-2,-6.405039E-2],"split_indices":[4,0,0,3,15,4,13,13,5,0,18,10,10,0,2,4,6,0,7,0,0,18,17,18,0,8,4,0,0,0,0,0,0,0,0,0,0,0,0,0,0,0,0,0,0],"split_type":[0,0,0,0,0,0,0,0,0,0,0,0,0,0,0,0,0,0,0,0,0,0,0,0,0,0,0,0,0,0,0,0,0,0,0,0,0,0,0,0,0,0,0,0,0],"sum_hessian":[6.1724274E2,5.6496423E2,5.227853E1,5.5552594E2,9.43827E0,2.161494E1,3.066359E1,2.7147118E1,5.2837885E2,6.9237037E0,2.5145655E0,1.0485466E1,1.1129475E1,9.323141E0,2.1340448E1,7.362493E0,1.9784624E1,4.7386972E2,5.4509132E1,1.3279991E0,1.1865664E0,5.4870877E0,4.9983783E0,9.953748E0,1.1757267E0,6.311066E0,1.5029383E1,2.2645595E0,5.0979333E0,1.6156313E1,3.6283126E0,4.4877646E2,2.5093235E1,2.0206114E1,3.4303017E1,1.447847E0,4.039241E0,3.6798425E0,1.3185357E0,8.841646E0,1.112102E0,5.1992936E0,1.1117725E0,2.8254578E0,1.2203925E1],"tree_param":{"num_deleted":"0","num_feature":"19","num_nodes":"45","size_leaf_vector":"1"}},{"base_weights":[1.578072E-3,4.085363E-1,-7.5271986E-3,6.776609E-1,-4.1870855E-2,1.2462866E-2,-2.3871928E-1,8.979382E-1,-0E0,3.4145686E-1,-5.185397E-1,-6.7100297E-3,1.0849472E0,1.8304907E-1,-5.44264E-1,-0E0,1.0734073E0,-0E0,6.303598E-2,-8.664904E-2,-0E0,4.3171448E-1,-2.896356E-2,1.283824E-1,1.9502355E-1,-6.516287E-1,5.623922E-1,-1.2792103E-1,-1.4759181E-1,-0E0,1.2733255E-1,5.4489244E-2,-4.3858327E-2,3.3332189E-3,-1.5000726E-2,-7.687566E-3,6.279736E-2,6.38931E-2,-1.1313005E-1,-0E0,1.0575304E-1,5.602025E-2,-3.63238E-2],"categories":[],"categories_nodes":[],"categories_segments":[],"categories_sizes":[],"default_left":[0,0,0,0,0,0,0,0,0,0,0,0,0,0,0,0,0,0,0,0,0,0,0,0,0,0,0,0,0,0,0,0,0,0,0,0,0,0,0,0,0,0,0],"id":26,"left_children":[1,3,5,7,9,11,13,15,-1,17,19,21,23,25,27,-1,29,-1,-1,-1,-1,31,33,-1,35,37,39,-1,41,-1,-1,-1,-1,-1,-1,-1,-1,-1,-1,-1,-1,-1,-1],"loss_changes":[2.4848719E0,2.1272979E0,2.898103E0,1.9005799E0,1.3148755E0,1.19178705E1,6.716833E0,1.6128311E0,0E0,4.8754665E-1,8.6886173E-1,5.117095E0,8.113518E-1,6.984855E0,7.8155766E0,0E0,1.3207092E0,0E0,0E0,0E0,0E0,2.7790508E0,3.9813194E0,0E0,7.3551214E-1,5.0713167E0,4.215288E0,0E0,3.3092904E0,0E0,0E0,0E0,0E0,0E0,0E0,0E0,0E0,0E0,0E0,0E0,0E0,0E0,0E0],"parents":[2147483647,0,0,1,1,2,2,3,3,4,4,5,5,6,6,7,7,9,9,10,10,11,11,12,12,13,13,14,14,16,16,21,21,22,22,24,24,25,25,26,26,28,28],"right_children":[2,4,6,8,10,12,14,16,-1,18,20,22,24,26,28,-1,30,-1,-1,-1,-1,32,34,-1,36,38,40,-1,42,-1,-1,-1,-1,-1,-1,-1,-1,-1,-1,-1,-1,-1,-1],"split_conditions":[-9.435977E-2,1.0262412E0,8.084283E0,-8.11464E-2,-7.535065E-2,2.288135E2,2.2272667E2,-1.8160734E-1,-0E0,2.0453379E1,-1.6461591E-1,-5.9240645E-1,2.5804322E-2,1.3722658E2,6.440005E1,-0E0,-1.3666259E-1,-0E0,6.303598E-2,-8.664904E-2,-0E0,3.4706335E0,6.1385727E-1,1.283824E-1,3.490398E-2,-3.301165E-2,1.0580714E1,-1.2792103E-1,1.3154523E1,-0E0,1.2733255E-1,5.4489244E-2,-4.3858327E-2,3.3332189E-3,-1.5000726E-2,-7.687566E-3,6.279736E-2,6.38931E-2,-1.1313005E-1,-0E0,1.0575304E-1,5.602025E-2,-3.63238E-2],"split_indices":[15,8,4,18,14,0,0,17,0,13,12,3,15,1,13,0,15,0,0,0,0,6,4,0,18,16,4,0,4,0,0,0,0,0,0,0,0,0,0,0,0,0,0],"split_type":[0,0,0,0,0,0,0,0,0,0,0,0,0,0,0,0,0,0,0,0,0,0,0,0,0,0,0,0,0,0,0,0,0,0,0,0,0,0,0,0,0,0,0],"sum_hessian":[6.1465625E2,1.3693056E1,6.009632E2,8.950538E0,4.742518E0,5.5201636E2,4.8946804E1,7.0245137E0,1.9260242E0,2.2044537E0,2.5380642E0,5.4283954E2,9.176852E0,2.0043547E1,2.8903257E1,1.0093096E0,6.015204E0,1.0372071E0,1.1672465E0,1.4243144E0,1.1137497E0,2.4248247E1,5.185913E2,6.679643E0,2.497209E0,5.6268353E0,1.4416711E1,8.909876E0,1.9993383E1,1.2153428E0,4.7998614E0,2.2297043E1,1.9512041E0,3.4013367E2,1.7845761E2,1.3297045E0,1.1675047E0,1.1522644E0,4.4745708E0,7.2875977E0,7.129113E0,3.7543733E0,1.623901E1],"tree_param":{"num_deleted":"0","num_feature":"19","num_nodes":"43","size_leaf_vector":"1"}},{"base_weights":[1.8264152E-3,4.537817E-2,-8.764714E-2,1.6849495E-2,4.040164E-1,6.25913E-1,-1.23470575E-1,3.7140436E-2,-6.785906E-1,8.185984E-1,-2.686163E-1,-0E0,1.0044143E0,-5.4456234E-1,-2.2875873E-2,-3.9029416E-2,2.1638583E-1,4.9828038E-2,-1.0030209E0,-4.6773892E-2,9.575299E-1,7.394495E-1,-1.008405E0,5.158316E-2,-5.1232036E-2,1.2306795E-1,-0E0,-7.8769706E-2,-1.0220945E0,8.6281544E-1,-1.0727101E-1,-1.8914217E-2,5.457535E-3,3.404656E-2,-2.0383816E-2,-1.1567314E-1,-6.698304E-3,-0E0,1.0355133E-1,9.554828E-2,-0E0,-0E0,-1.21046655E-1,-3.1984773E-2,1.14473894E-1,1.7722484E-2,-1.56917E-1,-3.323034E-3,1.15029596E-1,-4.8493255E-2,-0E0],"categories":[],"categories_nodes":[],"categories_segments":[],"categories_sizes":[],"default_left":[0,0,0,0,0,0,0,0,0,0,0,0,0,0,0,0,0,0,0,0,0,0,0,0,0,0,0,0,0,0,0,0,0,0,0,0,0,0,0,0,0,0,0,0,0,0,0,0,0,0,0],"id":27,"left_children":[1,3,5,7,9,11,13,15,17,19,21,23,25,27,29,31,33,-1,35,-1,37,39,41,-1,-1,-1,-1,43,45,47,49,-1,-1,-1,-1,-1,-1,-1,-1,-1,-1,-1,-1,-1,-1,-1,-1,-1,-1,-1,-1],"loss_changes":[2.3742619E0,4.051277E0,4.874694E0,5.1907234E0,8.695174E0,2.417589E0,7.7337227E0,5.277285E0,4.713628E0,4.07043E0,9.461115E0,1.3391559E0,1.4478531E0,7.2766504E0,1.1301795E1,3.8033578E0,6.147457E0,0E0,5.7654476E-1,0E0,9.764824E-1,7.695112E-1,1.3483257E0,0E0,0E0,0E0,0E0,5.737925E0,1.2089134E1,3.9663734E0,5.681765E0,0E0,0E0,0E0,0E0,0E0,0E0,0E0,0E0,0E0,0E0,0E0,0E0,0E0,0E0,0E0,0E0,0E0,0E0,0E0,0E0],"parents":[2147483647,0,0,1,1,2,2,3,3,4,4,5,5,6,6,7,7,8,8,9,9,10,10,11,11,12,12,13,13,14,14,15,15,16,16,18,18,20,20,21,21,22,22,27,27,28,28,29,29,30,30],"right_children":[2,4,6,8,10,12,14,16,18,20,22,24,26,28,30,32,34,-1,36,-1,38,40,42,-1,-1,-1,-1,44,46,48,50,-1,-1,-1,-1,-1,-1,-1,-1,-1,-1,-1,-1,-1,-1,-1,-1,-1,-1,-1,-1],"split_conditions":[3.947811E-2,1.0748842E0,7.309522E-2,1.0449467E0,6.959646E9,3.287795E-2,6.686432E-1,1.1133301E-1,3.9333105E-2,2.3534729E-1,-1.1699997E1,6.238107E-2,1.0528678E0,1.9660332E0,1.583403E9,-2.9463802E-2,3.9091364E-2,4.9828038E-2,8.701224E-1,-4.6773892E-2,-2.88369E8,4.1166642E-1,1.0814278E0,5.158316E-2,-5.1232036E-2,1.2306795E-1,-0E0,5.5052947E-2,9.028562E-2,-2.702265E8,4.904763E-1,-1.8914217E-2,5.457535E-3,3.404656E-2,-2.0383816E-2,-1.1567314E-1,-6.698304E-3,-0E0,1.0355133E-1,9.554828E-2,-0E0,-0E0,-1.21046655E-1,-3.1984773E-2,1.14473894E-1,1.7722484E-2,-1.56917E-1,-3.323034E-3,1.15029596E-1,-4.8493255E-2,-0E0],"split_indices":[18,9,4,8,5,6,13,10,10,13,10,4,9,0,5,16,15,0,12,0,5,12,9,0,0,0,0,3,4,5,4,0,0,0,0,0,0,0,0,0,0,0,0,0,0,0,0,0,0,0,0],"split_type":[0,0,0,0,0,0,0,0,0,0,0,0,0,0,0,0,0,0,0,0,0,0,0,0,0,0,0,0,0,0,0,0,0,0,0,0,0,0,0,0,0,0,0,0,0,0,0,0,0,0,0],"sum_hessian":[6.126988E2,4.1619473E2,1.9650406E2,3.877884E2,2.8406347E1,7.9390044E0,1.8856505E2,3.7841296E2,9.375437E0,1.7899935E1,1.05064125E1,3.0713246E0,4.86768E0,3.4550785E1,1.5401427E2,2.6415414E2,1.1425881E2,1.5771819E0,7.7982554E0,1.1633292E0,1.6736605E1,4.161024E0,6.345388E0,1.236635E0,1.8346895E0,3.8643775E0,1.0033027E0,1.8610146E1,1.59406395E1,1.2081021E1,1.4193324E2,1.03113434E2,1.6104071E2,8.927745E1,2.4981361E1,6.036961E0,1.761294E0,1.6602014E0,1.5076404E1,2.933945E0,1.2270793E0,1.3274161E0,5.017972E0,1.6505226E1,2.1049187E0,4.9190397E0,1.10216E1,2.7268586E0,9.354162E0,3.0155474E1,1.1177777E2],"tree_param":{"num_deleted":"0","num_feature":"19","num_nodes":"51","size_leaf_vector":"1"}},{"base_weights":[1.6539319E-3,7.2781384E-2,-5.105982E-2,1.4632582E-2,4.397254E-1,-2.0401193E-1,3.826818E-2,-3.7549313E-3,1.1060257E-1,5.9730715E-1,-7.900488E-1,-8.6850904E-2,-8.978868E-1,1.3292216E0,-2.0105245E-2,7.2748445E-2,-3.753655E-1,-1.01591356E-1,9.104169E-1,-0E0,-1.0905416E-1,8.226849E-2,-3.5096952E-1,-1.1828998E0,8.651213E-2,-0E0,1.5080753E-1,8.725705E-1,-6.647861E-2,-3.7283779E-3,4.423592E-2,-5.2813765E-2,5.839735E-2,8.808661E-2,-6.11702E-2,1.3438343E-1,3.2967355E-2,-1.4426191E-2,8.41973E-2,4.9984448E-2,-6.629943E-2,-0E0,-1.2862566E-1,-0E0,1.1824613E-1,-3.9138604E-2,7.7897855E-3],"categories":[],"categories_nodes":[],"categories_segments":[],"categories_sizes":[],"default_left":[0,0,0,0,0,0,0,0,0,0,0,0,0,0,0,0,0,0,0,0,0,0,0,0,0,0,0,0,0,0,0,0,0,0,0,0,0,0,0,0,0,0,0,0,0,0,0],"id":28,"left_children":[1,3,5,7,9,11,13,15,-1,17,19,21,23,25,27,29,31,33,35,-1,-1,37,39,41,-1,-1,-1,43,45,-1,-1,-1,-1,-1,-1,-1,-1,-1,-1,-1,-1,-1,-1,-1,-1,-1,-1],"loss_changes":[2.3108485E0,5.4237223E0,4.849473E0,5.1925993E0,7.1693707E0,1.0049961E1,1.7159021E1,6.654768E0,0E0,7.5007534E0,9.870534E-1,5.2325788E0,1.0301424E1,2.2429256E0,8.340595E0,7.890395E0,6.167588E0,5.5701766E0,4.4333267E0,0E0,0E0,1.2318161E1,1.2530944E1,2.3424225E0,0E0,0E0,0E0,3.126575E0,9.612022E0,0E0,0E0,0E0,0E0,0E0,0E0,0E0,0E0,0E0,0E0,0E0,0E0,0E0,0E0,0E0,0E0,0E0,0E0],"parents":[2147483647,0,0,1,1,2,2,3,3,4,4,5,5,6,6,7,7,9,9,10,10,11,11,12,12,13,13,14,14,15,15,16,16,17,17,18,18,21,21,22,22,23,23,27,27,28,28],"right_children":[2,4,6,8,10,12,14,16,-1,18,20,22,24,26,28,30,32,34,36,-1,-1,38,40,42,-1,-1,-1,44,46,-1,-1,-1,-1,-1,-1,-1,-1,-1,-1,-1,-1,-1,-1,-1,-1,-1,-1],"split_conditions":[1.4698646E1,2.9814303E0,1.8556467E1,1.4748934E1,8.241119E-1,1.7742E1,1.9530062E1,3.690567E9,1.1060257E-1,3.609799E1,1.24437265E-1,3.0944874E0,8.604766E-1,1.869543E1,5.9176147E-1,2.5252666E0,5.317711E-1,5.7957137E-1,7.2381195E1,-0E0,-1.0905416E-1,2.9330546E-1,3.1275915E1,1.0175699E0,8.651213E-2,-0E0,1.5080753E-1,-2.604871E-1,2.24769E1,-3.7283779E-3,4.423592E-2,-5.2813765E-2,5.839735E-2,8.808661E-2,-6.11702E-2,1.3438343E-1,3.2967355E-2,-1.4426191E-2,8.41973E-2,4.9984448E-2,-6.629943E-2,-0E0,-1.2862566E-1,-0E0,1.1824613E-1,-3.9138604E-2,7.7897855E-3],"split_indices":[1,13,0,7,3,7,1,5,0,2,18,13,4,1,4,0,6,4,2,0,0,3,2,9,0,0,0,12,0,0,0,0,0,0,0,0,0,0,0,0,0,0,0,0,0,0,0],"split_type":[0,0,0,0,0,0,0,0,0,0,0,0,0,0,0,0,0,0,0,0,0,0,0,0,0,0,0,0,0,0,0,0,0,0,0,0,0,0,0,0,0,0,0,0,0,0,0],"sum_hessian":[6.1143787E2,2.6413757E2,3.473003E2,2.3007983E2,3.4057755E1,1.2963902E2,2.1766127E2,2.2679724E2,3.2825925E0,3.100561E1,3.0521464E0,1.12490685E2,1.7148335E1,8.844993E0,2.0881628E2,1.8762888E2,3.916837E1,9.307906E0,2.1697704E1,1.0954773E0,1.9566691E0,6.7844315E1,4.4646374E1,1.5289276E1,1.8590589E0,1.2104979E0,7.634495E0,8.899765E0,1.9991652E2,1.4423639E2,4.3392475E1,3.4625088E1,4.5432816E0,2.5977418E0,6.710164E0,1.11794E1,1.0518304E1,5.237806E1,1.5466251E1,1.1388471E1,3.32579E1,1.0968347E0,1.4192442E1,2.2728589E0,6.626906E0,6.2043957E1,1.3787256E2],"tree_param":{"num_deleted":"0","num_feature":"19","num_nodes":"47","size_leaf_vector":"1"}},{"base_weights":[2.5961576E-3,8.42306E-3,-7.6056175E-2,2.4141309E-1,-6.613278E-3,6.623652E-1,3.174881E-2,1.0098528E-2,-3.2553282E-1,-2.5466982E-2,8.5028136E-1,-2.3202887E-1,2.846238E-1,1.913577E-2,-5.374573E-1,5.7696898E-2,-4.3335035E-1,9.520691E-2,-0E0,-4.757419E-2,3.031137E-2,7.629266E-2,1.0240867E-3,8.4377854E-4,8.95234E-2,-8.902606E-2,3.151727E-2,-5.606262E-2,2.547047E-2],"categories":[],"categories_nodes":[],"categories_segments":[],"categories_sizes":[],"default_left":[0,0,0,0,0,0,0,0,0,0,0,0,0,0,0,0,0,0,0,0,0,0,0,0,0,0,0,0,0],"id":29,"left_children":[1,3,-1,5,7,9,11,13,15,-1,17,19,21,23,25,-1,27,-1,-1,-1,-1,-1,-1,-1,-1,-1,-1,-1,-1],"loss_changes":[2.342485E0,2.2452343E0,0E0,3.0595737E0,3.194068E0,2.59414E0,1.9445133E0,2.4243898E0,3.0833519E0,0E0,9.9612427E-1,1.9486792E0,1.6520836E0,4.5391564E0,2.946821E0,0E0,2.7246423E0,0E0,0E0,0E0,0E0,0E0,0E0,0E0,0E0,0E0,0E0,0E0,0E0],"parents":[2147483647,0,0,1,1,3,3,4,4,5,5,6,6,7,7,8,8,10,10,11,11,12,12,13,13,14,14,16,16],"right_children":[2,4,-1,6,8,10,12,14,16,-1,18,20,22,24,26,-1,28,-1,-1,-1,-1,-1,-1,-1,-1,-1,-1,-1,-1],"split_conditions":[3.5308548E2,9.614478E-1,-7.6056175E-2,-2.6478255E-2,1.0084047E0,9.275562E-1,1.2714644E-2,1.4275032E-1,-1.9543936E-2,-2.5466982E-2,7.9492545E-1,-1.0666752E-1,3.8644217E-2,2.2584629E-1,5.0181698E1,5.7696898E-2,1.0579664E0,9.520691E-2,-0E0,-4.757419E-2,3.031137E-2,7.629266E-2,1.0240867E-3,8.4377854E-4,8.95234E-2,-8.902606E-2,3.151727E-2,-5.606262E-2,2.547047E-2],"split_indices":[1,8,0,15,12,8,16,15,14,0,3,10,16,18,0,0,8,0,0,0,0,0,0,0,0,0,0,0,0],"split_type":[0,0,0,0,0,0,0,0,0,0,0,0,0,0,0,0,0,0,0,0,0,0,0,0,0,0,0,0,0],"sum_hessian":[6.0890356E2,6.059213E2,2.9822268E0,3.7836548E1,5.680848E2,1.1068966E1,2.6767582E1,5.39229E2,2.8855772E1,1.3695481E0,9.699418E0,1.2173939E1,1.4593643E1,5.323214E2,6.907602E0,2.120129E0,2.6735643E1,8.632868E0,1.0665501E0,9.082805E0,3.0911338E0,4.00659E0,1.0587053E1,5.2746094E2,4.8604517E0,5.269472E0,1.6381294E0,2.333166E1,3.4039826E0],"tree_param":{"num_deleted":"0","num_feature":"19","num_nodes":"29","size_leaf_vector":"1"}},{"base_weights":[2.774925E-3,2.7327707E-1,-9.872183E-3,-2.3140378E-1,4.6145913E-1,-1.1094383E-1,-9.078843E-4,-5.8748823E-1,5.1099546E-2,6.558331E-1,-1.2332801E-1,3.9310962E-1,-2.5941437E-2,1.4587171E-2,-8.906021E-1,-2.2247046E-2,7.5839245E-1,-7.8451626E-2,2.1620867E-1,-3.1014258E-1,6.208846E-1,-4.9961057E-1,5.847391E-3,-0E0,-1.0838838E-1,8.919301E-2,-0E0,5.726489E-2,-1.515424E-2,-7.5229645E-2,7.502883E-2,1.295247E-1,7.6301405E-3,-1.212007E-1,-2.5019353E-2,4.7907453E-2,-8.8337826E-4],"categories":[],"categories_nodes":[],"categories_segments":[],"categories_sizes":[],"default_left":[0,0,0,0,0,0,0,0,0,0,0,0,0,0,0,0,0,0,0,0,0,0,0,0,0,0,0,0,0,0,0,0,0,0,0,0,0],"id":30,"left_children":[1,3,5,7,9,-1,11,13,-1,15,17,19,21,-1,23,-1,25,-1,27,29,31,33,35,-1,-1,-1,-1,-1,-1,-1,-1,-1,-1,-1,-1,-1,-1],"loss_changes":[2.2188783E0,2.9775054E0,5.173501E0,2.407072E0,2.8695045E0,0E0,5.5282145E0,1.8824606E0,0E0,2.0089912E0,1.7414558E0,5.698077E0,8.465732E0,0E0,3.490219E-1,0E0,1.7950926E0,0E0,8.313633E-1,4.457636E0,8.800155E0,5.24088E0,3.791793E0,0E0,0E0,0E0,0E0,0E0,0E0,0E0,0E0,0E0,0E0,0E0,0E0,0E0,0E0],"parents":[2147483647,0,0,1,1,2,2,3,3,4,4,6,6,7,7,9,9,10,10,11,11,12,12,14,14,16,16,18,18,19,19,20,20,21,21,22,22],"right_children":[2,4,6,8,10,-1,12,14,-1,16,18,20,22,-1,24,-1,26,-1,28,30,32,34,36,-1,-1,-1,-1,-1,-1,-1,-1,-1,-1,-1,-1,-1,-1],"split_conditions":[6.9285855E-2,-2.3171164E-2,1.3838667E0,1.0443035E0,2.553345E-2,-1.1094383E-1,1.858617E0,4.013873E1,5.1099546E-2,-4.6713404E-2,2.0310199E-2,-5.609748E-2,3.8078898E-1,1.4587171E-2,-3.697793E-2,-2.2247046E-2,2.2782333E0,-7.8451626E-2,1.6849974E-2,9.092179E-2,2.1198362E-2,-2.849551E-2,4.583545E-1,-0E0,-1.0838838E-1,8.919301E-2,-0E0,5.726489E-2,-1.515424E-2,-7.5229645E-2,7.502883E-2,1.295247E-1,7.6301405E-3,-1.212007E-1,-2.5019353E-2,4.7907453E-2,-8.8337826E-4],"split_indices":[4,15,0,9,14,0,1,2,0,3,15,3,13,0,15,0,0,0,3,6,18,17,13,0,0,0,0,0,0,0,0,0,0,0,0,0,0],"split_type":[0,0,0,0,0,0,0,0,0,0,0,0,0,0,0,0,0,0,0,0,0,0,0,0,0,0,0,0,0,0,0,0,0,0,0,0,0],"sum_hessian":[6.083059E2,2.8015898E1,5.8029E2,6.8251123E0,2.1190784E1,3.2488232E0,5.770412E2,5.2088795E0,1.6162329E0,1.6454943E1,4.7358413E0,3.2400143E1,5.4464105E2,1.1926262E0,4.0162535E0,1.0885277E0,1.5366416E1,1.6618077E0,3.0740337E0,7.3011556E0,2.5098988E1,3.4316757E1,5.1032428E2,1.3324267E0,2.6838264E0,1.3089042E1,2.2773743E0,1.9685149E0,1.1055187E0,5.690531E0,1.6106246E0,1.0187349E1,1.4911638E1,7.378347E0,2.693841E1,1.5428651E1,4.9489563E2],"tree_param":{"num_deleted":"0","num_feature":"19","num_nodes":"37","size_leaf_vector":"1"}},{"base_weights":[2.1363515E-3,2.8661156E-2,-1.317179E-1,5.2824654E-3,2.8278157E-1,-3.645033E-1,5.3983953E-2,4.0867064E-2,-2.3645702E-1,7.892511E-1,2.1381479E-2,-7.263271E-2,-6.644931E-1,5.378671E-1,-4.1845925E-2,-2.1708626E-2,1.715159E-1,-3.7324977E-1,6.7819215E-2,9.4580853E-1,-1.4100837E-2,8.2528657E-1,-7.613375E-2,-8.292734E-1,3.073553E-1,2.9558271E-2,-7.534532E-1,-4.488213E-2,8.453422E-1,-1.937132E-1,4.6162334E-1,1.6212502E-2,-1.2520455E-2,4.485573E-3,5.267957E-2,-1.5738709E-2,-7.7998854E-2,-3.2161932E-2,6.6035606E-2,1.14383236E-1,-0E0,-0E0,9.924222E-2,-5.015061E-2,1.4208059E-2,-0E0,-9.837709E-2,-0E0,8.238196E-2,1.4785387E-3,-8.346743E-2,1.199232E-1,5.1572216E-3,-5.227187E-2,1.7325588E-3,8.168885E-2,-4.5157205E-2],"categories":[],"categories_nodes":[],"categories_segments":[],"categories_sizes":[],"default_left":[0,0,0,0,0,0,0,0,0,0,0,0,0,0,0,0,0,0,0,0,0,0,0,0,0,0,0,0,0,0,0,0,0,0,0,0,0,0,0,0,0,0,0,0,0,0,0,0,0,0,0,0,0,0,0,0,0],"id":31,"left_children":[1,3,5,7,9,11,13,15,17,19,21,23,25,27,29,31,33,35,37,39,-1,41,43,45,47,-1,49,-1,51,53,55,-1,-1,-1,-1,-1,-1,-1,-1,-1,-1,-1,-1,-1,-1,-1,-1,-1,-1,-1,-1,-1,-1,-1,-1,-1,-1],"loss_changes":[2.1109579E0,2.8926466E0,4.3948607E0,3.964605E0,5.040624E0,3.4919114E0,2.7734575E0,3.457791E0,2.625314E0,2.4826326E0,2.702569E0,7.587119E0,2.2492428E0,3.568223E0,3.4053369E0,5.2867746E0,5.835587E0,3.0828786E0,4.5233283E0,2.103942E0,0E0,1.2633467E-1,2.6764107E0,1.3251472E0,3.0056772E0,0E0,1.6715183E0,0E0,1.6298313E0,2.7704341E0,3.7921154E0,0E0,0E0,0E0,0E0,0E0,0E0,0E0,0E0,0E0,0E0,0E0,0E0,0E0,0E0,0E0,0E0,0E0,0E0,0E0,0E0,0E0,0E0,0E0,0E0,0E0,0E0],"parents":[2147483647,0,0,1,1,2,2,3,3,4,4,5,5,6,6,7,7,8,8,9,9,10,10,11,11,12,12,13,13,14,14,15,15,16,16,17,17,18,18,19,19,21,21,22,22,23,23,24,24,26,26,28,28,29,29,30,30],"right_children":[2,4,6,8,10,12,14,16,18,20,22,24,26,28,30,32,34,36,38,40,-1,42,44,46,48,-1,50,-1,52,54,56,-1,-1,-1,-1,-1,-1,-1,-1,-1,-1,-1,-1,-1,-1,-1,-1,-1,-1,-1,-1,-1,-1,-1,-1,-1,-1],"split_conditions":[7.633246E-2,5.85939E-2,6.863606E1,3.947811E-2,1.0265384E0,1.4298233E1,-3.4030828E-1,2.9691246E-3,7.2381195E1,7.6640144E-2,9.6774584E-1,1.0404755E-1,1.9591266E-2,-5.656777E-1,1.0716698E0,1.3364266E1,1.0431255E0,1.8234539E-1,5.4590464E-1,1.0092245E0,-1.4100837E-2,4.6702045E1,-3.1724481E-3,-3.327825E8,5.2365378E-2,2.9558271E-2,9.5949537E-1,-4.488213E-2,1.0407472E0,5.355479E-2,8.604906E1,1.6212502E-2,-1.2520455E-2,4.485573E-3,5.267957E-2,-1.5738709E-2,-7.7998854E-2,-3.2161932E-2,6.6035606E-2,1.14383236E-1,-0E0,-0E0,9.924222E-2,-5.015061E-2,1.4208059E-2,-0E0,-9.837709E-2,-0E0,8.238196E-2,1.4785387E-3,-8.346743E-2,1.199232E-1,5.1572216E-3,-5.227187E-2,1.7325588E-3,8.168885E-2,-4.5157205E-2],"split_indices":[18,18,2,18,9,0,12,18,2,17,8,4,17,12,9,7,9,3,4,8,0,2,14,5,15,0,8,0,9,16,2,0,0,0,0,0,0,0,0,0,0,0,0,0,0,0,0,0,0,0,0,0,0,0,0,0,0],"split_type":[0,0,0,0,0,0,0,0,0,0,0,0,0,0,0,0,0,0,0,0,0,0,0,0,0,0,0,0,0,0,0,0,0,0,0,0,0,0,0,0,0,0,0,0,0,0,0,0,0,0,0,0,0,0,0,0,0],"sum_hessian":[6.0700916E2,5.103905E2,9.661863E1,4.7012784E2,4.0262684E1,4.3641613E1,5.2977016E1,4.1233105E2,5.7796772E1,1.2367749E1,2.7894936E1,2.3594519E1,2.0047094E1,8.8573885E0,4.4119625E1,2.7677396E2,1.3555711E2,4.0848965E1,1.694781E1,1.103191E1,1.3358388E0,2.7649806E0,2.5129955E1,7.9325366E0,1.5661983E1,1.0264374E0,1.9020657E1,1.6088234E0,7.248565E0,3.5131004E1,8.988621E0,9.774958E1,1.7902437E2,1.0179865E2,3.3758465E1,2.8395344E1,1.245362E1,9.993244E0,6.954566E0,8.834606E0,2.197304E0,1.0330783E0,1.7319022E0,8.857276E0,1.6272678E1,1.2161045E0,6.716432E0,9.914033E0,5.74795E0,1.3082603E0,1.7712397E1,4.2244506E0,3.024115E0,1.4077226E1,2.105378E1,6.941228E0,2.0473926E0],"tree_param":{"num_deleted":"0","num_feature":"19","num_nodes":"57","size_leaf_vector":"1"}},{"base_weights":[2.436128E-3,1.0941887E-1,-2.8591191E-2,-1.3833816E-1,2.8475878E-1,-3.6209947E-1,1.0389485E-2,3.87616E-1,-4.2639768E-1,6.0308397E-1,5.932249E-2,-9.293378E-1,-1.8508041E-1,9.578904E-2,-1.2163672E-1,-2.0339318E-1,8.040939E-1,-6.313632E-1,7.767401E-1,-3.1842062E-1,8.271669E-1,-9.0872206E-2,1.492922E-1,-2.1268165E-1,-1.3241956E-1,7.8165126E-1,-5.8918524E-1,-7.3051616E-3,4.264923E-1,-3.5174042E-1,1.0440537E-1,4.612901E-2,-1.0847304E-1,1.1906363E-1,2.322804E-3,2.8564854E-2,-8.578539E-2,-0E0,8.733499E-2,-7.2550826E-2,6.924692E-2,9.905586E-2,-1.7381148E-2,-1.3447823E-2,5.5991996E-2,-5.7276875E-2,2.8159803E-2,9.627364E-2,-4.444165E-3,-9.962083E-2,-5.534751E-3,8.250526E-3,-4.600745E-2,9.842002E-2,1.639168E-2,-1.49656E-2,-1.1152686E-1,1.0671258E-1,-7.4409335E-3],"categories":[],"categories_nodes":[],"categories_segments":[],"categories_sizes":[],"default_left":[0,0,0,0,0,0,0,0,0,0,0,0,0,0,0,0,0,0,0,0,0,0,0,0,0,0,0,0,0,0,0,0,0,0,0,0,0,0,0,0,0,0,0,0,0,0,0,0,0,0,0,0,0,0,0,0,0,0,0],"id":32,"left_children":[1,3,5,7,9,11,13,15,17,19,21,23,25,27,29,31,33,35,37,39,41,-1,43,45,-1,47,49,51,53,55,57,-1,-1,-1,-1,-1,-1,-1,-1,-1,-1,-1,-1,-1,-1,-1,-1,-1,-1,-1,-1,-1,-1,-1,-1,-1,-1,-1,-1],"loss_changes":[2.0573285E0,6.20409E0,6.256669E0,8.911747E0,5.6337595E0,4.3203754E0,4.713509E0,5.4590015E0,9.864681E0,7.464015E0,4.196111E0,2.0741396E0,1.6087698E1,8.96719E0,8.606558E0,5.9032817E0,3.1693897E0,7.5177917E0,7.705426E-2,3.344238E0,5.1229477E0,0E0,5.878502E0,1.2970428E0,0E0,2.2865348E0,5.789529E0,8.179851E0,8.37234E0,1.1821323E1,1.4621463E1,0E0,0E0,0E0,0E0,0E0,0E0,0E0,0E0,0E0,0E0,0E0,0E0,0E0,0E0,0E0,0E0,0E0,0E0,0E0,0E0,0E0,0E0,0E0,0E0,0E0,0E0,0E0,0E0],"parents":[2147483647,0,0,1,1,2,2,3,3,4,4,5,5,6,6,7,7,8,8,9,9,10,10,11,11,12,12,13,13,14,14,15,15,16,16,17,17,18,18,19,19,20,20,22,22,23,23,25,25,26,26,27,27,28,28,29,29,30,30],"right_children":[2,4,6,8,10,12,14,16,18,20,22,24,26,28,30,32,34,36,38,40,42,-1,44,46,-1,48,50,52,54,56,58,-1,-1,-1,-1,-1,-1,-1,-1,-1,-1,-1,-1,-1,-1,-1,-1,-1,-1,-1,-1,-1,-1,-1,-1,-1,-1,-1,-1],"split_conditions":[-1.6866109E-1,3.901353E9,-5.609748E-2,5.7957137E-1,1.9683334E1,1.0519051E-1,4.3752223E9,1.3246584E1,4.650695E0,5.111908E-1,2.0528225E1,-2.2666931E-2,3.5417175E9,3.416639E-1,2.5209496E1,1.30079E1,2.3138776E0,-7.428782E-2,1.7408247E1,3.5434276E-2,7.053175E-2,-9.0872206E-2,4.0995438E1,7.609557E-2,-1.3241956E-1,2.131199E0,2.3138776E0,1.4938575E1,6.359893E1,8.5061866E-1,1.8023605E1,4.612901E-2,-1.0847304E-1,1.1906363E-1,2.322804E-3,2.8564854E-2,-8.578539E-2,-0E0,8.733499E-2,-7.2550826E-2,6.924692E-2,9.905586E-2,-1.7381148E-2,-1.3447823E-2,5.5991996E-2,-5.7276875E-2,2.8159803E-2,9.627364E-2,-4.444165E-3,-9.962083E-2,-5.534751E-3,8.250526E-3,-4.600745E-2,9.842002E-2,1.639168E-2,-1.49656E-2,-1.1152686E-1,1.0671258E-1,-7.4409335E-3],"split_indices":[3,5,3,4,7,4,5,1,13,4,1,10,5,3,1,0,13,16,2,18,17,0,2,4,0,13,13,1,2,4,13,0,0,0,0,0,0,0,0,0,0,0,0,0,0,0,0,0,0,0,0,0,0,0,0,0,0,0,0],"split_type":[0,0,0,0,0,0,0,0,0,0,0,0,0,0,0,0,0,0,0,0,0,0,0,0,0,0,0,0,0,0,0,0,0,0,0,0,0,0,0,0,0,0,0,0,0,0,0,0,0,0,0,0,0,0,0,0,0,0,0],"sum_hessian":[6.05674E2,1.392221E2,4.6645193E2,5.6602146E1,8.261996E1,4.9288692E1,4.1716324E2,1.9293571E1,3.7308575E1,3.263911E1,4.9980846E1,1.00405035E1,3.924819E1,2.5577795E2,1.6138528E2,7.690848E0,1.1602723E1,3.263903E1,4.6695423E0,5.865576E0,2.6773535E1,3.0037494E0,4.6977097E1,4.5632443E0,5.477259E0,1.0929704E1,2.8318487E1,1.945839E2,6.1194057E1,8.079471E1,8.0590576E1,4.332593E0,3.358255E0,6.9816194E0,4.621104E0,5.9757442E0,2.6663288E1,1.0839281E0,3.585614E0,4.7355003E0,1.1300755E0,2.345487E1,3.3186638E0,2.745723E1,1.9519869E1,3.13335E0,1.4298947E0,9.32537E0,1.6043339E0,1.5044847E1,1.327364E1,1.6213632E2,3.2447575E1,1.8099154E1,4.3094902E1,6.534942E1,1.5445292E1,1.228387E1,6.83067E1],"tree_param":{"num_deleted":"0","num_feature":"19","num_nodes":"59","size_leaf_vector":"1"}},{"base_weights":[2.1131537E-3,3.2901824E-2,-1.1311988E-1,1.8766262E-2,4.3457827E-1,-0E0,-2.4948442E-1,3.5949755E-2,-3.3049288E-1,-0E0,1.0496356E0,-9.1236286E-2,4.250324E-2,-4.6306062E-2,-4.9566287E-1,8.0975175E-2,-9.4305724E-2,-5.970991E-1,6.5384763E-1,2.7496967E-1,-6.394049E-2,1.3134186E-1,1.8269059E-1,-3.4241104E-1,1.4445555E-1,2.1291026E-1,-2.7602342E-1,-7.35196E-1,-1.0292497E-2,9.807172E-4,2.7899439E-2,4.7172774E-2,-1.56239495E-2,1.2556423E-2,-8.0338754E-2,-0E0,7.809638E-2,-4.673901E-2,6.2089182E-2,-4.763631E-3,5.8296915E-2,5.5054605E-2,-6.85201E-2,-5.333513E-2,2.453958E-2,-0E0,8.472684E-2,-5.4507293E-2,3.4779932E-2,-0E0,-9.697728E-2,2.275513E-2,-8.554329E-2],"categories":[],